{"learner":{"attributes":{"scikit_learn":"{\"_estimator_type\": \"classifier\"}"},"feature_names":["AMH","AFC","FSH","Age","LH","PLT","Weight","Duration","POIorDOR_Yes","PCOS_Yes"],"feature_types":["float","float","float","float","float","float","float","float","float","float"],"gradient_booster":{"model":{"cats":{"enc":[],"feature_segments":[],"sorted_idx":[]},"gbtree_model_param":{"num_parallel_tree":"1","num_trees":"200"},"iteration_indptr":[0,1,2,3,4,5,6,7,8,9,10,11,12,13,14,15,16,17,18,19,20,21,22,23,24,25,26,27,28,29,30,31,32,33,34,35,36,37,38,39,40,41,42,43,44,45,46,47,48,49,50,51,52,53,54,55,56,57,58,59,60,61,62,63,64,65,66,67,68,69,70,71,72,73,74,75,76,77,78,79,80,81,82,83,84,85,86,87,88,89,90,91,92,93,94,95,96,97,98,99,100,101,102,103,104,105,106,107,108,109,110,111,112,113,114,115,116,117,118,119,120,121,122,123,124,125,126,127,128,129,130,131,132,133,134,135,136,137,138,139,140,141,142,143,144,145,146,147,148,149,150,151,152,153,154,155,156,157,158,159,160,161,162,163,164,165,166,167,168,169,170,171,172,173,174,175,176,177,178,179,180,181,182,183,184,185,186,187,188,189,190,191,192,193,194,195,196,197,198,199,200],"tree_info":[0,0,0,0,0,0,0,0,0,0,0,0,0,0,0,0,0,0,0,0,0,0,0,0,0,0,0,0,0,0,0,0,0,0,0,0,0,0,0,0,0,0,0,0,0,0,0,0,0,0,0,0,0,0,0,0,0,0,0,0,0,0,0,0,0,0,0,0,0,0,0,0,0,0,0,0,0,0,0,0,0,0,0,0,0,0,0,0,0,0,0,0,0,0,0,0,0,0,0,0,0,0,0,0,0,0,0,0,0,0,0,0,0,0,0,0,0,0,0,0,0,0,0,0,0,0,0,0,0,0,0,0,0,0,0,0,0,0,0,0,0,0,0,0,0,0,0,0,0,0,0,0,0,0,0,0,0,0,0,0,0,0,0,0,0,0,0,0,0,0,0,0,0,0,0,0,0,0,0,0,0,0,0,0,0,0,0,0,0,0,0,0,0,0,0,0,0,0,0,0],"trees":[{"base_weights":[-1.3626452E-1,-6.050012E-1,6.402438E-1,-1.6374272E-1,-4.184934E-2,-1.3084114E-2,6.78414E-2,-3.0837005E-2,1.85022E-2],"categories":[],"categories_nodes":[],"categories_segments":[],"categories_sizes":[],"default_left":[0,0,0,0,0,0,0,0,0],"id":0,"left_children":[1,3,5,7,-1,-1,-1,-1,-1],"loss_changes":[3.1538594E0,4.0076065E-1,2.5182042E0,9.665867E-1,0E0,0E0,0E0,0E0,0E0],"parents":[2147483647,0,0,1,1,2,2,3,3],"right_children":[2,4,6,8,-1,-1,-1,-1,-1],"split_conditions":[1.5712833E0,9.273826E-1,9.42E0,9E0,-4.184934E-2,-1.3084114E-2,6.78414E-2,-3.0837005E-2,1.85022E-2],"split_indices":[0,0,1,1,0,0,0,0,0],"split_type":[0,0,0,0,0,0,0,0,0],"sum_hessian":[6.6007657E0,4.2538266E0,2.3469388E0,2.0535715E0,2.2002552E0,1.3201531E0,1.0267857E0,1.0267857E0,1.0267857E0],"tree_param":{"num_deleted":"0","num_feature":"10","num_nodes":"9","size_leaf_vector":"1"}},{"base_weights":[-1.318345E-1,-7.8573996E-1,9.079967E-1,-5.801825E-3,-4.6055824E-2,7.447758E-3,6.680368E-2],"categories":[],"categories_nodes":[],"categories_segments":[],"categories_sizes":[],"default_left":[0,0,0,0,0,0,0],"id":1,"left_children":[1,3,5,-1,-1,-1,-1],"loss_changes":[5.8643303E0,3.6336493E-1,9.020202E-1,0E0,0E0,0E0,0E0],"parents":[2147483647,0,0,1,1,2,2],"right_children":[2,4,6,-1,-1,-1,-1],"split_conditions":[1.5712833E0,1.7533122E2,3.381627E1,-5.801825E-3,-4.6055824E-2,7.447758E-3,6.680368E-2],"split_indices":[0,5,3,0,0,0,0],"split_type":[0,0,0,0,0,0,0],"sum_hessian":[6.575368E0,4.186816E0,2.3885517E0,1.0163087E0,3.1705077E0,1.3473933E0,1.0411582E0],"tree_param":{"num_deleted":"0","num_feature":"10","num_nodes":"7","size_leaf_vector":"1"}},{"base_weights":[4.1176755E-2,-4.6046894E-2,8.4078205E-1,-3.4450825E-2,1.5774715E0,-8.701261E-3,1.21873334E-1],"categories":[],"categories_nodes":[],"categories_segments":[],"categories_sizes":[],"default_left":[0,0,0,0,0,0,0],"id":2,"left_children":[1,-1,3,-1,5,-1,-1],"loss_changes":[7.0271173E0,0E0,6.6784687E0,0E0,5.9263926E0,0E0,0E0],"parents":[2147483647,0,0,2,2,4,4],"right_children":[2,-1,4,-1,6,-1,-1],"split_conditions":[1.6466218E0,-4.6046894E-2,5.3956194E0,-3.4450825E-2,1.1323099E0,-8.701261E-3,1.21873334E-1],"split_indices":[7,0,2,0,0,0,0],"split_type":[0,0,0,0,0,0,0],"sum_hessian":[7.1277947E0,3.1662753E0,3.9615197E0,1.308669E0,2.6528506E0,1.1362888E0,1.5165619E0],"tree_param":{"num_deleted":"0","num_feature":"10","num_nodes":"7","size_leaf_vector":"1"}},{"base_weights":[2.0105155E-1,-4.573527E-2,1.3175076E0,1.0033081E-1,3.927553E-3],"categories":[],"categories_nodes":[],"categories_segments":[],"categories_sizes":[],"default_left":[0,0,0,0,0],"id":3,"left_children":[1,-1,3,-1,-1],"loss_changes":[1.01884E1,0E0,3.269754E0,0E0,0E0],"parents":[2147483647,0,0,2,2],"right_children":[2,-1,4,-1,-1],"split_conditions":[1.7357645E0,-4.573527E-2,3.6352808E0,1.0033081E-1,3.927553E-3],"split_indices":[7,0,7,0,0],"split_type":[0,0,0,0,0],"sum_hessian":[6.21146E0,3.1970844E0,3.014376E0,1.5388597E0,1.4755163E0],"tree_param":{"num_deleted":"0","num_feature":"10","num_nodes":"5","size_leaf_vector":"1"}},{"base_weights":[-9.736798E-2,-4.4701617E-2,6.530187E-1,7.188185E-2,-3.4127157E-2],"categories":[],"categories_nodes":[],"categories_segments":[],"categories_sizes":[],"default_left":[0,0,0,0,0],"id":4,"left_children":[1,-1,3,-1,-1],"loss_changes":[4.9733496E0,0E0,5.5491595E0,0E0,0E0],"parents":[2147483647,0,0,2,2],"right_children":[2,-1,4,-1,-1],"split_conditions":[1.7357645E0,-4.4701617E-2,4.9322805E0,7.188185E-2,-3.4127157E-2],"split_indices":[7,0,7,0,0],"split_type":[0,0,0,0,0],"sum_hessian":[6.342729E0,2.9836469E0,3.359082E0,2.0678368E0,1.2912452E0],"tree_param":{"num_deleted":"0","num_feature":"10","num_nodes":"5","size_leaf_vector":"1"}},{"base_weights":[-1.11299254E-1,-4.453368E-2,6.254742E-1,-3.2396697E-2,1.2731631E0,1.1684125E-2,8.848536E-2],"categories":[],"categories_nodes":[],"categories_segments":[],"categories_sizes":[],"default_left":[0,0,0,0,0,0,0],"id":5,"left_children":[1,-1,3,-1,5,-1,-1],"loss_changes":[4.825596E0,0E0,4.4610667E0,0E0,1.2688727E0,0E0,0E0],"parents":[2147483647,0,0,2,2,4,4],"right_children":[2,-1,4,-1,6,-1,-1],"split_conditions":[1.6466218E0,-4.453368E-2,5.3956194E0,-3.2396697E-2,1.2524827E0,1.1684125E-2,8.848536E-2],"split_indices":[7,0,2,0,0,0,0],"split_type":[0,0,0,0,0,0,0],"sum_hessian":[6.433536E0,3.0248756E0,3.4086604E0,1.1490862E0,2.259574E0,1.2058431E0,1.053731E0],"tree_param":{"num_deleted":"0","num_feature":"10","num_nodes":"7","size_leaf_vector":"1"}},{"base_weights":[2.1240892E-1,-4.432575E-2,1.1069816E0,-7.1616345E-3,1.5020778E0,1.4593636E-2,9.5281415E-2],"categories":[],"categories_nodes":[],"categories_segments":[],"categories_sizes":[],"default_left":[0,0,0,0,0,0,0],"id":6,"left_children":[1,-1,3,-1,5,-1,-1],"loss_changes":[8.649053E0,0E0,2.5586462E0,0E0,1.2469568E0,0E0,0E0],"parents":[2147483647,0,0,2,2,4,4],"right_children":[2,-1,4,-1,6,-1,-1],"split_conditions":[1.7357645E0,-4.432575E-2,8.3693206E-1,-7.1616345E-3,5.98222E0,1.4593636E-2,9.5281415E-2],"split_indices":[7,0,0,0,2,0,0],"split_type":[0,0,0,0,0,0,0],"sum_hessian":[6.799767E0,3.0554073E0,3.74436E0,1.0522304E0,2.6921296E0,1.104153E0,1.5879766E0],"tree_param":{"num_deleted":"0","num_feature":"10","num_nodes":"7","size_leaf_vector":"1"}},{"base_weights":[6.328313E-2,-4.261708E-2,8.1228137E-1,-1.6568877E-2,7.505239E-2],"categories":[],"categories_nodes":[],"categories_segments":[],"categories_sizes":[],"default_left":[0,0,0,0,0],"id":7,"left_children":[1,-1,3,-1,-1],"loss_changes":[5.5903416E0,0E0,3.9952488E0,0E0,0E0],"parents":[2147483647,0,0,2,2],"right_children":[2,-1,4,-1,-1],"split_conditions":[1.7357645E0,-4.261708E-2,1.2943649E0,-1.6568877E-2,7.505239E-2],"split_indices":[7,0,0,0,0],"split_type":[0,0,0,0,0],"sum_hessian":[6.142011E0,2.7015202E0,3.4404912E0,1.4882371E0,1.952254E0],"tree_param":{"num_deleted":"0","num_feature":"10","num_nodes":"5","size_leaf_vector":"1"}},{"base_weights":[-3.501579E-1,-4.5737054E-2,4.23388E-1,-1.035805E-2,3.9809354E-2],"categories":[],"categories_nodes":[],"categories_segments":[],"categories_sizes":[],"default_left":[0,0,0,0,0],"id":8,"left_children":[1,-1,3,-1,-1],"loss_changes":[3.5007608E0,0E0,1.0326872E0,0E0,0E0],"parents":[2147483647,0,0,2,2],"right_children":[2,-1,4,-1,-1],"split_conditions":[1.5712833E0,-4.5737054E-2,9.42E0,-1.035805E-2,3.9809354E-2],"split_indices":[0,0,1,0,0],"split_type":[0,0,0,0,0],"sum_hessian":[6.129034E0,3.4375565E0,2.6914778E0,1.1651174E0,1.5263603E0],"tree_param":{"num_deleted":"0","num_feature":"10","num_nodes":"5","size_leaf_vector":"1"}},{"base_weights":[6.746922E-2,-4.1352067E-2,7.2190577E-1,1.3189964E0,-3.1492535E-2,8.0511205E-2,1.5762543E-2],"categories":[],"categories_nodes":[],"categories_segments":[],"categories_sizes":[],"default_left":[0,0,0,0,0,0,0],"id":9,"left_children":[1,-1,3,5,-1,-1,-1],"loss_changes":[4.772682E0,0E0,4.58646E0,5.303192E-1,0E0,0E0,0E0],"parents":[2147483647,0,0,2,2,3,3],"right_children":[2,-1,4,6,-1,-1,-1],"split_conditions":[2.1545794E0,-4.1352067E-2,5.5344872E0,7.006047E0,-3.1492535E-2,8.0511205E-2,1.5762543E-2],"split_indices":[7,0,7,2,0,0,0],"split_type":[0,0,0,0,0,0,0],"sum_hessian":[6.1329575E0,2.4797664E0,3.6531913E0,2.550731E0,1.1024603E0,1.508762E0,1.041969E0],"tree_param":{"num_deleted":"0","num_feature":"10","num_nodes":"7","size_leaf_vector":"1"}},{"base_weights":[-1.0641452E-1,-4.104121E-2,4.29986E-1,-2.4608472E-1,5.719493E-2,-3.4188375E-2,1.8589823E-2],"categories":[],"categories_nodes":[],"categories_segments":[],"categories_sizes":[],"default_left":[0,0,0,0,0,0,0],"id":10,"left_children":[1,-1,3,5,-1,-1,-1],"loss_changes":[3.164913E0,0E0,2.6210976E0,1.1500739E0,0E0,0E0,0E0],"parents":[2147483647,0,0,2,2,3,3],"right_children":[2,-1,4,6,-1,-1,-1],"split_conditions":[1.7357645E0,-4.104121E-2,1.2943649E0,5.4372516E0,5.719493E-2,-3.4188375E-2,1.8589823E-2],"split_indices":[7,0,0,4,0,0,0],"split_type":[0,0,0,0,0,0,0],"sum_hessian":[6.337941E0,2.4905868E0,3.8473544E0,2.3126197E0,1.5347346E0,1.2912887E0,1.021331E0],"tree_param":{"num_deleted":"0","num_feature":"10","num_nodes":"7","size_leaf_vector":"1"}},{"base_weights":[-3.0095238E-2,-4.2036716E-2,5.945203E-1,-3.5110854E-2,1.2701058E0,8.4531896E-2,1.0914205E-2],"categories":[],"categories_nodes":[],"categories_segments":[],"categories_sizes":[],"default_left":[0,0,0,0,0,0,0],"id":11,"left_children":[1,-1,3,-1,5,-1,-1],"loss_changes":[4.3912635E0,0E0,5.2078285E0,0E0,1.2211542E0,0E0,0E0],"parents":[2147483647,0,0,2,2,4,4],"right_children":[2,-1,4,-1,6,-1,-1],"split_conditions":[1.7357645E0,-4.2036716E-2,5.3956194E0,-3.5110854E-2,7.006047E0,8.4531896E-2,1.0914205E-2],"split_indices":[7,0,2,0,2,0,0],"split_type":[0,0,0,0,0,0,0],"sum_hessian":[6.6854434E0,2.7588923E0,3.9265509E0,1.3314704E0,2.5950806E0,1.4200023E0,1.1750782E0],"tree_param":{"num_deleted":"0","num_feature":"10","num_nodes":"7","size_leaf_vector":"1"}},{"base_weights":[5.0608073E-3,-3.8145512E-1,5.710861E-2,-4.1376676E-2,6.624226E-2,2.075972E-2,-1.5513445E-2],"categories":[],"categories_nodes":[],"categories_segments":[],"categories_sizes":[],"default_left":[0,0,0,0,0,0,0],"id":12,"left_children":[1,3,-1,-1,5,-1,-1],"loss_changes":[3.6877875E0,1.3073695E0,0E0,0E0,6.61738E-1,0E0,0E0],"parents":[2147483647,0,0,1,1,4,4],"right_children":[2,4,-1,-1,6,-1,-1],"split_conditions":[3.0346625E0,9E0,5.710861E-2,-4.1376676E-2,2.3130396E2,2.075972E-2,-1.5513445E-2],"split_indices":[0,1,0,0,5,0,0],"split_type":[0,0,0,0,0,0,0],"sum_hessian":[6.3993483E0,5.2719116E0,1.127437E0,2.2157514E0,3.05616E0,1.5328069E0,1.523353E0],"tree_param":{"num_deleted":"0","num_feature":"10","num_nodes":"7","size_leaf_vector":"1"}},{"base_weights":[-1.2230161E-1,-3.9808955E-2,3.4610257E-1,-3.5542008E-2,9.80321E-1,-1.0275458E-2,7.8618966E-2],"categories":[],"categories_nodes":[],"categories_segments":[],"categories_sizes":[],"default_left":[0,0,0,0,0,0,0],"id":13,"left_children":[1,-1,3,-1,5,-1,-1],"loss_changes":[2.604157E0,0E0,4.0814433E0,0E0,2.83373E0,0E0,0E0],"parents":[2147483647,0,0,2,2,4,4],"right_children":[2,-1,4,-1,6,-1,-1],"split_conditions":[1.7357645E0,-3.9808955E-2,8.3693206E-1,-3.5542008E-2,4.206241E0,-1.0275458E-2,7.8618966E-2],"split_indices":[7,0,0,0,4,0,0],"split_type":[0,0,0,0,0,0,0],"sum_hessian":[6.37722E0,2.3280964E0,4.049124E0,1.4731933E0,2.5759306E0,1.0752364E0,1.500694E0],"tree_param":{"num_deleted":"0","num_feature":"10","num_nodes":"7","size_leaf_vector":"1"}},{"base_weights":[4.1304752E-1,-3.5468012E-2,9.303003E-1,-1.1738914E-2,1.3379837E0,1.428235E-2,8.244784E-2],"categories":[],"categories_nodes":[],"categories_segments":[],"categories_sizes":[],"default_left":[0,0,0,0,0,0,0],"id":14,"left_children":[1,-1,3,-1,5,-1,-1],"loss_changes":[4.521688E0,0E0,2.6823773E0,0E0,7.865319E-1,0E0,0E0],"parents":[2147483647,0,0,2,2,4,4],"right_children":[2,-1,4,-1,6,-1,-1],"split_conditions":[1.7357645E0,-3.5468012E-2,3.673292E0,-1.1738914E-2,5.9750032E0,1.428235E-2,8.244784E-2],"split_indices":[7,0,4,0,2,0,0],"split_type":[0,0,0,0,0,0,0],"sum_hessian":[5.6517043E0,1.6657425E0,3.9859617E0,1.1431581E0,2.8428037E0,1.0860741E0,1.7567295E0],"tree_param":{"num_deleted":"0","num_feature":"10","num_nodes":"7","size_leaf_vector":"1"}},{"base_weights":[-1.3365792E-1,-3.980639E-2,4.3736717E-1,-3.1996932E-2,1.0049825E0,6.408412E-2,1.338512E-2],"categories":[],"categories_nodes":[],"categories_segments":[],"categories_sizes":[],"default_left":[0,0,0,0,0,0,0],"id":15,"left_children":[1,-1,3,-1,5,-1,-1],"loss_changes":[2.8350914E0,0E0,3.196825E0,0E0,2.942276E-1,0E0,0E0],"parents":[2147483647,0,0,2,2,4,4],"right_children":[2,-1,4,-1,6,-1,-1],"split_conditions":[1.7357645E0,-3.980639E-2,3.5444868E0,-3.1996932E-2,5.225883E0,6.408412E-2,1.338512E-2],"split_indices":[7,0,4,0,4,0,0],"split_type":[0,0,0,0,0,0,0],"sum_hessian":[5.574088E0,2.3979356E0,3.1761525E0,1.052032E0,2.1241205E0,1.0075835E0,1.116537E0],"tree_param":{"num_deleted":"0","num_feature":"10","num_nodes":"7","size_leaf_vector":"1"}},{"base_weights":[-2.336164E-2,-3.8294647E-2,4.947824E-1,-3.0534226E-2,9.79221E-1,-9.979677E-3,7.974288E-2],"categories":[],"categories_nodes":[],"categories_segments":[],"categories_sizes":[],"default_left":[0,0,0,0,0,0,0],"id":16,"left_children":[1,-1,3,-1,5,-1,-1],"loss_changes":[2.9509013E0,0E0,3.0319395E0,0E0,2.8904257E0,0E0,0E0],"parents":[2147483647,0,0,2,2,4,4],"right_children":[2,-1,4,-1,6,-1,-1],"split_conditions":[1.7357645E0,-3.8294647E-2,5.3956194E0,-3.0534226E-2,8.9E0,-9.979677E-3,7.974288E-2],"split_indices":[7,0,2,0,1,0,0],"split_type":[0,0,0,0,0,0,0],"sum_hessian":[5.6849384E0,2.140018E0,3.5449204E0,1.00072E0,2.5442004E0,1.1047089E0,1.4394915E0],"tree_param":{"num_deleted":"0","num_feature":"10","num_nodes":"7","size_leaf_vector":"1"}},{"base_weights":[1.8981005E-1,-3.880413E-2,7.4005705E-1,-3.2277018E-2,1.258742E0,8.064709E-3,8.392983E-2],"categories":[],"categories_nodes":[],"categories_segments":[],"categories_sizes":[],"default_left":[0,0,0,0,0,0,0],"id":17,"left_children":[1,-1,3,-1,5,-1,-1],"loss_changes":[4.638635E0,0E0,4.6817446E0,0E0,1.6904049E0,0E0,0E0],"parents":[2147483647,0,0,2,2,4,4],"right_children":[2,-1,4,-1,6,-1,-1],"split_conditions":[1.7357645E0,-3.880413E-2,5.3956194E0,-3.2277018E-2,1.1323099E0,8.064709E-3,8.392983E-2],"split_indices":[7,0,2,0,0,0,0],"split_type":[0,0,0,0,0,0,0],"sum_hessian":[6.6471243E0,2.2634623E0,4.383662E0,1.1273979E0,3.2562644E0,1.2840595E0,1.9722049E0],"tree_param":{"num_deleted":"0","num_feature":"10","num_nodes":"7","size_leaf_vector":"1"}},{"base_weights":[2.4748836E-1,-3.615058E-2,7.118967E-1,6.58847E-2,-4.3262698E-2,-3.0296568E-2,2.3359997E-2],"categories":[],"categories_nodes":[],"categories_segments":[],"categories_sizes":[],"default_left":[0,0,0,0,0,0,0],"id":18,"left_children":[1,-1,3,-1,5,-1,-1],"loss_changes":[3.781324E0,0E0,2.5300527E0,0E0,1.2523218E0,0E0,0E0],"parents":[2147483647,0,0,2,2,4,4],"right_children":[2,-1,4,-1,6,-1,-1],"split_conditions":[1.6466218E0,-3.615058E-2,3.6352808E0,6.58847E-2,5.9750032E0,-3.0296568E-2,2.3359997E-2],"split_indices":[7,0,7,0,2,0,0],"split_type":[0,0,0,0,0,0,0],"sum_hessian":[6.247735E0,1.841858E0,4.405877E0,2.0313687E0,2.3745084E0,1.0405337E0,1.3339748E0],"tree_param":{"num_deleted":"0","num_feature":"10","num_nodes":"7","size_leaf_vector":"1"}},{"base_weights":[2.4371037E-1,-3.6681265E-2,7.4572E-1,-1.3186238E-2,1.1003006E0,9.880642E-3,6.9883265E-2],"categories":[],"categories_nodes":[],"categories_segments":[],"categories_sizes":[],"default_left":[0,0,0,0,0,0,0],"id":19,"left_children":[1,-1,3,-1,5,-1,-1],"loss_changes":[4.0814013E0,0E0,2.1710985E0,0E0,8.196063E-1,0E0,0E0],"parents":[2147483647,0,0,2,2,4,4],"right_children":[2,-1,4,-1,6,-1,-1],"split_conditions":[1.7357645E0,-3.6681265E-2,3.5444868E0,-1.3186238E-2,3.1185316E1,9.880642E-3,6.9883265E-2],"split_indices":[7,0,4,0,3,0,0],"split_type":[0,0,0,0,0,0,0],"sum_hessian":[6.2036114E0,1.9486035E0,4.255008E0,1.1727046E0,3.0823035E0,1.1762369E0,1.9060667E0],"tree_param":{"num_deleted":"0","num_feature":"10","num_nodes":"7","size_leaf_vector":"1"}},{"base_weights":[-2.7780616E-1,-5.25027E-1,2.400859E-2,-4.0812083E-2,-4.2173695E-2,-3.391742E-2,3.6418024E-2],"categories":[],"categories_nodes":[],"categories_segments":[],"categories_sizes":[],"default_left":[0,0,0,0,0,0,0],"id":20,"left_children":[1,3,-1,5,-1,-1,-1],"loss_changes":[1.5944806E0,8.7217224E-1,0E0,2.1532485E0,0E0,0E0,0E0],"parents":[2147483647,0,0,1,1,3,3],"right_children":[2,4,-1,6,-1,-1,-1],"split_conditions":[1.2E1,6.6025677E0,2.400859E-2,5.8038797E0,-4.2173695E-2,-3.391742E-2,3.6418024E-2],"split_indices":[1,2,0,2,0,0,0],"split_type":[0,0,0,0,0,0,0],"sum_hessian":[6.163627E0,4.879477E0,1.2841499E0,2.3834615E0,2.4960155E0,1.3678149E0,1.0156466E0],"tree_param":{"num_deleted":"0","num_feature":"10","num_nodes":"7","size_leaf_vector":"1"}},{"base_weights":[-8.856905E-3,-3.75356E-1,5.083282E-2,1.9803122E-2,-7.0552385E-1,-4.2095583E-2,-5.901418E-3],"categories":[],"categories_nodes":[],"categories_segments":[],"categories_sizes":[],"default_left":[0,0,0,0,0,0,0],"id":21,"left_children":[1,3,-1,-1,5,-1,-1],"loss_changes":[3.059993E0,1.8026048E0,0E0,0E0,2.6500392E-1,0E0,0E0],"parents":[2147483647,0,0,1,1,4,4],"right_children":[2,4,-1,-1,6,-1,-1],"split_conditions":[3.0346625E0,1.8377913E2,5.083282E-2,1.9803122E-2,2.8005014E2,-4.2095583E-2,-5.901418E-3],"split_indices":[0,5,0,0,5,0,0],"split_type":[0,0,0,0,0,0,0],"sum_hessian":[6.126212E0,4.9803214E0,1.1458904E0,1.4328861E0,3.5474355E0,2.5275981E0,1.0198373E0],"tree_param":{"num_deleted":"0","num_feature":"10","num_nodes":"7","size_leaf_vector":"1"}},{"base_weights":[1.1879653E-1,-3.634239E-2,5.31401E-1,-2.8936181E-2,1.0024921E0,6.45292E-2,8.843056E-3],"categories":[],"categories_nodes":[],"categories_segments":[],"categories_sizes":[],"default_left":[0,0,0,0,0,0,0],"id":22,"left_children":[1,-1,3,-1,5,-1,-1],"loss_changes":[2.6410968E0,0E0,3.1536686E0,0E0,6.8056273E-1,0E0,0E0],"parents":[2147483647,0,0,2,2,4,4],"right_children":[2,-1,4,-1,6,-1,-1],"split_conditions":[4.4168396E0,-3.634239E-2,1.6466218E0,-2.8936181E-2,6.3546405E0,6.45292E-2,8.843056E-3],"split_indices":[4,0,7,0,4,0,0],"split_type":[0,0,0,0,0,0,0],"sum_hessian":[5.4624305E0,1.5414915E0,3.920939E0,1.1000948E0,2.8208442E0,1.673687E0,1.1471572E0],"tree_param":{"num_deleted":"0","num_feature":"10","num_nodes":"7","size_leaf_vector":"1"}},{"base_weights":[-2.9096607E-2,-3.5412755E-2,3.8384095E-1,7.4243957E-1,-1.5188294E-2,4.876495E-3,5.4312646E-2],"categories":[],"categories_nodes":[],"categories_segments":[],"categories_sizes":[],"default_left":[0,0,0,0,0,0,0],"id":23,"left_children":[1,-1,3,5,-1,-1,-1],"loss_changes":[2.0919645E0,0E0,1.380616E0,6.4110756E-1,0E0,0E0,0E0],"parents":[2147483647,0,0,2,2,3,3],"right_children":[2,-1,4,6,-1,-1,-1],"split_conditions":[1.7357645E0,-3.5412755E-2,4.9322805E0,6.4397484E1,-1.5188294E-2,4.876495E-3,5.4312646E-2],"split_indices":[7,0,7,6,0,0,0],"split_type":[0,0,0,0,0,0,0],"sum_hessian":[5.4899516E0,1.8054177E0,3.6845338E0,2.3692076E0,1.3153262E0,1.270233E0,1.0989745E0],"tree_param":{"num_deleted":"0","num_feature":"10","num_nodes":"7","size_leaf_vector":"1"}},{"base_weights":[1.3276973E-1,-4.6630093E-1,8.075493E-1,-5.6506507E-3,-3.4858886E-2,1.5036873E-2,5.2340567E-2],"categories":[],"categories_nodes":[],"categories_segments":[],"categories_sizes":[],"default_left":[0,0,0,0,0,0,0],"id":24,"left_children":[1,3,5,-1,-1,-1,-1],"loss_changes":[3.1954677E0,2.742141E-1,1.2724113E-1,0E0,0E0,0E0,0E0],"parents":[2147483647,0,0,1,1,2,2],"right_children":[2,4,6,-1,-1,-1,-1],"split_conditions":[1.5712833E0,6.6025677E0,3.0641627E0,-5.6506507E-3,-3.4858886E-2,1.5036873E-2,5.2340567E-2],"split_indices":[0,2,0,0,0,0,0],"split_type":[0,0,0,0,0,0,0],"sum_hessian":[5.973338E0,3.3278363E0,2.6455016E0,1.9039321E0,1.4239043E0,1.5721868E0,1.0733148E0],"tree_param":{"num_deleted":"0","num_feature":"10","num_nodes":"7","size_leaf_vector":"1"}},{"base_weights":[1.7740223E-1,-3.2971866E-2,5.0660336E-1,-3.196642E-2,9.0926516E-1,-1.1529326E-2,6.822712E-2],"categories":[],"categories_nodes":[],"categories_segments":[],"categories_sizes":[],"default_left":[0,0,0,0,0,0,0],"id":25,"left_children":[1,-1,3,-1,5,-1,-1],"loss_changes":[2.356031E0,0E0,3.2727742E0,0E0,2.768815E0,0E0,0E0],"parents":[2147483647,0,0,2,2,4,4],"right_children":[2,-1,4,-1,6,-1,-1],"split_conditions":[1.6466218E0,-3.2971866E-2,5.3956194E0,-3.196642E-2,8.3693206E-1,-1.1529326E-2,6.822712E-2],"split_indices":[7,0,2,0,0,0,0],"split_type":[0,0,0,0,0,0,0],"sum_hessian":[6.3395357E0,1.5065906E0,4.832945E0,1.1038247E0,3.7291203E0,1.2052156E0,2.5239048E0],"tree_param":{"num_deleted":"0","num_feature":"10","num_nodes":"7","size_leaf_vector":"1"}},{"base_weights":[-3.7279367E-1,1.5971607E-2,-6.341545E-1,-4.497381E-2,7.538486E-3],"categories":[],"categories_nodes":[],"categories_segments":[],"categories_sizes":[],"default_left":[0,0,0,0,0],"id":26,"left_children":[1,-1,3,-1,-1],"loss_changes":[1.4335324E0,0E0,1.2339718E0,0E0,0E0],"parents":[2147483647,0,0,2,2],"right_children":[2,-1,4,-1,-1],"split_conditions":[5.0891098E1,1.5971607E-2,2.3640907E0,-4.497381E-2,7.538486E-3],"split_indices":[6,0,0,0,0],"split_type":[0,0,0,0,0],"sum_hessian":[5.8038816E0,1.5298408E0,4.2740407E0,3.085226E0,1.1888148E0],"tree_param":{"num_deleted":"0","num_feature":"10","num_nodes":"5","size_leaf_vector":"1"}},{"base_weights":[3.461389E-2,5.463116E-1,-3.8408592E-2,-2.3204757E-2,5.5024166E-2,-2.9913811E-2,2.5263527E-2],"categories":[],"categories_nodes":[],"categories_segments":[],"categories_sizes":[],"default_left":[0,0,0,0,0,0,0],"id":27,"left_children":[1,3,-1,5,-1,-1,-1],"loss_changes":[3.1793697E0,1.5049026E0,0E0,1.3024651E0,0E0,0E0,0E0],"parents":[2147483647,0,0,1,1,3,3],"right_children":[2,4,-1,6,-1,-1,-1],"split_conditions":[2.3363043E2,2.1369044E2,-3.8408592E-2,2.232162E0,5.5024166E-2,-2.9913811E-2,2.5263527E-2],"split_indices":[5,5,0,7,0,0,0],"split_type":[0,0,0,0,0,0,0],"sum_hessian":[5.718156E0,3.6873252E0,2.0308306E0,2.291008E0,1.3963172E0,1.0338848E0,1.2571231E0],"tree_param":{"num_deleted":"0","num_feature":"10","num_nodes":"7","size_leaf_vector":"1"}},{"base_weights":[1.4673288E-1,-3.675136E-2,5.303549E-1,-3.035148E-2,9.850064E-1,8.063144E-3,6.0249347E-2],"categories":[],"categories_nodes":[],"categories_segments":[],"categories_sizes":[],"default_left":[0,0,0,0,0,0,0],"id":28,"left_children":[1,-1,3,-1,5,-1,-1],"loss_changes":[2.8941486E0,0E0,3.5660918E0,0E0,6.178484E-1,0E0,0E0],"parents":[2147483647,0,0,2,2,4,4],"right_children":[2,-1,4,-1,6,-1,-1],"split_conditions":[5.3956194E0,-3.675136E-2,1.7357645E0,-3.035148E-2,4.134589E0,8.063144E-3,6.0249347E-2],"split_indices":[2,0,7,0,4,0,0],"split_type":[0,0,0,0,0,0,0],"sum_hessian":[6.4034886E0,1.6636194E0,4.7398696E0,1.2578926E0,3.4819767E0,1.0991511E0,2.3828256E0],"tree_param":{"num_deleted":"0","num_feature":"10","num_nodes":"7","size_leaf_vector":"1"}},{"base_weights":[-2.482165E-1,-5.038954E-1,2.9945506E-2,-3.8428426E-2,-1.6337791E-1,-2.8479839E-2,1.0114686E-2],"categories":[],"categories_nodes":[],"categories_segments":[],"categories_sizes":[],"default_left":[0,0,0,0,0,0,0],"id":29,"left_children":[1,3,-1,-1,5,-1,-1],"loss_changes":[1.7467318E0,3.8523412E-1,0E0,0E0,6.7205906E-1,0E0,0E0],"parents":[2147483647,0,0,1,1,4,4],"right_children":[2,4,-1,-1,6,-1,-1],"split_conditions":[3.7441128E1,9E0,2.9945506E-2,-3.8428426E-2,2.0490355E0,-2.8479839E-2,1.0114686E-2],"split_indices":[3,1,0,0,7,0,0],"split_type":[0,0,0,0,0,0,0],"sum_hessian":[5.6712584E0,4.6676455E0,1.003613E0,1.9190052E0,2.7486405E0,1.0379384E0,1.7107022E0],"tree_param":{"num_deleted":"0","num_feature":"10","num_nodes":"7","size_leaf_vector":"1"}},{"base_weights":[-3.8081642E-2,-3.4257397E-2,2.944417E-1,-1.4623244E-2,5.770708E-1,4.8376784E-2,-1.1087731E-4],"categories":[],"categories_nodes":[],"categories_segments":[],"categories_sizes":[],"default_left":[0,0,0,0,0,0,0],"id":30,"left_children":[1,-1,3,-1,5,-1,-1],"loss_changes":[1.5582653E0,0E0,9.755851E-1,0E0,8.208076E-1,0E0,0E0],"parents":[2147483647,0,0,2,2,4,4],"right_children":[2,-1,4,-1,6,-1,-1],"split_conditions":[8.9458114E-1,-3.4257397E-2,2.9187614E1,-1.4623244E-2,6.6025677E0,4.8376784E-2,-1.1087731E-4],"split_indices":[0,0,3,0,2,0,0],"split_type":[0,0,0,0,0,0,0],"sum_hessian":[5.30461E0,1.4406871E0,3.8639228E0,1.2445965E0,2.6193264E0,1.1643145E0,1.4550117E0],"tree_param":{"num_deleted":"0","num_feature":"10","num_nodes":"7","size_leaf_vector":"1"}},{"base_weights":[-3.2410544E-1,-5.981136E-1,2.5909832E-2,-4.2539474E-2,-2.5282388E-3],"categories":[],"categories_nodes":[],"categories_segments":[],"categories_sizes":[],"default_left":[0,0,0,0,0],"id":31,"left_children":[1,3,-1,-1,-1],"loss_changes":[1.7711468E0,6.8212485E-1,0E0,0E0,0E0],"parents":[2147483647,0,0,1,1],"right_children":[2,4,-1,-1,-1],"split_conditions":[3.0641627E0,5.7588153E0,2.5909832E-2,-4.2539474E-2,-2.5282388E-3],"split_indices":[0,4,0,0,0],"split_type":[0,0,0,0,0],"sum_hessian":[5.331114E0,4.241291E0,1.0898226E0,2.523133E0,1.7181581E0],"tree_param":{"num_deleted":"0","num_feature":"10","num_nodes":"5","size_leaf_vector":"1"}},{"base_weights":[5.8059275E-2,-4.155497E-1,5.954616E-1,-3.682783E-2,7.719224E-3,5.0751255E-3,4.1611124E-2],"categories":[],"categories_nodes":[],"categories_segments":[],"categories_sizes":[],"default_left":[0,0,0,0,0,0,0],"id":32,"left_children":[1,3,5,-1,-1,-1,-1],"loss_changes":[1.8849027E0,8.471205E-1,3.1606138E-1,0E0,0E0,0E0,0E0],"parents":[2147483647,0,0,1,1,2,2],"right_children":[2,4,6,-1,-1,-1,-1],"split_conditions":[1.4899932E0,5.7588153E0,3.0346625E0,-3.682783E-2,7.719224E-3,5.0751255E-3,4.1611124E-2],"split_indices":[0,4,0,0,0,0,0],"split_type":[0,0,0,0,0,0,0],"sum_hessian":[5.433553E0,3.0087268E0,2.4248266E0,1.7376612E0,1.2710655E0,1.248587E0,1.1762395E0],"tree_param":{"num_deleted":"0","num_feature":"10","num_nodes":"7","size_leaf_vector":"1"}},{"base_weights":[1.5419743E-2,-3.0949646E-1,2.8105473E-2,-2.9857606E-2,-9.725764E-3,-1.2760389E-2,1.2509904E-2],"categories":[],"categories_nodes":[],"categories_segments":[],"categories_sizes":[],"default_left":[0,0,0,0,0,0,0],"id":33,"left_children":[1,3,-1,-1,5,-1,-1],"loss_changes":[1.2371607E0,3.7353235E-1,0E0,0E0,2.661678E-1,0E0,0E0],"parents":[2147483647,0,0,1,1,4,4],"right_children":[2,4,-1,-1,6,-1,-1],"split_conditions":[1.058E1,1.6466218E0,2.8105473E-2,-2.9857606E-2,2.1361353E2,-1.2760389E-2,1.2509904E-2],"split_indices":[1,7,0,0,5,0,0],"split_type":[0,0,0,0,0,0,0],"sum_hessian":[4.985473E0,3.3991282E0,1.5863452E0,1.2283711E0,2.1707568E0,1.1257242E0,1.0450327E0],"tree_param":{"num_deleted":"0","num_feature":"10","num_nodes":"7","size_leaf_vector":"1"}},{"base_weights":[3.8559172E-2,-5.8849496E-1,6.536168E-1,-3.604492E-2,-6.165702E-3,1.3255209E-2,4.0207796E-2],"categories":[],"categories_nodes":[],"categories_segments":[],"categories_sizes":[],"default_left":[0,0,0,0,0,0,0],"id":34,"left_children":[1,3,5,-1,-1,-1,-1],"loss_changes":[2.8527005E0,1.3868201E-1,3.468275E-3,0E0,0E0,0E0,0E0],"parents":[2147483647,0,0,1,1,2,2],"right_children":[2,4,6,-1,-1,-1,-1],"split_conditions":[1.4899932E0,2.6005072E2,3.0641627E0,-3.604492E-2,-6.165702E-3,1.3255209E-2,4.0207796E-2],"split_indices":[0,5,0,0,0,0,0],"split_type":[0,0,0,0,0,0,0],"sum_hessian":[5.399311E0,2.6949668E0,2.704344E0,1.669939E0,1.0250279E0,1.5262966E0,1.1780474E0],"tree_param":{"num_deleted":"0","num_feature":"10","num_nodes":"7","size_leaf_vector":"1"}},{"base_weights":[9.333238E-2,-3.1557724E-2,3.9913568E-1,-1.9280817E-2,7.7835965E-1,-1.0466701E-2,6.066267E-2],"categories":[],"categories_nodes":[],"categories_segments":[],"categories_sizes":[],"default_left":[0,0,0,0,0,0,0],"id":35,"left_children":[1,-1,3,-1,5,-1,-1],"loss_changes":[1.7664871E0,0E0,1.9130483E0,0E0,1.9658217E0,0E0,0E0],"parents":[2147483647,0,0,2,2,4,4],"right_children":[2,-1,4,-1,6,-1,-1],"split_conditions":[1.7357645E0,-3.1557724E-2,3.673292E0,-1.9280817E-2,3.0996181E1,-1.0466701E-2,6.066267E-2],"split_indices":[7,0,4,0,3,0,0],"split_type":[0,0,0,0,0,0,0],"sum_hessian":[5.8362336E0,1.4164828E0,4.4197507E0,1.4344652E0,2.9852855E0,1.071176E0,1.9141093E0],"tree_param":{"num_deleted":"0","num_feature":"10","num_nodes":"7","size_leaf_vector":"1"}},{"base_weights":[1.757262E-1,-3.089857E-2,4.7378892E-1,-1.7974192E-2,8.272113E-1,-6.4368406E-3,5.8046974E-2],"categories":[],"categories_nodes":[],"categories_segments":[],"categories_sizes":[],"default_left":[0,0,0,0,0,0,0],"id":36,"left_children":[1,-1,3,-1,5,-1,-1],"loss_changes":[1.9471561E0,0E0,1.9612591E0,0E0,1.5117629E0,0E0,0E0],"parents":[2147483647,0,0,2,2,4,4],"right_children":[2,-1,4,-1,6,-1,-1],"split_conditions":[1.7357645E0,-3.089857E-2,3.673292E0,-1.7974192E-2,7.2035474E-1,-6.4368406E-3,5.8046974E-2],"split_indices":[7,0,4,0,0,0,0],"split_type":[0,0,0,0,0,0,0],"sum_hessian":[5.993095E0,1.3431606E0,4.6499343E0,1.3797389E0,3.2701955E0,1.0051728E0,2.2650225E0],"tree_param":{"num_deleted":"0","num_feature":"10","num_nodes":"7","size_leaf_vector":"1"}},{"base_weights":[-1.2662679E-2,-3.4503713E-2,2.8757766E-1,4.669038E-2,-3.529483E-1,-3.3528905E-2,9.8606935E-3],"categories":[],"categories_nodes":[],"categories_segments":[],"categories_sizes":[],"default_left":[0,0,0,0,0,0,0],"id":37,"left_children":[1,-1,3,-1,5,-1,-1],"loss_changes":[1.5807779E0,0E0,2.5710685E0,0E0,7.3430455E-1,0E0,0E0],"parents":[2147483647,0,0,2,2,4,4],"right_children":[2,-1,4,-1,6,-1,-1],"split_conditions":[5.3956194E0,-3.4503713E-2,7.006047E0,4.669038E-2,1.5712833E0,-3.3528905E-2,9.8606935E-3],"split_indices":[2,0,2,0,0,0,0],"split_type":[0,0,0,0,0,0,0],"sum_hessian":[5.796565E0,1.3814002E0,4.4151645E0,1.9698733E0,2.4452913E0,1.411503E0,1.0337883E0],"tree_param":{"num_deleted":"0","num_feature":"10","num_nodes":"7","size_leaf_vector":"1"}},{"base_weights":[1.595062E-1,-3.0592669E-2,4.5007735E-1,4.775094E-2,-1.471678E-1,-1.7890116E-2,8.369719E-3],"categories":[],"categories_nodes":[],"categories_segments":[],"categories_sizes":[],"default_left":[0,0,0,0,0,0,0],"id":38,"left_children":[1,-1,3,-1,5,-1,-1],"loss_changes":[1.8332212E0,0E0,1.8368427E0,0E0,2.880425E-1,0E0,0E0],"parents":[2147483647,0,0,2,2,4,4],"right_children":[2,-1,4,-1,6,-1,-1],"split_conditions":[1.7357645E0,-3.0592669E-2,3.6352808E0,4.775094E-2,6.188324E0,-1.7890116E-2,8.369719E-3],"split_indices":[7,0,7,0,2,0,0],"split_type":[0,0,0,0,0,0,0],"sum_hessian":[5.950458E0,1.3256508E0,4.624807E0,2.1814547E0,2.4433522E0,1.3810942E0,1.062258E0],"tree_param":{"num_deleted":"0","num_feature":"10","num_nodes":"7","size_leaf_vector":"1"}},{"base_weights":[-5.4783437E-2,-3.3821955E-1,3.202718E-2,1.9509777E-2,-3.5813294E-2,-3.1273536E-2,2.7650535E-2],"categories":[],"categories_nodes":[],"categories_segments":[],"categories_sizes":[],"default_left":[0,0,0,0,0,0,0],"id":39,"left_children":[1,3,-1,5,-1,-1,-1],"loss_changes":[1.512557E0,7.342259E-1,0E0,1.6224647E0,0E0,0E0,0E0],"parents":[2147483647,0,0,1,1,3,3],"right_children":[2,4,-1,6,-1,-1,-1],"split_conditions":[3.0641627E0,6.6025677E0,3.202718E-2,5.118981E0,-3.5813294E-2,-3.1273536E-2,2.7650535E-2],"split_indices":[0,2,0,2,0,0,0],"split_type":[0,0,0,0,0,0,0],"sum_hessian":[5.57554E0,4.3257976E0,1.2497424E0,2.7099135E0,1.615884E0,1.1487424E0,1.5611712E0],"tree_param":{"num_deleted":"0","num_feature":"10","num_nodes":"7","size_leaf_vector":"1"}},{"base_weights":[1.609292E-2,3.2070914E-1,-3.071588E-2,-1.4859512E-2,6.250686E-1,6.795799E-3,4.065248E-2],"categories":[],"categories_nodes":[],"categories_segments":[],"categories_sizes":[],"default_left":[0,0,0,0,0,0,0],"id":40,"left_children":[1,3,-1,-1,5,-1,-1],"loss_changes":[1.3103336E0,1.0444226E0,0E0,0E0,2.0040417E-1,0E0,0E0],"parents":[2147483647,0,0,1,1,4,4],"right_children":[2,4,-1,-1,6,-1,-1],"split_conditions":[2.3363043E2,3.9770532E0,-3.071588E-2,-1.4859512E-2,3.3000748E1,6.795799E-3,4.065248E-2],"split_indices":[5,4,0,0,3,0,0],"split_type":[0,0,0,0,0,0,0],"sum_hessian":[4.797518E0,3.5657878E0,1.23173E0,1.1845378E0,2.38125E0,1.139401E0,1.2418491E0],"tree_param":{"num_deleted":"0","num_feature":"10","num_nodes":"7","size_leaf_vector":"1"}},{"base_weights":[1.9515741E-1,-3.182879E-1,5.150445E-1,-2.9402623E-2,5.879002E-3,-1.3069153E-2,8.291366E-1,5.2116394E-2,1.0219047E-2],"categories":[],"categories_nodes":[],"categories_segments":[],"categories_sizes":[],"default_left":[0,0,0,0,0,0,0,0,0],"id":41,"left_children":[1,3,5,-1,-1,-1,7,-1,-1],"loss_changes":[1.2555641E0,4.4180283E-1,1.3085307E0,0E0,0E0,0E0,2.4344897E-1,0E0,0E0],"parents":[2147483647,0,0,1,1,2,2,6,6],"right_children":[2,4,6,-1,-1,-1,8,-1,-1],"split_conditions":[8.9E0,6.753131E1,5.4758496E0,-2.9402623E-2,5.879002E-3,-1.3069153E-2,2.3130396E2,5.2116394E-2,1.0219047E-2],"split_indices":[1,6,2,0,0,0,5,0,0],"split_type":[0,0,0,0,0,0,0,0,0],"sum_hessian":[5.6463804E0,2.1693666E0,3.4770138E0,1.124343E0,1.0450237E0,1.0497854E0,2.4272285E0,1.311363E0,1.1158655E0],"tree_param":{"num_deleted":"0","num_feature":"10","num_nodes":"9","size_leaf_vector":"1"}},{"base_weights":[-2.8530532E-2,-3.4558773E-2,2.951365E-1,7.3398334E-1,-2.5461257E-1,1.120583E-2,4.3896783E-2,1.0392751E-2,-2.9595613E-2],"categories":[],"categories_nodes":[],"categories_segments":[],"categories_sizes":[],"default_left":[0,0,0,0,0,0,0,0,0],"id":42,"left_children":[1,-1,3,5,7,-1,-1,-1,-1],"loss_changes":[1.6133262E0,0E0,1.4210176E0,3.0931592E-2,5.9307003E-1,0E0,0E0,0E0,0E0],"parents":[2147483647,0,0,2,2,3,3,4,4],"right_children":[2,-1,4,6,8,-1,-1,-1,-1],"split_conditions":[5.3956194E0,-3.4558773E-2,7.006047E0,3.3000748E1,3.1750015E1,1.120583E-2,4.3896783E-2,1.0392751E-2,-2.9595613E-2],"split_indices":[2,0,2,3,3,0,0,0,0],"split_type":[0,0,0,0,0,0,0,0,0],"sum_hessian":[5.5710526E0,1.4555818E0,4.115471E0,2.1022158E0,2.013255E0,1.0258001E0,1.0764157E0,1.0109378E0,1.0023172E0],"tree_param":{"num_deleted":"0","num_feature":"10","num_nodes":"9","size_leaf_vector":"1"}},{"base_weights":[1.8783776E-1,-2.9749578E-2,4.7225618E-1,4.883012E-2,-1.1408041E-2],"categories":[],"categories_nodes":[],"categories_segments":[],"categories_sizes":[],"default_left":[0,0,0,0,0],"id":43,"left_children":[1,-1,3,-1,-1],"loss_changes":[1.6112299E0,0E0,1.9678396E0,0E0,0E0],"parents":[2147483647,0,0,2,2],"right_children":[2,-1,4,-1,-1],"split_conditions":[5.3956194E0,-2.9749578E-2,7.006047E0,4.883012E-2,-1.1408041E-2],"split_indices":[2,0,2,0,0],"split_type":[0,0,0,0,0],"sum_hessian":[4.974556E0,1.0347009E0,3.939855E0,2.0612812E0,1.8785739E0],"tree_param":{"num_deleted":"0","num_feature":"10","num_nodes":"5","size_leaf_vector":"1"}},{"base_weights":[7.413353E-3,-2.8743139E-2,6.251703E-1,8.775423E-3,3.8770474E-2],"categories":[],"categories_nodes":[],"categories_segments":[],"categories_sizes":[],"default_left":[0,0,0,0,0],"id":44,"left_children":[1,-1,3,-1,-1],"loss_changes":[2.3133361E0,0E0,7.433367E-2,0E0,0E0],"parents":[2147483647,0,0,2,2],"right_children":[2,-1,4,-1,-1],"split_conditions":[1.4899932E0,-2.8743139E-2,3.0641627E0,8.775423E-3,3.8770474E-2],"split_indices":[0,0,0,0,0],"split_type":[0,0,0,0,0],"sum_hessian":[4.4320855E0,2.3173077E0,2.114778E0,1.0726273E0,1.0421507E0],"tree_param":{"num_deleted":"0","num_feature":"10","num_nodes":"5","size_leaf_vector":"1"}},{"base_weights":[1.3617793E-1,-3.060307E-2,3.9108303E-1,-1.6222239E-2,6.3883615E-1,4.4858545E-2,2.8120462E-4],"categories":[],"categories_nodes":[],"categories_segments":[],"categories_sizes":[],"default_left":[0,0,0,0,0,0,0],"id":45,"left_children":[1,-1,3,-1,5,-1,-1],"loss_changes":[1.5223787E0,0E0,1.2049057E0,0E0,7.338568E-1,0E0,0E0],"parents":[2147483647,0,0,2,2,4,4],"right_children":[2,-1,4,-1,6,-1,-1],"split_conditions":[5.3956194E0,-3.060307E-2,1.7539595E0,-1.6222239E-2,4.9322805E0,4.4858545E-2,2.8120462E-4],"split_indices":[2,0,7,0,7,0,0],"split_type":[0,0,0,0,0,0,0],"sum_hessian":[5.726848E0,1.0991904E0,4.627658E0,1.1106052E0,3.5170527E0,2.2018824E0,1.3151703E0],"tree_param":{"num_deleted":"0","num_feature":"10","num_nodes":"7","size_leaf_vector":"1"}},{"base_weights":[1.8355602E-1,-2.9427513E-2,4.406728E-1,8.382503E-1,-8.610805E-2,1.0068351E-2,5.2104052E-2,-3.1335447E-2,2.6372407E-2],"categories":[],"categories_nodes":[],"categories_segments":[],"categories_sizes":[],"default_left":[0,0,0,0,0,0,0,0,0],"id":46,"left_children":[1,-1,3,5,7,-1,-1,-1,-1],"loss_changes":[1.5435194E0,0E0,1.2082663E0,2.0356107E-1,1.405224E0,0E0,0E0,0E0,0E0],"parents":[2147483647,0,0,2,2,3,3,4,4],"right_children":[2,-1,4,6,8,-1,-1,-1,-1],"split_conditions":[5.3956194E0,-2.9427513E-2,7.006047E0,3.3000748E1,1.7709187E0,1.0068351E-2,5.2104052E-2,-3.1335447E-2,2.6372407E-2],"split_indices":[2,0,2,3,0,0,0,0,0],"split_type":[0,0,0,0,0,0,0,0,0],"sum_hessian":[5.468626E0,1.0441295E0,4.4244967E0,2.1845107E0,2.239986E0,1.0116022E0,1.1729085E0,1.1793927E0,1.0605931E0],"tree_param":{"num_deleted":"0","num_feature":"10","num_nodes":"9","size_leaf_vector":"1"}},{"base_weights":[-1.617634E-2,-3.3652674E-2,2.9951978E-1,3.5388365E-2,-1.52211385E-2],"categories":[],"categories_nodes":[],"categories_segments":[],"categories_sizes":[],"default_left":[0,0,0,0,0],"id":47,"left_children":[1,-1,3,-1,-1],"loss_changes":[1.4921536E0,0E0,1.4224361E0,0E0,0E0],"parents":[2147483647,0,0,2,2],"right_children":[2,-1,4,-1,-1],"split_conditions":[3.038436E1,-3.3652674E-2,3.452211E1,3.5388365E-2,-1.52211385E-2],"split_indices":[3,0,3,0,0],"split_type":[0,0,0,0,0],"sum_hessian":[5.2233615E0,1.3280619E0,3.8952997E0,2.2216306E0,1.6736691E0],"tree_param":{"num_deleted":"0","num_feature":"10","num_nodes":"5","size_leaf_vector":"1"}},{"base_weights":[4.623513E-2,-2.8811399E-2,2.8853998E-1,6.496189E-1,-1.1151033E-2,8.281813E-3,4.0802646E-2],"categories":[],"categories_nodes":[],"categories_segments":[],"categories_sizes":[],"default_left":[0,0,0,0,0,0,0],"id":48,"left_children":[1,-1,3,5,-1,-1,-1],"loss_changes":[1.0724746E0,0E0,1.0668122E0,1.21104956E-1,0E0,0E0,0E0],"parents":[2147483647,0,0,2,2,3,3],"right_children":[2,-1,4,6,-1,-1,-1],"split_conditions":[5.3956194E0,-2.8811399E-2,7.006047E0,3.3000748E1,-1.1151033E-2,8.281813E-3,4.0802646E-2],"split_indices":[2,0,2,3,0,0,0],"split_type":[0,0,0,0,0,0,0],"sum_hessian":[5.0083194E0,1.0171711E0,3.991148E0,2.1814919E0,1.8096563E0,1.0687681E0,1.1127236E0],"tree_param":{"num_deleted":"0","num_feature":"10","num_nodes":"7","size_leaf_vector":"1"}},{"base_weights":[2.8285531E-2,-3.0442739E-2,2.7589378E-1,-1.9264622E-2,6.132604E-1,7.689086E-3,4.8773356E-2],"categories":[],"categories_nodes":[],"categories_segments":[],"categories_sizes":[],"default_left":[0,0,0,0,0,0,0],"id":49,"left_children":[1,-1,3,-1,5,-1,-1],"loss_changes":[1.2052794E0,0E0,1.4459866E0,0E0,5.1182926E-1,0E0,0E0],"parents":[2147483647,0,0,2,2,4,4],"right_children":[2,-1,4,-1,6,-1,-1],"split_conditions":[5.3956194E0,-3.0442739E-2,8.9E0,-1.9264622E-2,6.027522E1,7.689086E-3,4.8773356E-2],"split_indices":[2,0,1,0,6,0,0],"split_type":[0,0,0,0,0,0,0],"sum_hessian":[5.575128E0,1.1519672E0,4.423161E0,1.4463943E0,2.9767668E0,1.9401504E0,1.0366164E0],"tree_param":{"num_deleted":"0","num_feature":"10","num_nodes":"7","size_leaf_vector":"1"}},{"base_weights":[-1.3703644E-1,-2.8389184E-2,1.0099939E-1,2.4686426E-2,-2.0914514E-2],"categories":[],"categories_nodes":[],"categories_segments":[],"categories_sizes":[],"default_left":[0,0,0,0,0],"id":50,"left_children":[1,-1,3,-1,-1],"loss_changes":[6.248565E-1,0E0,1.1066878E0,0E0,0E0],"parents":[2147483647,0,0,2,2],"right_children":[2,-1,4,-1,-1],"split_conditions":[1.7357645E0,-2.8389184E-2,3.6352808E0,2.4686426E-2,-2.0914514E-2],"split_indices":[7,0,7,0,0],"split_type":[0,0,0,0,0],"sum_hessian":[4.534893E0,1.1210201E0,3.413873E0,1.9718344E0,1.4420385E0],"tree_param":{"num_deleted":"0","num_feature":"10","num_nodes":"5","size_leaf_vector":"1"}},{"base_weights":[1.1626046E-2,-2.1413388E-2,3.7384745E-1,3.968879E-3,2.3737734E-2],"categories":[],"categories_nodes":[],"categories_segments":[],"categories_sizes":[],"default_left":[0,0,0,0,0],"id":51,"left_children":[1,-1,3,-1,-1],"loss_changes":[9.9514127E-1,0E0,6.357989E-2,0E0,0E0],"parents":[2147483647,0,0,2,2],"right_children":[2,-1,4,-1,-1],"split_conditions":[1.5712833E0,-2.1413388E-2,4.3089128E0,3.968879E-3,2.3737734E-2],"split_indices":[0,0,4,0,0],"split_type":[0,0,0,0,0],"sum_hessian":[4.2406173E0,1.8326497E0,2.4079678E0,1.0705378E0,1.33743E0],"tree_param":{"num_deleted":"0","num_feature":"10","num_nodes":"5","size_leaf_vector":"1"}},{"base_weights":[7.6111606E-3,-3.5953593E-1,3.462365E-1,-6.274867E-4,-3.0172441E-2,-9.172641E-4,2.59566E-2],"categories":[],"categories_nodes":[],"categories_segments":[],"categories_sizes":[],"default_left":[0,0,0,0,0,0,0],"id":52,"left_children":[1,3,5,-1,-1,-1,-1],"loss_changes":[9.437621E-1,3.015388E-1,2.5772023E-1,0E0,0E0,0E0,0E0],"parents":[2147483647,0,0,1,1,2,2],"right_children":[2,4,6,-1,-1,-1,-1],"split_conditions":[1.5712833E0,6.6025677E0,4.3089128E0,-6.274867E-4,-3.0172441E-2,-9.172641E-4,2.59566E-2],"split_indices":[0,2,4,0,0,0,0],"split_type":[0,0,0,0,0,0,0],"sum_hessian":[5.5897903E0,2.6523194E0,2.9374707E0,1.5288525E0,1.1234671E0,1.232472E0,1.7049986E0],"tree_param":{"num_deleted":"0","num_feature":"10","num_nodes":"7","size_leaf_vector":"1"}},{"base_weights":[1.3058557E-1,-2.2818362E-2,4.5961544E-1,3.8014095E-2,-1.0224072E-2],"categories":[],"categories_nodes":[],"categories_segments":[],"categories_sizes":[],"default_left":[0,0,0,0,0],"id":53,"left_children":[1,-1,3,-1,-1],"loss_changes":[1.3599983E0,0E0,1.0169965E0,0E0,0E0],"parents":[2147483647,0,0,2,2],"right_children":[2,-1,4,-1,-1],"split_conditions":[9E0,-2.2818362E-2,2.3363043E2,3.8014095E-2,-1.0224072E-2],"split_indices":[1,0,5,0,0],"split_type":[0,0,0,0,0],"sum_hessian":[4.9559608E0,1.6412121E0,3.3147488E0,2.1820164E0,1.1327324E0],"tree_param":{"num_deleted":"0","num_feature":"10","num_nodes":"5","size_leaf_vector":"1"}},{"base_weights":[-9.645116E-2,-3.9253506E-1,1.5380456E-2,1.479614E-3,-3.3278745E-2],"categories":[],"categories_nodes":[],"categories_segments":[],"categories_sizes":[],"default_left":[0,0,0,0,0],"id":54,"left_children":[1,3,-1,-1,-1],"loss_changes":[8.17736E-1,4.5785338E-1,0E0,0E0,0E0],"parents":[2147483647,0,0,1,1],"right_children":[2,4,-1,-1,-1],"split_conditions":[2.1551445E0,6.6025677E0,1.5380456E-2,1.479614E-3,-3.3278745E-2],"split_indices":[0,2,0,0,0],"split_type":[0,0,0,0,0],"sum_hessian":[4.825923E0,2.8015501E0,2.0243728E0,1.4505609E0,1.3509892E0],"tree_param":{"num_deleted":"0","num_feature":"10","num_nodes":"5","size_leaf_vector":"1"}},{"base_weights":[-2.0497876E-1,-3.3988487E-2,1.09778635E-1,1.8639227E-2,-1.444631E-2],"categories":[],"categories_nodes":[],"categories_segments":[],"categories_sizes":[],"default_left":[0,0,0,0,0],"id":55,"left_children":[1,-1,3,-1,-1],"loss_changes":[9.355942E-1,0E0,5.612764E-1,0E0,0E0],"parents":[2147483647,0,0,2,2],"right_children":[2,-1,4,-1,-1],"split_conditions":[4.4168396E0,-3.3988487E-2,6.6025677E0,1.8639227E-2,-1.444631E-2],"split_indices":[4,0,2,0,0],"split_type":[0,0,0,0,0],"sum_hessian":[4.7611566E0,1.4357538E0,3.325403E0,2.042848E0,1.2825549E0],"tree_param":{"num_deleted":"0","num_feature":"10","num_nodes":"5","size_leaf_vector":"1"}},{"base_weights":[8.722364E-2,-3.135791E-2,3.6280182E-1,-9.223815E-3,6.530453E-1,3.8773295E-2,8.118588E-3],"categories":[],"categories_nodes":[],"categories_segments":[],"categories_sizes":[],"default_left":[0,0,0,0,0,0,0],"id":56,"left_children":[1,-1,3,-1,5,-1,-1],"loss_changes":[1.5428429E0,0E0,9.86938E-1,0E0,1.01429105E-1,0E0,0E0],"parents":[2147483647,0,0,2,2,4,4],"right_children":[2,-1,4,-1,6,-1,-1],"split_conditions":[5.3956194E0,-3.135791E-2,8.9E0,-9.223815E-3,6.6025677E0,3.8773295E-2,8.118588E-3],"split_indices":[2,0,1,0,2,0,0],"split_type":[0,0,0,0,0,0,0],"sum_hessian":[5.6811695E0,1.2263389E0,4.4548306E0,1.6701095E0,2.7847214E0,1.764161E0,1.0205604E0],"tree_param":{"num_deleted":"0","num_feature":"10","num_nodes":"7","size_leaf_vector":"1"}},{"base_weights":[-1.864209E-1,-2.8800914E-2,1.4452425E-2],"categories":[],"categories_nodes":[],"categories_segments":[],"categories_sizes":[],"default_left":[0,0,0],"id":57,"left_children":[1,-1,-1],"loss_changes":[1.0715382E0,0E0,0E0],"parents":[2147483647,0,0],"right_children":[2,-1,-1],"split_conditions":[6.4397484E1,-2.8800914E-2,1.4452425E-2],"split_indices":[6,0,0],"split_type":[0,0,0],"sum_hessian":[3.885733E0,2.0194952E0,1.8662378E0],"tree_param":{"num_deleted":"0","num_feature":"10","num_nodes":"3","size_leaf_vector":"1"}},{"base_weights":[-9.960511E-2,-3.1051723E-2,1.6269922E-1,-1.199592E-2,2.3368655E-2],"categories":[],"categories_nodes":[],"categories_segments":[],"categories_sizes":[],"default_left":[0,0,0,0,0],"id":58,"left_children":[1,-1,3,-1,-1],"loss_changes":[9.113419E-1,0E0,6.928371E-1,0E0,0E0],"parents":[2147483647,0,0,2,2],"right_children":[2,-1,4,-1,-1],"split_conditions":[5.4758496E0,-3.1051723E-2,6.015648E1,-1.199592E-2,2.3368655E-2],"split_indices":[2,0,6,0,0],"split_type":[0,0,0,0,0],"sum_hessian":[4.9244075E0,1.1904087E0,3.733999E0,1.7000167E0,2.0339823E0],"tree_param":{"num_deleted":"0","num_feature":"10","num_nodes":"5","size_leaf_vector":"1"}},{"base_weights":[-1.4740583E-2,-3.8161704E-1,4.0573445E-1,-1.9105383E-4,-3.2374743E-2,-4.0450096E-3,3.3613633E-2],"categories":[],"categories_nodes":[],"categories_segments":[],"categories_sizes":[],"default_left":[0,0,0,0,0,0,0],"id":59,"left_children":[1,3,5,-1,-1,-1,-1],"loss_changes":[1.0786144E0,3.7052023E-1,4.7918147E-1,0E0,0E0,0E0,0E0],"parents":[2147483647,0,0,1,1,2,2],"right_children":[2,4,6,-1,-1,-1,-1],"split_conditions":[2.1551445E0,3.6352808E0,6.9486957E0,-1.9105383E-4,-3.2374743E-2,-4.0450096E-3,3.3613633E-2],"split_indices":[0,7,2,0,0,0,0],"split_type":[0,0,0,0,0,0,0],"sum_hessian":[4.9883633E0,2.7133245E0,2.2750387E0,1.5397732E0,1.1735513E0,1.0515817E0,1.2234569E0],"tree_param":{"num_deleted":"0","num_feature":"10","num_nodes":"7","size_leaf_vector":"1"}},{"base_weights":[1.4553325E-1,-1.7894497E-2,3.7788725E-1,3.0615582E-4,3.3108637E-2],"categories":[],"categories_nodes":[],"categories_segments":[],"categories_sizes":[],"default_left":[0,0,0,0,0],"id":60,"left_children":[1,-1,3,-1,-1],"loss_changes":[8.0528766E-1,0E0,4.6157187E-1,0E0,0E0],"parents":[2147483647,0,0,2,2],"right_children":[2,-1,4,-1,-1],"split_conditions":[3.0996181E1,-1.7894497E-2,5.441039E0,3.0615582E-4,3.3108637E-2],"split_indices":[3,0,4,0,0],"split_type":[0,0,0,0,0],"sum_hessian":[4.728238E0,1.3225324E0,3.4057057E0,1.9184544E0,1.4872514E0],"tree_param":{"num_deleted":"0","num_feature":"10","num_nodes":"5","size_leaf_vector":"1"}},{"base_weights":[-1.2574964E-2,-2.7802391E-2,2.4919678E-1,3.33133E-2,-1.825908E-2],"categories":[],"categories_nodes":[],"categories_segments":[],"categories_sizes":[],"default_left":[0,0,0,0,0],"id":61,"left_children":[1,-1,3,-1,-1],"loss_changes":[9.0963167E-1,0E0,1.3575633E0,0E0,0E0],"parents":[2147483647,0,0,2,2],"right_children":[2,-1,4,-1,-1],"split_conditions":[1.7357645E0,-2.7802391E-2,3.6352808E0,3.33133E-2,-1.825908E-2],"split_indices":[7,0,7,0,0],"split_type":[0,0,0,0,0],"sum_hessian":[4.4198985E0,1.0713869E0,3.3485117E0,1.9442244E0,1.4042872E0],"tree_param":{"num_deleted":"0","num_feature":"10","num_nodes":"5","size_leaf_vector":"1"}},{"base_weights":[1.1329306E-1,-3.2964543E-1,5.35511E-1,2.2394813E-3,-3.0294536E-2,-3.314379E-3,4.235838E-2],"categories":[],"categories_nodes":[],"categories_segments":[],"categories_sizes":[],"default_left":[0,0,0,0,0,0,0],"id":62,"left_children":[1,3,5,-1,-1,-1,-1],"loss_changes":[1.2797189E0,3.8893384E-1,6.940494E-1,0E0,0E0,0E0,0E0],"parents":[2147483647,0,0,1,1,2,2],"right_children":[2,4,6,-1,-1,-1,-1],"split_conditions":[1.5712833E0,9.42E0,2.0490355E0,2.2394813E-3,-3.0294536E-2,-3.314379E-3,4.235838E-2],"split_indices":[0,1,7,0,0,0,0],"split_type":[0,0,0,0,0,0,0],"sum_hessian":[4.898889E0,2.4977813E0,2.4011075E0,1.4161423E0,1.0816388E0,1.0878365E0,1.3132712E0],"tree_param":{"num_deleted":"0","num_feature":"10","num_nodes":"7","size_leaf_vector":"1"}},{"base_weights":[-8.169417E-2,-3.0605122E-2,2.1481867E-1,3.492598E-2,-1.2315746E-2],"categories":[],"categories_nodes":[],"categories_segments":[],"categories_sizes":[],"default_left":[0,0,0,0,0],"id":63,"left_children":[1,-1,3,-1,-1],"loss_changes":[9.671556E-1,0E0,1.0973625E0,0E0,0E0],"parents":[2147483647,0,0,2,2],"right_children":[2,-1,4,-1,-1],"split_conditions":[5.4758496E0,-3.0605122E-2,6.6025677E0,3.492598E-2,-1.2315746E-2],"split_indices":[2,0,2,0,0],"split_type":[0,0,0,0,0],"sum_hessian":[4.313469E0,1.1650559E0,3.148413E0,1.2853606E0,1.8630525E0],"tree_param":{"num_deleted":"0","num_feature":"10","num_nodes":"5","size_leaf_vector":"1"}},{"base_weights":[7.415819E-2,-2.8137391E-2,3.679613E-1,-1.3135753E-2,3.4656342E-2],"categories":[],"categories_nodes":[],"categories_segments":[],"categories_sizes":[],"default_left":[0,0,0,0,0],"id":64,"left_children":[1,-1,3,-1,-1],"loss_changes":[1.2254269E0,0E0,1.0698237E0,0E0,0E0],"parents":[2147483647,0,0,2,2],"right_children":[2,-1,4,-1,-1],"split_conditions":[1.7357645E0,-2.8137391E-2,1.1323099E0,-1.3135753E-2,3.4656342E-2],"split_indices":[7,0,0,0,0],"split_type":[0,0,0,0,0],"sum_hessian":[4.442126E0,1.1133077E0,3.328818E0,1.197758E0,2.1310601E0],"tree_param":{"num_deleted":"0","num_feature":"10","num_nodes":"5","size_leaf_vector":"1"}},{"base_weights":[-8.67637E-2,1.9667546E-1,-3.0584762E-2,-9.939396E-3,2.756445E-2],"categories":[],"categories_nodes":[],"categories_segments":[],"categories_sizes":[],"default_left":[0,0,0,0,0],"id":65,"left_children":[1,3,-1,-1,-1],"loss_changes":[9.4804204E-1,7.2232795E-1,0E0,0E0,0E0],"parents":[2147483647,0,0,1,1],"right_children":[2,4,-1,-1,-1],"split_conditions":[2.3363043E2,2.1888554E2,-3.0584762E-2,-9.939396E-3,2.756445E-2],"split_indices":[5,5,0,0,0],"split_type":[0,0,0,0,0],"sum_hessian":[4.5632634E0,3.3693166E0,1.1939466E0,1.8006566E0,1.5686601E0],"tree_param":{"num_deleted":"0","num_feature":"10","num_nodes":"5","size_leaf_vector":"1"}},{"base_weights":[-1.9739744E-1,-3.767827E-1,1.5155501E-2,-3.441823E-2,5.3517724E-4],"categories":[],"categories_nodes":[],"categories_segments":[],"categories_sizes":[],"default_left":[0,0,0,0,0],"id":66,"left_children":[1,3,-1,-1,-1],"loss_changes":[6.065542E-1,5.4857975E-1,0E0,0E0,0E0],"parents":[2147483647,0,0,1,1],"right_children":[2,4,-1,-1,-1],"split_conditions":[3.0641627E0,2.3079913E2,1.5155501E-2,-3.441823E-2,5.3517724E-4],"split_indices":[0,5,0,0,0],"split_type":[0,0,0,0,0],"sum_hessian":[4.4837117E0,3.4826908E0,1.0010211E0,1.5000203E0,1.9826704E0],"tree_param":{"num_deleted":"0","num_feature":"10","num_nodes":"5","size_leaf_vector":"1"}},{"base_weights":[5.463994E-2,-2.7815161E-2,3.0064142E-1,-7.9838075E-3,6.237169E-1,3.980849E-3,4.2352702E-2],"categories":[],"categories_nodes":[],"categories_segments":[],"categories_sizes":[],"default_left":[0,0,0,0,0,0,0],"id":67,"left_children":[1,-1,3,-1,5,-1,-1],"loss_changes":[1.0778533E0,0E0,8.385294E-1,0E0,3.1211197E-1,0E0,0E0],"parents":[2147483647,0,0,2,2,4,4],"right_children":[2,-1,4,-1,6,-1,-1],"split_conditions":[1.7357645E0,-2.7815161E-2,1.2800415E0,-7.9838075E-3,4.206241E0,3.980849E-3,4.2352702E-2],"split_indices":[7,0,0,0,4,0,0],"split_type":[0,0,0,0,0,0,0],"sum_hessian":[5.058872E0,1.0901384E0,3.9687338E0,1.8453059E0,2.1234279E0,1.0127141E0,1.1107137E0],"tree_param":{"num_deleted":"0","num_feature":"10","num_nodes":"7","size_leaf_vector":"1"}},{"base_weights":[-1.0487529E-1,-2.9565556E-2,1.7827107E-1,-1.3850438E-2,2.1352332E-2],"categories":[],"categories_nodes":[],"categories_segments":[],"categories_sizes":[],"default_left":[0,0,0,0,0],"id":68,"left_children":[1,-1,3,-1,-1],"loss_changes":[8.4023136E-1,0E0,5.8726543E-1,0E0,0E0],"parents":[2147483647,0,0,2,2],"right_children":[2,-1,4,-1,-1],"split_conditions":[2.1545794E0,-2.9565556E-2,9E0,-1.3850438E-2,2.1352332E-2],"split_indices":[7,0,1,0,0],"split_type":[0,0,0,0,0],"sum_hessian":[4.3351064E0,1.1945505E0,3.1405556E0,1.0696037E0,2.070952E0],"tree_param":{"num_deleted":"0","num_feature":"10","num_nodes":"5","size_leaf_vector":"1"}},{"base_weights":[9.4658405E-2,3.121076E-1,-1.7585164E-2,-6.685187E-3,2.7073279E-2],"categories":[],"categories_nodes":[],"categories_segments":[],"categories_sizes":[],"default_left":[0,0,0,0,0],"id":69,"left_children":[1,3,-1,-1,-1],"loss_changes":[7.259496E-1,5.6305695E-1,0E0,0E0,0E0],"parents":[2147483647,0,0,1,1],"right_children":[2,4,-1,-1,-1],"split_conditions":[2.3363043E2,9E0,-1.7585164E-2,-6.685187E-3,2.7073279E-2],"split_indices":[5,1,0,0,0],"split_type":[0,0,0,0,0],"sum_hessian":[5.3483825E0,3.7986228E0,1.5497597E0,1.4320834E0,2.3665395E0],"tree_param":{"num_deleted":"0","num_feature":"10","num_nodes":"5","size_leaf_vector":"1"}},{"base_weights":[1.19373076E-1,-1.9427214E-2,3.4352076E-1,-3.5346323E-3,2.5759712E-2],"categories":[],"categories_nodes":[],"categories_segments":[],"categories_sizes":[],"default_left":[0,0,0,0,0],"id":70,"left_children":[1,-1,3,-1,-1],"loss_changes":[8.3538985E-1,0E0,3.7834084E-1,0E0,0E0],"parents":[2147483647,0,0,2,2],"right_children":[2,-1,4,-1,-1],"split_conditions":[3.038436E1,-1.9427214E-2,9E0,-3.5346323E-3,2.5759712E-2],"split_indices":[3,0,1,0,0],"split_type":[0,0,0,0,0],"sum_hessian":[5.165359E0,1.3569924E0,3.8083668E0,1.2882632E0,2.5201037E0],"tree_param":{"num_deleted":"0","num_feature":"10","num_nodes":"5","size_leaf_vector":"1"}},{"base_weights":[2.518378E-2,-2.8664568E-2,2.897997E-1,-1.6899101E-2,6.272111E-1,3.9677925E-2,6.25467E-3],"categories":[],"categories_nodes":[],"categories_segments":[],"categories_sizes":[],"default_left":[0,0,0,0,0,0,0],"id":71,"left_children":[1,-1,3,-1,5,-1,-1],"loss_changes":[1.0385139E0,0E0,1.1617773E0,0E0,1.7357862E-1,0E0,0E0],"parents":[2147483647,0,0,2,2,4,4],"right_children":[2,-1,4,-1,6,-1,-1],"split_conditions":[5.3956194E0,-2.8664568E-2,8.9E0,-1.6899101E-2,6.6025677E0,3.9677925E-2,6.25467E-3],"split_indices":[2,0,1,0,2,0,0],"split_type":[0,0,0,0,0,0,0],"sum_hessian":[4.5085936E0,1.0246545E0,3.4839392E0,1.2173214E0,2.266618E0,1.2665854E0,1.0000325E0],"tree_param":{"num_deleted":"0","num_feature":"10","num_nodes":"7","size_leaf_vector":"1"}},{"base_weights":[3.460126E-2,-2.8736234E-2,2.7233288E-1,-1.1873896E-2,4.612788E-1,3.1002408E-2,3.1926811E-3],"categories":[],"categories_nodes":[],"categories_segments":[],"categories_sizes":[],"default_left":[0,0,0,0,0,0,0],"id":72,"left_children":[1,-1,3,-1,5,-1,-1],"loss_changes":[1.0249076E0,0E0,5.902965E-1,0E0,2.1161556E-1,0E0,0E0],"parents":[2147483647,0,0,2,2,4,4],"right_children":[2,-1,4,-1,6,-1,-1],"split_conditions":[3.038436E1,-2.8736234E-2,4.4168396E0,-1.1873896E-2,3.359771E1,3.1002408E-2,3.1926811E-3],"split_indices":[3,0,4,0,3,0,0],"split_type":[0,0,0,0,0,0,0],"sum_hessian":[4.994857E0,1.0039959E0,3.9908607E0,1.0096859E0,2.981175E0,1.729918E0,1.251257E0],"tree_param":{"num_deleted":"0","num_feature":"10","num_nodes":"7","size_leaf_vector":"1"}},{"base_weights":[1.2123781E-2,-2.2157116E-2,3.395063E-1,3.9456125E-2,-1.3678971E-2],"categories":[],"categories_nodes":[],"categories_segments":[],"categories_sizes":[],"default_left":[0,0,0,0,0],"id":73,"left_children":[1,-1,3,-1,-1],"loss_changes":[7.998164E-1,0E0,1.0705686E0,0E0,0E0],"parents":[2147483647,0,0,2,2],"right_children":[2,-1,4,-1,-1],"split_conditions":[2.1545794E0,-2.2157116E-2,3.6352808E0,3.9456125E-2,-1.3678971E-2],"split_indices":[7,0,7,0,0],"split_type":[0,0,0,0,0],"sum_hessian":[3.3568165E0,1.2562511E0,2.1005654E0,1.0461917E0,1.0543737E0],"tree_param":{"num_deleted":"0","num_feature":"10","num_nodes":"5","size_leaf_vector":"1"}},{"base_weights":[1.699578E-1,-1.6766936E-2,3.7383515E-1,3.201441E-2,-9.307079E-4],"categories":[],"categories_nodes":[],"categories_segments":[],"categories_sizes":[],"default_left":[0,0,0,0,0],"id":74,"left_children":[1,-1,3,-1,-1],"loss_changes":[7.2572064E-1,0E0,4.95569E-1,0E0,0E0],"parents":[2147483647,0,0,2,2],"right_children":[2,-1,4,-1,-1],"split_conditions":[3.038436E1,-1.6766936E-2,6.6025677E0,3.201441E-2,-9.307079E-4],"split_indices":[3,0,2,0,0],"split_type":[0,0,0,0,0],"sum_hessian":[4.827683E0,1.2025173E0,3.6251657E0,1.7830482E0,1.8421174E0],"tree_param":{"num_deleted":"0","num_feature":"10","num_nodes":"5","size_leaf_vector":"1"}},{"base_weights":[1.82131E-1,-1.8547004E-2,4.1081432E-1,3.5937045E-2,-5.310669E-3],"categories":[],"categories_nodes":[],"categories_segments":[],"categories_sizes":[],"default_left":[0,0,0,0,0],"id":75,"left_children":[1,-1,3,-1,-1],"loss_changes":[8.1419563E-1,0E0,7.412533E-1,0E0,0E0],"parents":[2147483647,0,0,2,2],"right_children":[2,-1,4,-1,-1],"split_conditions":[1.7539595E0,-1.8547004E-2,3.6352808E0,3.5937045E-2,-5.310669E-3],"split_indices":[7,0,7,0,0],"split_type":[0,0,0,0,0],"sum_hessian":[4.23259E0,1.0561706E0,3.1764195E0,1.7462591E0,1.4301605E0],"tree_param":{"num_deleted":"0","num_feature":"10","num_nodes":"5","size_leaf_vector":"1"}},{"base_weights":[9.370477E-2,-1.764304E-2,3.1642553E-1,1.1982836E-3,3.005313E-2,1.8999835E-2,-1.9047447E-2],"categories":[],"categories_nodes":[],"categories_segments":[],"categories_sizes":[],"default_left":[0,0,0,0,0,0,0],"id":76,"left_children":[1,-1,3,5,-1,-1,-1],"loss_changes":[6.663171E-1,0E0,3.8045037E-1,5.816027E-1,0E0,0E0,0E0],"parents":[2147483647,0,0,2,2,3,3],"right_children":[2,-1,4,6,-1,-1,-1],"split_conditions":[9E0,-1.764304E-2,6.027522E1,1.8377913E2,3.005313E-2,1.8999835E-2,-1.9047447E-2],"split_indices":[1,0,6,5,0,0,0],"split_type":[0,0,0,0,0,0,0],"sum_hessian":[4.5767765E0,1.328584E0,3.2481925E0,2.017775E0,1.2304174E0,1.0161536E0,1.0016216E0],"tree_param":{"num_deleted":"0","num_feature":"10","num_nodes":"7","size_leaf_vector":"1"}},{"base_weights":[1.119745E-2,-2.327347E-2,2.5365904E-1,3.0261103E-2,-1.14358485E-1,-1.2859295E-2,4.0138536E-3],"categories":[],"categories_nodes":[],"categories_segments":[],"categories_sizes":[],"default_left":[0,0,0,0,0,0,0],"id":77,"left_children":[1,-1,3,-1,5,-1,-1],"loss_changes":[8.057705E-1,0E0,6.632519E-1,0E0,1.06386766E-1,0E0,0E0],"parents":[2147483647,0,0,2,2,4,4],"right_children":[2,-1,4,-1,6,-1,-1],"split_conditions":[2.1545794E0,-2.327347E-2,3.6352808E0,3.0261103E-2,6.4397484E1,-1.2859295E-2,4.0138536E-3],"split_indices":[7,0,7,0,6,0,0],"split_type":[0,0,0,0,0,0,0],"sum_hessian":[4.9503317E0,1.3589472E0,3.5913846E0,1.5071112E0,2.0842733E0,1.0167732E0,1.0675001E0],"tree_param":{"num_deleted":"0","num_feature":"10","num_nodes":"7","size_leaf_vector":"1"}},{"base_weights":[8.639585E-3,-2.8738389E-2,2.704958E-1,-1.5443007E-2,5.740378E-1,8.30398E-3,3.7628952E-2],"categories":[],"categories_nodes":[],"categories_segments":[],"categories_sizes":[],"default_left":[0,0,0,0,0,0,0],"id":78,"left_children":[1,-1,3,-1,5,-1,-1],"loss_changes":[1.0029693E0,0E0,9.702392E-1,0E0,1.16001606E-1,0E0,0E0],"parents":[2147483647,0,0,2,2,4,4],"right_children":[2,-1,4,-1,6,-1,-1],"split_conditions":[5.4758496E0,-2.8738389E-2,8.9E0,-1.5443007E-2,6.027522E1,8.30398E-3,3.7628952E-2],"split_indices":[2,0,1,0,6,0,0],"split_type":[0,0,0,0,0,0,0],"sum_hessian":[4.5475774E0,1.0386108E0,3.5089667E0,1.2003659E0,2.3086007E0,1.2903699E0,1.0182308E0],"tree_param":{"num_deleted":"0","num_feature":"10","num_nodes":"7","size_leaf_vector":"1"}},{"base_weights":[3.5105977E-2,-2.759924E-1,2.057538E-2,6.4384453E-3,-3.1168971E-2],"categories":[],"categories_nodes":[],"categories_segments":[],"categories_sizes":[],"default_left":[0,0,0,0,0],"id":79,"left_children":[1,3,-1,-1,-1],"loss_changes":[7.879336E-1,6.0777164E-1,0E0,0E0,0E0],"parents":[2147483647,0,0,1,1],"right_children":[2,4,-1,-1,-1],"split_conditions":[2.1551445E0,6.6025677E0,2.057538E-2,6.4384453E-3,-3.1168971E-2],"split_indices":[0,2,0,0,0],"split_type":[0,0,0,0,0],"sum_hessian":[4.7589464E0,2.751541E0,2.0074055E0,1.5614842E0,1.1900567E0],"tree_param":{"num_deleted":"0","num_feature":"10","num_nodes":"5","size_leaf_vector":"1"}},{"base_weights":[-3.7105292E-2,-2.1110915E-2,1.9698128E-1,-7.3918863E-3,2.6837453E-2],"categories":[],"categories_nodes":[],"categories_segments":[],"categories_sizes":[],"default_left":[0,0,0,0,0],"id":80,"left_children":[1,-1,3,-1,-1],"loss_changes":[5.326489E-1,0E0,5.225488E-1,0E0,0E0],"parents":[2147483647,0,0,2,2],"right_children":[2,-1,4,-1,-1],"split_conditions":[2.1545794E0,-2.1110915E-2,1.2943649E0,-7.3918863E-3,2.6837453E-2],"split_indices":[7,0,0,0,0],"split_type":[0,0,0,0,0],"sum_hessian":[3.9859223E0,1.2030357E0,2.7828867E0,1.6615356E0,1.121351E0],"tree_param":{"num_deleted":"0","num_feature":"10","num_nodes":"5","size_leaf_vector":"1"}},{"base_weights":[-1.8247576E-1,1.3679631E-2,-3.7766844E-1,-2.5251279E-2,-2.7576383E-4],"categories":[],"categories_nodes":[],"categories_segments":[],"categories_sizes":[],"default_left":[0,0,0,0,0],"id":81,"left_children":[1,-1,3,-1,-1],"loss_changes":[5.580007E-1,0E0,1.8664771E-1,0E0,0E0],"parents":[2147483647,0,0,2,2],"right_children":[2,-1,4,-1,-1],"split_conditions":[5.0891098E1,1.3679631E-2,2.1551445E0,-2.5251279E-2,-2.7576383E-4],"split_indices":[6,0,0,0,0],"split_type":[0,0,0,0,0],"sum_hessian":[4.1074734E0,1.1106893E0,2.9967842E0,1.9667066E0,1.0300775E0],"tree_param":{"num_deleted":"0","num_feature":"10","num_nodes":"5","size_leaf_vector":"1"}},{"base_weights":[-3.2583687E-2,-2.0043613E-2,1.7369518E-1,-1.3816695E-2,4.0881732E-1,3.8192861E-3,2.7191384E-2],"categories":[],"categories_nodes":[],"categories_segments":[],"categories_sizes":[],"default_left":[0,0,0,0,0,0,0],"id":82,"left_children":[1,-1,3,-1,5,-1,-1],"loss_changes":[5.027859E-1,0E0,5.735023E-1,0E0,1.048677E-1,0E0,0E0],"parents":[2147483647,0,0,2,2,4,4],"right_children":[2,-1,4,-1,6,-1,-1],"split_conditions":[3.0996181E1,-2.0043613E-2,4.8228087E0,-1.3816695E-2,2.232162E0,3.8192861E-3,2.7191384E-2],"split_indices":[3,0,4,0,7,0,0],"split_type":[0,0,0,0,0,0,0],"sum_hessian":[4.701666E0,1.3492949E0,3.352371E0,1.0902776E0,2.2620935E0,1.1055963E0,1.1564972E0],"tree_param":{"num_deleted":"0","num_feature":"10","num_nodes":"7","size_leaf_vector":"1"}},{"base_weights":[-4.4330943E-2,-1.8825425E-2,2.061142E-1,2.4134299E-2,-6.3062287E-3],"categories":[],"categories_nodes":[],"categories_segments":[],"categories_sizes":[],"default_left":[0,0,0,0,0],"id":83,"left_children":[1,-1,3,-1,-1],"loss_changes":[4.6612743E-1,0E0,3.649264E-1,0E0,0E0],"parents":[2147483647,0,0,2,2],"right_children":[2,-1,4,-1,-1],"split_conditions":[4.4168396E0,-1.8825425E-2,5.484401E0,2.4134299E-2,-6.3062287E-3],"split_indices":[4,0,4,0,0],"split_type":[0,0,0,0,0],"sum_hessian":[3.6701908E0,1.3612895E0,2.3089013E0,1.0128921E0,1.2960092E0],"tree_param":{"num_deleted":"0","num_feature":"10","num_nodes":"5","size_leaf_vector":"1"}},{"base_weights":[1.12907305E-1,-1.9451534E-2,3.6533374E-1,-2.474699E-3,2.9652616E-2],"categories":[],"categories_nodes":[],"categories_segments":[],"categories_sizes":[],"default_left":[0,0,0,0,0],"id":84,"left_children":[1,-1,3,-1,-1],"loss_changes":[7.675183E-1,0E0,3.8831168E-1,0E0,0E0],"parents":[2147483647,0,0,2,2],"right_children":[2,-1,4,-1,-1],"split_conditions":[1.7539595E0,-1.9451534E-2,1.2800415E0,-2.474699E-3,2.9652616E-2],"split_indices":[7,0,0,0,0],"split_type":[0,0,0,0,0],"sum_hessian":[3.9359145E0,1.1359558E0,2.7999587E0,1.2696785E0,1.5302802E0],"tree_param":{"num_deleted":"0","num_feature":"10","num_nodes":"5","size_leaf_vector":"1"}},{"base_weights":[-7.364686E-2,-2.989305E-2,2.1720366E-1,-9.73629E-3,2.5734311E-2],"categories":[],"categories_nodes":[],"categories_segments":[],"categories_sizes":[],"default_left":[0,0,0,0,0],"id":85,"left_children":[1,-1,3,-1,-1],"loss_changes":[9.236094E-1,0E0,6.0041416E-1,0E0,0E0],"parents":[2147483647,0,0,2,2],"right_children":[2,-1,4,-1,-1],"split_conditions":[5.4758496E0,-2.989305E-2,6.027522E1,-9.73629E-3,2.5734311E-2],"split_indices":[2,0,6,0,0],"split_type":[0,0,0,0,0],"sum_hessian":[4.206024E0,1.1242222E0,3.081802E0,1.4371607E0,1.6446412E0],"tree_param":{"num_deleted":"0","num_feature":"10","num_nodes":"5","size_leaf_vector":"1"}},{"base_weights":[1.6030791E-1,-2.0391598E-2,4.2437956E-1,3.278651E-2,2.1565396E-3],"categories":[],"categories_nodes":[],"categories_segments":[],"categories_sizes":[],"default_left":[0,0,0,0,0],"id":86,"left_children":[1,-1,3,-1,-1],"loss_changes":[9.704666E-1,0E0,3.3497506E-1,0E0,0E0],"parents":[2147483647,0,0,2,2],"right_children":[2,-1,4,-1,-1],"split_conditions":[5.4758496E0,-2.0391598E-2,7.006047E0,3.278651E-2,2.1565396E-3],"split_indices":[2,0,2,0,0],"split_type":[0,0,0,0,0],"sum_hessian":[4.314891E0,1.1964265E0,3.118464E0,1.4927033E0,1.6257607E0],"tree_param":{"num_deleted":"0","num_feature":"10","num_nodes":"5","size_leaf_vector":"1"}},{"base_weights":[-1.30985705E-2,-2.0701153E-2,2.1460168E-1,-1.2475303E-2,2.2942849E-2],"categories":[],"categories_nodes":[],"categories_segments":[],"categories_sizes":[],"default_left":[0,0,0,0,0],"id":87,"left_children":[1,-1,3,-1,-1],"loss_changes":[5.6446475E-1,0E0,5.658208E-1,0E0,0E0],"parents":[2147483647,0,0,2,2],"right_children":[2,-1,4,-1,-1],"split_conditions":[5.4758496E0,-2.0701153E-2,8.9E0,-1.2475303E-2,2.2942849E-2],"split_indices":[2,0,1,0,0],"split_type":[0,0,0,0,0],"sum_hessian":[4.2098975E0,1.2285101E0,2.9813874E0,1.0206192E0,1.9607682E0],"tree_param":{"num_deleted":"0","num_feature":"10","num_nodes":"5","size_leaf_vector":"1"}},{"base_weights":[9.254844E-2,-1.8358158E-2,3.5305342E-1,3.5037052E-2,-2.0462747E-3],"categories":[],"categories_nodes":[],"categories_segments":[],"categories_sizes":[],"default_left":[0,0,0,0,0],"id":88,"left_children":[1,-1,3,-1,-1],"loss_changes":[7.8515106E-1,0E0,5.7710886E-1,0E0,0E0],"parents":[2147483647,0,0,2,2],"right_children":[2,-1,4,-1,-1],"split_conditions":[5.9750032E0,-1.8358158E-2,7.006047E0,3.5037052E-2,-2.0462747E-3],"split_indices":[2,0,2,0,0],"split_type":[0,0,0,0,0],"sum_hessian":[4.4737678E0,1.4700865E0,3.0036814E0,1.1819665E0,1.8217149E0],"tree_param":{"num_deleted":"0","num_feature":"10","num_nodes":"5","size_leaf_vector":"1"}},{"base_weights":[-9.55184E-3,-2.0546545E-1,2.06941E-2,1.08866364E-1,-3.0180454E-2,2.4007393E-2,-1.6602904E-2],"categories":[],"categories_nodes":[],"categories_segments":[],"categories_sizes":[],"default_left":[0,0,0,0,0,0,0],"id":89,"left_children":[1,3,-1,5,-1,-1,-1],"loss_changes":[5.6392634E-1,6.4327157E-1,0E0,7.2031724E-1,0E0,0E0,0E0],"parents":[2147483647,0,0,1,1,3,3],"right_children":[2,4,-1,6,-1,-1,-1],"split_conditions":[3.0641627E0,6.6025677E0,2.06941E-2,3.6352808E0,-3.0180454E-2,2.4007393E-2,-1.6602904E-2],"split_indices":[0,2,0,7,0,0,0],"split_type":[0,0,0,0,0,0,0],"sum_hessian":[4.7727623E0,3.6149619E0,1.1578003E0,2.4261205E0,1.1888412E0,1.2687823E0,1.1573384E0],"tree_param":{"num_deleted":"0","num_feature":"10","num_nodes":"7","size_leaf_vector":"1"}},{"base_weights":[8.932024E-2,-1.6433544E-2,3.098973E-1,-6.255152E-3,2.5586352E-2],"categories":[],"categories_nodes":[],"categories_segments":[],"categories_sizes":[],"default_left":[0,0,0,0,0],"id":90,"left_children":[1,-1,3,-1,-1],"loss_changes":[6.006786E-1,0E0,4.2013165E-1,0E0,0E0],"parents":[2147483647,0,0,2,2],"right_children":[2,-1,4,-1,-1],"split_conditions":[5.9750032E0,-1.6433544E-2,6.015648E1,-6.255152E-3,2.5586352E-2],"split_indices":[2,0,6,0,0],"split_type":[0,0,0,0,0],"sum_hessian":[4.4102874E0,1.3541456E0,3.0561416E0,1.0890614E0,1.9670804E0],"tree_param":{"num_deleted":"0","num_feature":"10","num_nodes":"5","size_leaf_vector":"1"}},{"base_weights":[7.5525366E-2,-1.8137408E-2,2.5963473E-1,3.2770786E-2,-1.3448055E-1,-1.329677E-2,3.162983E-3],"categories":[],"categories_nodes":[],"categories_segments":[],"categories_sizes":[],"default_left":[0,0,0,0,0,0,0],"id":91,"left_children":[1,-1,3,-1,5,-1,-1],"loss_changes":[5.3455544E-1,0E0,7.785215E-1,0E0,9.603712E-2,0E0,0E0],"parents":[2147483647,0,0,2,2,4,4],"right_children":[2,-1,4,-1,6,-1,-1],"split_conditions":[1.7539595E0,-1.8137408E-2,3.6352808E0,3.2770786E-2,6.4397484E1,-1.329677E-2,3.162983E-3],"split_indices":[7,0,7,0,6,0,0],"split_type":[0,0,0,0,0,0,0],"sum_hessian":[4.4575796E0,1.0315889E0,3.4259903E0,1.3785794E0,2.047411E0,1.0226773E0,1.0247338E0],"tree_param":{"num_deleted":"0","num_feature":"10","num_nodes":"7","size_leaf_vector":"1"}},{"base_weights":[-1.8138815E-1,1.0725665E-1,-2.943853E-2,-1.8824236E-2,2.6784545E-2],"categories":[],"categories_nodes":[],"categories_segments":[],"categories_sizes":[],"default_left":[0,0,0,0,0],"id":92,"left_children":[1,3,-1,-1,-1],"loss_changes":[6.245709E-1,9.561508E-1,0E0,0E0,0E0],"parents":[2147483647,0,0,1,1],"right_children":[2,4,-1,-1,-1],"split_conditions":[2.3363043E2,2.1888554E2,-2.943853E-2,-1.8824236E-2,2.6784545E-2],"split_indices":[5,5,0,0,0],"split_type":[0,0,0,0,0],"sum_hessian":[3.7744455E0,2.6403687E0,1.1340767E0,1.29709E0,1.3432786E0],"tree_param":{"num_deleted":"0","num_feature":"10","num_nodes":"5","size_leaf_vector":"1"}},{"base_weights":[-1.5652147E-1,-2.9490301E-2,9.7705476E-2,2.1009535E-2,-1.8452978E-2],"categories":[],"categories_nodes":[],"categories_segments":[],"categories_sizes":[],"default_left":[0,0,0,0,0],"id":93,"left_children":[1,-1,3,-1,-1],"loss_changes":[6.422928E-1,0E0,7.877254E-1,0E0,0E0],"parents":[2147483647,0,0,2,2],"right_children":[2,-1,4,-1,-1],"split_conditions":[3.0996181E1,-2.9490301E-2,6.6025677E0,2.1009535E-2,-1.8452978E-2],"split_indices":[3,0,2,0,0],"split_type":[0,0,0,0,0],"sum_hessian":[4.307778E0,1.1048167E0,3.2029612E0,1.9532521E0,1.2497091E0],"tree_param":{"num_deleted":"0","num_feature":"10","num_nodes":"5","size_leaf_vector":"1"}},{"base_weights":[8.074728E-2,3.7449253E-1,-2.7990703E-2,-7.9446E-5,3.09658E-2],"categories":[],"categories_nodes":[],"categories_segments":[],"categories_sizes":[],"default_left":[0,0,0,0,0],"id":94,"left_children":[1,3,-1,-1,-1],"loss_changes":[1.1842256E0,3.8311034E-1,0E0,0E0,0E0],"parents":[2147483647,0,0,1,1],"right_children":[2,4,-1,-1,-1],"split_conditions":[2.3363043E2,2.1551445E0,-2.7990703E-2,-7.9446E-5,3.09658E-2],"split_indices":[5,0,0,0,0],"split_type":[0,0,0,0,0],"sum_hessian":[4.1794744E0,3.1502278E0,1.0292467E0,1.6338803E0,1.5163475E0],"tree_param":{"num_deleted":"0","num_feature":"10","num_nodes":"5","size_leaf_vector":"1"}},{"base_weights":[-8.856303E-2,-2.4016378E-2,1.2937762E-2],"categories":[],"categories_nodes":[],"categories_segments":[],"categories_sizes":[],"default_left":[0,0,0],"id":95,"left_children":[1,-1,-1],"loss_changes":[7.5789315E-1,0E0,0E0],"parents":[2147483647,0,0],"right_children":[2,-1,-1],"split_conditions":[1.5712833E0,-2.4016378E-2,1.2937762E-2],"split_indices":[0,0,0],"split_type":[0,0,0],"sum_hessian":[3.656574E0,1.538374E0,2.1182E0],"tree_param":{"num_deleted":"0","num_feature":"10","num_nodes":"3","size_leaf_vector":"1"}},{"base_weights":[-1.4667559E-2,-1.38714835E-2,2.431477E-1,-1.9811937E-3,2.028443E-2],"categories":[],"categories_nodes":[],"categories_segments":[],"categories_sizes":[],"default_left":[0,0,0,0,0],"id":96,"left_children":[1,-1,3,-1,-1],"loss_changes":[4.1230237E-1,0E0,1.5866381E-1,0E0,0E0],"parents":[2147483647,0,0,2,2],"right_children":[2,-1,4,-1,-1],"split_conditions":[6.027522E1,-1.38714835E-2,2.1893973E2,-1.9811937E-3,2.028443E-2],"split_indices":[6,0,5,0,0],"split_type":[0,0,0,0,0],"sum_hessian":[4.090422E0,1.988098E0,2.1023242E0,1.0433813E0,1.0589429E0],"tree_param":{"num_deleted":"0","num_feature":"10","num_nodes":"5","size_leaf_vector":"1"}},{"base_weights":[1.01678014E-1,-1.6628958E-2,3.0001062E-1,-4.63912E-3,2.3305213E-2],"categories":[],"categories_nodes":[],"categories_segments":[],"categories_sizes":[],"default_left":[0,0,0,0,0],"id":97,"left_children":[1,-1,3,-1,-1],"loss_changes":[5.3961575E-1,0E0,3.0626035E-1,0E0,0E0],"parents":[2147483647,0,0,2,2],"right_children":[2,-1,4,-1,-1],"split_conditions":[3.9770532E0,-1.6628958E-2,2.0045059E0,-4.63912E-3,2.3305213E-2],"split_indices":[4,0,7,0,0],"split_type":[0,0,0,0,0],"sum_hessian":[4.1068377E0,1.0753782E0,3.0314596E0,1.032083E0,1.9993767E0],"tree_param":{"num_deleted":"0","num_feature":"10","num_nodes":"5","size_leaf_vector":"1"}},{"base_weights":[-4.812476E-2,-1.6269818E-2,1.1722334E-2],"categories":[],"categories_nodes":[],"categories_segments":[],"categories_sizes":[],"default_left":[0,0,0],"id":98,"left_children":[1,-1,-1],"loss_changes":[4.5975202E-1,0E0,0E0],"parents":[2147483647,0,0],"right_children":[2,-1,-1],"split_conditions":[6.027522E1,-1.6269818E-2,1.1722334E-2],"split_indices":[6,0,0],"split_type":[0,0,0],"sum_hessian":[3.8943028E0,1.8890898E0,2.005213E0],"tree_param":{"num_deleted":"0","num_feature":"10","num_nodes":"3","size_leaf_vector":"1"}},{"base_weights":[3.2233007E-2,2.4272113E-1,-1.5462942E-2,-3.7519485E-3,2.2076342E-2],"categories":[],"categories_nodes":[],"categories_segments":[],"categories_sizes":[],"default_left":[0,0,0,0,0],"id":99,"left_children":[1,3,-1,-1,-1],"loss_changes":[4.237155E-1,2.5809538E-1,0E0,0E0,0E0],"parents":[2147483647,0,0,1,1],"right_children":[2,4,-1,-1,-1],"split_conditions":[2.3363043E2,2.1551445E0,-1.5462942E-2,-3.7519485E-3,2.2076342E-2],"split_indices":[5,0,0,0,0],"split_type":[0,0,0,0,0],"sum_hessian":[3.8504717E0,2.5610993E0,1.2893726E0,1.225261E0,1.3358383E0],"tree_param":{"num_deleted":"0","num_feature":"10","num_nodes":"5","size_leaf_vector":"1"}},{"base_weights":[5.407699E-2,-3.3970213E-1,2.2224206E-2,2.8737097E-3,-2.8358227E-2],"categories":[],"categories_nodes":[],"categories_segments":[],"categories_sizes":[],"default_left":[0,0,0,0,0],"id":100,"left_children":[1,3,-1,-1,-1],"loss_changes":[9.0285695E-1,3.03773E-1,0E0,0E0,0E0],"parents":[2147483647,0,0,1,1],"right_children":[2,4,-1,-1,-1],"split_conditions":[1.5712833E0,5.98222E0,2.2224206E-2,2.8737097E-3,-2.8358227E-2],"split_indices":[0,2,0,0,0],"split_type":[0,0,0,0,0],"sum_hessian":[3.8906803E0,2.0016346E0,1.8890457E0,1.0010344E0,1.0006002E0],"tree_param":{"num_deleted":"0","num_feature":"10","num_nodes":"5","size_leaf_vector":"1"}},{"base_weights":[1.5645447E-1,-1.8865695E-2,3.8524702E-1,2.9486323E-2,-6.1447243E-3],"categories":[],"categories_nodes":[],"categories_segments":[],"categories_sizes":[],"default_left":[0,0,0,0,0],"id":101,"left_children":[1,-1,3,-1,-1],"loss_changes":[7.91587E-1,0E0,5.0874656E-1,0E0,0E0],"parents":[2147483647,0,0,2,2],"right_children":[2,-1,4,-1,-1],"split_conditions":[5.4758496E0,-1.8865695E-2,3.452211E1,2.9486323E-2,-6.1447243E-3],"split_indices":[2,0,3,0,0],"split_type":[0,0,0,0,0],"sum_hessian":[4.2916484E0,1.0928646E0,3.1987839E0,2.1664393E0,1.0323446E0],"tree_param":{"num_deleted":"0","num_feature":"10","num_nodes":"5","size_leaf_vector":"1"}},{"base_weights":[-8.265119E-3,-3.613021E-1,1.7624632E-2,-2.8760096E-2,1.3321348E-3],"categories":[],"categories_nodes":[],"categories_segments":[],"categories_sizes":[],"default_left":[0,0,0,0,0],"id":102,"left_children":[1,3,-1,-1,-1],"loss_changes":[7.724265E-1,2.6872283E-1,0E0,0E0,0E0],"parents":[2147483647,0,0,1,1],"right_children":[2,4,-1,-1,-1],"split_conditions":[1.5712833E0,5.7588153E0,1.7624632E-2,-2.8760096E-2,1.3321348E-3],"split_indices":[0,4,0,0,0],"split_type":[0,0,0,0,0],"sum_hessian":[4.064903E0,2.0536728E0,2.01123E0,1.0126444E0,1.0410284E0],"tree_param":{"num_deleted":"0","num_feature":"10","num_nodes":"5","size_leaf_vector":"1"}},{"base_weights":[-5.4886814E-2,-2.0696579E-2,1.7573762E-1,1.8453216E-2,-2.9933946E-3],"categories":[],"categories_nodes":[],"categories_segments":[],"categories_sizes":[],"default_left":[0,0,0,0,0],"id":103,"left_children":[1,-1,3,-1,-1],"loss_changes":[5.085535E-1,0E0,2.0003824E-1,0E0,0E0],"parents":[2147483647,0,0,2,2],"right_children":[2,-1,4,-1,-1],"split_conditions":[9E0,-2.0696579E-2,2.1052876E2,1.8453216E-2,-2.9933946E-3],"split_indices":[1,0,5,0,0],"split_type":[0,0,0,0,0],"sum_hessian":[4.263122E0,1.3564775E0,2.9066448E0,1.2854307E0,1.621214E0],"tree_param":{"num_deleted":"0","num_feature":"10","num_nodes":"5","size_leaf_vector":"1"}},{"base_weights":[7.901567E-2,-1.940882E-2,2.9400077E-1,-1.0728291E-2,2.6853506E-2],"categories":[],"categories_nodes":[],"categories_segments":[],"categories_sizes":[],"default_left":[0,0,0,0,0],"id":104,"left_children":[1,-1,3,-1,-1],"loss_changes":[6.266174E-1,0E0,6.17555E-1,0E0,0E0],"parents":[2147483647,0,0,2,2],"right_children":[2,-1,4,-1,-1],"split_conditions":[2.0490355E0,-1.940882E-2,7.226528E-1,-1.0728291E-2,2.6853506E-2],"split_indices":[7,0,0,0,0],"split_type":[0,0,0,0,0],"sum_hessian":[4.1025147E0,1.0390092E0,3.0635054E0,1.0286199E0,2.0348856E0],"tree_param":{"num_deleted":"0","num_feature":"10","num_nodes":"5","size_leaf_vector":"1"}},{"base_weights":[-7.994223E-2,-2.4991399E-2,2.6574385E-1,-4.757041E-3,2.6496595E-2],"categories":[],"categories_nodes":[],"categories_segments":[],"categories_sizes":[],"default_left":[0,0,0,0,0],"id":105,"left_children":[1,-1,3,-1,-1],"loss_changes":[8.2298464E-1,0E0,3.613E-1,0E0,0E0],"parents":[2147483647,0,0,2,2],"right_children":[2,-1,4,-1,-1],"split_conditions":[6.027522E1,-2.4991399E-2,2.3640907E0,-4.757041E-3,2.6496595E-2],"split_indices":[6,0,0,0,0],"split_type":[0,0,0,0,0],"sum_hessian":[3.7548387E0,1.4941165E0,2.260722E0,1.225942E0,1.0347799E0],"tree_param":{"num_deleted":"0","num_feature":"10","num_nodes":"5","size_leaf_vector":"1"}},{"base_weights":[-7.6178305E-2,-3.637312E-1,1.20379375E-2,-2.9101E-2,1.9404406E-3],"categories":[],"categories_nodes":[],"categories_segments":[],"categories_sizes":[],"default_left":[0,0,0,0,0],"id":106,"left_children":[1,3,-1,-1,-1],"loss_changes":[5.525746E-1,2.926505E-1,0E0,0E0,0E0],"parents":[2147483647,0,0,1,1],"right_children":[2,4,-1,-1,-1],"split_conditions":[1.5712833E0,5.7588153E0,1.20379375E-2,-2.9101E-2,1.9404406E-3],"split_indices":[0,4,0,0,0],"split_type":[0,0,0,0,0],"sum_hessian":[4.1022897E0,2.0734396E0,2.02885E0,1.055303E0,1.0181365E0],"tree_param":{"num_deleted":"0","num_feature":"10","num_nodes":"5","size_leaf_vector":"1"}},{"base_weights":[1.0319654E-2,-1.7592512E-2,1.9322868E-1,2.3306137E-2,-8.701634E-3],"categories":[],"categories_nodes":[],"categories_segments":[],"categories_sizes":[],"default_left":[0,0,0,0,0],"id":107,"left_children":[1,-1,3,-1,-1],"loss_changes":[3.9374846E-1,0E0,4.7328678E-1,0E0,0E0],"parents":[2147483647,0,0,2,2],"right_children":[2,-1,4,-1,-1],"split_conditions":[5.4758496E0,-1.7592512E-2,6.6025677E0,2.3306137E-2,-8.701634E-3],"split_indices":[2,0,2,0,0],"split_type":[0,0,0,0,0],"sum_hessian":[3.91758E0,1.004661E0,2.912919E0,1.5167273E0,1.3961917E0],"tree_param":{"num_deleted":"0","num_feature":"10","num_nodes":"5","size_leaf_vector":"1"}},{"base_weights":[-4.7885206E-2,-2.3842072E-2,2.1592294E-1,-8.323872E-3,2.4045618E-2],"categories":[],"categories_nodes":[],"categories_segments":[],"categories_sizes":[],"default_left":[0,0,0,0,0],"id":108,"left_children":[1,-1,3,-1,-1],"loss_changes":[7.194926E-1,0E0,4.9165398E-1,0E0,0E0],"parents":[2147483647,0,0,2,2],"right_children":[2,-1,4,-1,-1],"split_conditions":[5.9750032E0,-2.3842072E-2,1.5712833E0,-8.323872E-3,2.4045618E-2],"split_indices":[2,0,0,0,0],"split_type":[0,0,0,0,0],"sum_hessian":[4.4482136E0,1.3863901E0,3.0618236E0,1.4054328E0,1.6563908E0],"tree_param":{"num_deleted":"0","num_feature":"10","num_nodes":"5","size_leaf_vector":"1"}},{"base_weights":[-1.7969437E-2,-1.9491348E-2,1.7746459E-1,-8.980671E-3,2.0953467E-2],"categories":[],"categories_nodes":[],"categories_segments":[],"categories_sizes":[],"default_left":[0,0,0,0,0],"id":109,"left_children":[1,-1,3,-1,-1],"loss_changes":[4.540279E-1,0E0,4.340221E-1,0E0,0E0],"parents":[2147483647,0,0,2,2],"right_children":[2,-1,4,-1,-1],"split_conditions":[5.4758496E0,-1.9491348E-2,8.9E0,-8.980671E-3,2.0953467E-2],"split_indices":[2,0,1,0,0],"split_type":[0,0,0,0,0],"sum_hessian":[4.295559E0,1.1371675E0,3.1583915E0,1.3781483E0,1.7802432E0],"tree_param":{"num_deleted":"0","num_feature":"10","num_nodes":"5","size_leaf_vector":"1"}},{"base_weights":[-1.431847E-1,1.255215E-2,-3.229387E-1,3.7746672E-3,-2.5356187E-2],"categories":[],"categories_nodes":[],"categories_segments":[],"categories_sizes":[],"default_left":[0,0,0,0,0],"id":110,"left_children":[1,-1,3,-1,-1],"loss_changes":[4.153204E-1,0E0,3.0812088E-1,0E0,0E0],"parents":[2147483647,0,0,2,2],"right_children":[2,-1,4,-1,-1],"split_conditions":[5.0891098E1,1.255215E-2,2.2119434E0,3.7746672E-3,-2.5356187E-2],"split_indices":[6,0,7,0,0],"split_type":[0,0,0,0,0],"sum_hessian":[3.7167652E0,1.0397797E0,2.6769855E0,1.0328436E0,1.644142E0],"tree_param":{"num_deleted":"0","num_feature":"10","num_nodes":"5","size_leaf_vector":"1"}},{"base_weights":[7.7992134E-2,-1.020745E-2,2.979984E-1,4.2364825E-3,1.9387351E-2],"categories":[],"categories_nodes":[],"categories_segments":[],"categories_sizes":[],"default_left":[0,0,0,0,0],"id":111,"left_children":[1,-1,3,-1,-1],"loss_changes":[3.778302E-1,0E0,2.9849142E-2,0E0,0E0],"parents":[2147483647,0,0,2,2],"right_children":[2,-1,4,-1,-1],"split_conditions":[1.5712833E0,-1.020745E-2,3.352066E1,4.2364825E-3,1.9387351E-2],"split_indices":[0,0,3,0,0],"split_type":[0,0,0,0,0],"sum_hessian":[4.106811E0,1.8308996E0,2.2759116E0,1.2498894E0,1.0260222E0],"tree_param":{"num_deleted":"0","num_feature":"10","num_nodes":"5","size_leaf_vector":"1"}},{"base_weights":[-1.8616508E-1,-2.8504252E-2,1.6036374E-2],"categories":[],"categories_nodes":[],"categories_segments":[],"categories_sizes":[],"default_left":[0,0,0],"id":112,"left_children":[1,-1,-1],"loss_changes":[1.0300317E0,0E0,0E0],"parents":[2147483647,0,0],"right_children":[2,-1,-1],"split_conditions":[2.3640907E0,-2.8504252E-2,1.6036374E-2],"split_indices":[0,0,0],"split_type":[0,0,0],"sum_hessian":[3.3533545E0,1.8371967E0,1.5161576E0],"tree_param":{"num_deleted":"0","num_feature":"10","num_nodes":"3","size_leaf_vector":"1"}},{"base_weights":[-1.4598457E-2,-2.091748E-2,2.3122112E-1,-1.3772833E-2,2.5969809E-2],"categories":[],"categories_nodes":[],"categories_segments":[],"categories_sizes":[],"default_left":[0,0,0,0,0],"id":113,"left_children":[1,-1,3,-1,-1],"loss_changes":[5.897574E-1,0E0,6.879412E-1,0E0,0E0],"parents":[2147483647,0,0,2,2],"right_children":[2,-1,4,-1,-1],"split_conditions":[5.9750032E0,-2.091748E-2,6.027522E1,-1.3772833E-2,2.5969809E-2],"split_indices":[2,0,6,0,0],"split_type":[0,0,0,0,0],"sum_hessian":[3.96752E0,1.2358378E0,2.7316823E0,1.0063761E0,1.725306E0],"tree_param":{"num_deleted":"0","num_feature":"10","num_nodes":"5","size_leaf_vector":"1"}},{"base_weights":[-5.8110086E-3,-1.6828703E-2,1.9193213E-1,-3.2216192E-3,1.7311936E-2],"categories":[],"categories_nodes":[],"categories_segments":[],"categories_sizes":[],"default_left":[0,0,0,0,0],"id":114,"left_children":[1,-1,3,-1,-1],"loss_changes":[3.7212557E-1,0E0,1.6390698E-1,0E0,0E0],"parents":[2147483647,0,0,2,2],"right_children":[2,-1,4,-1,-1],"split_conditions":[9E0,-1.6828703E-2,1.5712833E0,-3.2216192E-3,1.7311936E-2],"split_indices":[1,0,0,0,0],"split_type":[0,0,0,0,0],"sum_hessian":[3.7017949E0,1.1223588E0,2.579436E0,1.188051E0,1.3913851E0],"tree_param":{"num_deleted":"0","num_feature":"10","num_nodes":"5","size_leaf_vector":"1"}},{"base_weights":[-8.6108245E-2,-2.476276E-2,2.2691749E-1,-6.4723194E-3,2.3567328E-2],"categories":[],"categories_nodes":[],"categories_segments":[],"categories_sizes":[],"default_left":[0,0,0,0,0],"id":115,"left_children":[1,-1,3,-1,-1],"loss_changes":[7.1453476E-1,0E0,3.5277343E-1,0E0,0E0],"parents":[2147483647,0,0,2,2],"right_children":[2,-1,4,-1,-1],"split_conditions":[2.232162E0,-2.476276E-2,3.3000748E1,-6.4723194E-3,2.3567328E-2],"split_indices":[7,0,3,0,0],"split_type":[0,0,0,0,0],"sum_hessian":[3.7016168E0,1.3521307E0,2.349486E0,1.1472595E0,1.2022266E0],"tree_param":{"num_deleted":"0","num_feature":"10","num_nodes":"5","size_leaf_vector":"1"}},{"base_weights":[7.617494E-2,-9.603429E-3,2.8531936E-1,2.3701033E-3,1.9196883E-2],"categories":[],"categories_nodes":[],"categories_segments":[],"categories_sizes":[],"default_left":[0,0,0,0,0],"id":116,"left_children":[1,-1,3,-1,-1],"loss_changes":[3.404045E-1,0E0,5.835703E-2,0E0,0E0],"parents":[2147483647,0,0,2,2],"right_children":[2,-1,4,-1,-1],"split_conditions":[1.5712833E0,-9.603429E-3,2.3468022E0,2.3701033E-3,1.9196883E-2],"split_indices":[0,0,7,0,0],"split_type":[0,0,0,0,0],"sum_hessian":[4.090826E0,1.827967E0,2.2628593E0,1.0970004E0,1.1658589E0],"tree_param":{"num_deleted":"0","num_feature":"10","num_nodes":"5","size_leaf_vector":"1"}},{"base_weights":[1.5093774E-1,3.4842736E-1,-9.360167E-3,-9.6940445E-3,3.6993906E-2],"categories":[],"categories_nodes":[],"categories_segments":[],"categories_sizes":[],"default_left":[0,0,0,0,0],"id":117,"left_children":[1,3,-1,-1,-1],"loss_changes":[3.7911654E-1,8.475704E-1,0E0,0E0,0E0],"parents":[2147483647,0,0,1,1],"right_children":[2,4,-1,-1,-1],"split_conditions":[3.6352808E0,2.1545794E0,-9.360167E-3,-9.6940445E-3,3.6993906E-2],"split_indices":[7,7,0,0,0],"split_type":[0,0,0,0,0],"sum_hessian":[3.7004015E0,2.3168416E0,1.38356E0,1.1828526E0,1.133989E0],"tree_param":{"num_deleted":"0","num_feature":"10","num_nodes":"5","size_leaf_vector":"1"}},{"base_weights":[7.844376E-2,-1.5516854E-2,2.6880878E-1,2.364291E-2,1.4506903E-3],"categories":[],"categories_nodes":[],"categories_segments":[],"categories_sizes":[],"default_left":[0,0,0,0,0],"id":118,"left_children":[1,-1,3,-1,-1],"loss_changes":[4.5001197E-1,0E0,1.7519766E-1,0E0,0E0],"parents":[2147483647,0,0,2,2],"right_children":[2,-1,4,-1,-1],"split_conditions":[9E0,-1.5516854E-2,5.4953037E1,2.364291E-2,1.4506903E-3],"split_indices":[1,0,6,0,0],"split_type":[0,0,0,0,0],"sum_hessian":[3.953239E0,1.0922748E0,2.860964E0,1.0205865E0,1.8403777E0],"tree_param":{"num_deleted":"0","num_feature":"10","num_nodes":"5","size_leaf_vector":"1"}},{"base_weights":[3.1707413E-2,1.948589E-1,-1.0096836E-2,-1.0153793E-2,2.3222616E-2],"categories":[],"categories_nodes":[],"categories_segments":[],"categories_sizes":[],"default_left":[0,0,0,0,0],"id":119,"left_children":[1,3,-1,-1,-1],"loss_changes":[2.2050583E-1,4.491209E-1,0E0,0E0,0E0],"parents":[2147483647,0,0,1,1],"right_children":[2,4,-1,-1,-1],"split_conditions":[7.006047E0,5.9750032E0,-1.0096836E-2,-1.0153793E-2,2.3222616E-2],"split_indices":[2,2,0,0,0],"split_type":[0,0,0,0,0],"sum_hessian":[3.7523496E0,2.3072324E0,1.4451171E0,1.0314655E0,1.2757668E0],"tree_param":{"num_deleted":"0","num_feature":"10","num_nodes":"5","size_leaf_vector":"1"}},{"base_weights":[-4.7991658E-3,3.6654642E-1,-2.8489653E-2,3.2232895E-3,2.4222538E-2],"categories":[],"categories_nodes":[],"categories_segments":[],"categories_sizes":[],"default_left":[0,0,0,0,0],"id":120,"left_children":[1,3,-1,-1,-1],"loss_changes":[1.1046046E0,8.2197934E-2,0E0,0E0,0E0],"parents":[2147483647,0,0,1,1],"right_children":[2,4,-1,-1,-1],"split_conditions":[2.2876758E2,2.3468022E0,-2.8489653E-2,3.2232895E-3,2.4222538E-2],"split_indices":[5,7,0,0,0],"split_type":[0,0,0,0,0],"sum_hessian":[3.2693756E0,2.184704E0,1.0846715E0,1.0475523E0,1.1371517E0],"tree_param":{"num_deleted":"0","num_feature":"10","num_nodes":"5","size_leaf_vector":"1"}},{"base_weights":[-1.767008E-1,1.09256685E-1,-2.9346678E-2,-1.1745755E-2,2.0610534E-2],"categories":[],"categories_nodes":[],"categories_segments":[],"categories_sizes":[],"default_left":[0,0,0,0,0],"id":121,"left_children":[1,3,-1,-1,-1],"loss_changes":[6.0136276E-1,4.6611595E-1,0E0,0E0,0E0],"parents":[2147483647,0,0,1,1],"right_children":[2,4,-1,-1,-1],"split_conditions":[3.6352808E0,2.1545794E0,-2.9346678E-2,-1.1745755E-2,2.0610534E-2],"split_indices":[7,7,0,0,0],"split_type":[0,0,0,0,0],"sum_hessian":[3.5796638E0,2.541649E0,1.0380145E0,1.2950213E0,1.2466279E0],"tree_param":{"num_deleted":"0","num_feature":"10","num_nodes":"5","size_leaf_vector":"1"}},{"base_weights":[-1.3245204E-1,-1.7031383E-2,8.697254E-2,1.6782282E-2,-1.0094161E-2],"categories":[],"categories_nodes":[],"categories_segments":[],"categories_sizes":[],"default_left":[0,0,0,0,0],"id":122,"left_children":[1,-1,3,-1,-1],"loss_changes":[2.4815777E-1,0E0,2.922844E-1,0E0,0E0],"parents":[2147483647,0,0,2,2],"right_children":[2,-1,4,-1,-1],"split_conditions":[2.1888554E2,-1.7031383E-2,5.225883E0,1.6782282E-2,-1.0094161E-2],"split_indices":[5,0,4,0,0],"split_type":[0,0,0,0,0],"sum_hessian":[3.784108E0,1.6583792E0,2.1257288E0,1.0552719E0,1.0704569E0],"tree_param":{"num_deleted":"0","num_feature":"10","num_nodes":"5","size_leaf_vector":"1"}},{"base_weights":[1.1175613E-1,-1.596818E-2,3.2399583E-1,2.5160758E-2,-2.6477526E-3],"categories":[],"categories_nodes":[],"categories_segments":[],"categories_sizes":[],"default_left":[0,0,0,0,0],"id":123,"left_children":[1,-1,3,-1,-1],"loss_changes":[5.5375856E-1,0E0,2.829639E-1,0E0,0E0],"parents":[2147483647,0,0,2,2],"right_children":[2,-1,4,-1,-1],"split_conditions":[3.0996181E1,-1.596818E-2,6.6025677E0,2.5160758E-2,-2.6477526E-3],"split_indices":[3,0,2,0,0],"split_type":[0,0,0,0,0],"sum_hessian":[3.9211216E0,1.1270431E0,2.7940786E0,1.6666951E0,1.1273835E0],"tree_param":{"num_deleted":"0","num_feature":"10","num_nodes":"5","size_leaf_vector":"1"}},{"base_weights":[-3.6037143E-2,-2.2148194E-2,2.4461591E-1,2.5638161E-2,-5.5293404E-3],"categories":[],"categories_nodes":[],"categories_segments":[],"categories_sizes":[],"default_left":[0,0,0,0,0],"id":124,"left_children":[1,-1,3,-1,-1],"loss_changes":[6.1031497E-1,0E0,3.6582264E-1,0E0,0E0],"parents":[2147483647,0,0,2,2],"right_children":[2,-1,4,-1,-1],"split_conditions":[2.232162E0,-2.2148194E-2,4.9322805E0,2.5638161E-2,-5.5293404E-3],"split_indices":[7,0,7,0,0],"split_type":[0,0,0,0,0],"sum_hessian":[3.3952365E0,1.1497905E0,2.245446E0,1.0267556E0,1.2186904E0],"tree_param":{"num_deleted":"0","num_feature":"10","num_nodes":"5","size_leaf_vector":"1"}},{"base_weights":[-2.4384351E-2,-1.6250744E-2,1.6077898E-2],"categories":[],"categories_nodes":[],"categories_segments":[],"categories_sizes":[],"default_left":[0,0,0],"id":125,"left_children":[1,-1,-1],"loss_changes":[5.629654E-1,0E0,0E0],"parents":[2147483647,0,0],"right_children":[2,-1,-1],"split_conditions":[2.1551445E0,-1.6250744E-2,1.6077898E-2],"split_indices":[0,0,0],"split_type":[0,0,0],"sum_hessian":[3.4081795E0,1.855879E0,1.5523006E0],"tree_param":{"num_deleted":"0","num_feature":"10","num_nodes":"3","size_leaf_vector":"1"}},{"base_weights":[-1.1363347E-1,-1.9401575E-2,7.04188E-2,-7.0284987E-3,1.4885329E-2],"categories":[],"categories_nodes":[],"categories_segments":[],"categories_sizes":[],"default_left":[0,0,0,0,0],"id":126,"left_children":[1,-1,3,-1,-1],"loss_changes":[2.7102026E-1,0E0,2.2093773E-1,0E0,0E0],"parents":[2147483647,0,0,2,2],"right_children":[2,-1,4,-1,-1],"split_conditions":[4.4168396E0,-1.9401575E-2,2.1551445E0,-7.0284987E-3,1.4885329E-2],"split_indices":[4,0,0,0,0],"split_type":[0,0,0,0,0],"sum_hessian":[3.825313E0,1.0908017E0,2.7345114E0,1.6159633E0,1.1185482E0],"tree_param":{"num_deleted":"0","num_feature":"10","num_nodes":"5","size_leaf_vector":"1"}},{"base_weights":[6.0377337E-2,-1.7384866E-2,2.5825813E-1,-3.3019073E-3,2.1468395E-2],"categories":[],"categories_nodes":[],"categories_segments":[],"categories_sizes":[],"default_left":[0,0,0,0,0],"id":127,"left_children":[1,-1,3,-1,-1],"loss_changes":[4.8120964E-1,0E0,2.4133262E-1,0E0,0E0],"parents":[2147483647,0,0,2,2],"right_children":[2,-1,4,-1,-1],"split_conditions":[3.038436E1,-1.7384866E-2,1.5712833E0,-3.3019073E-3,2.1468395E-2],"split_indices":[3,0,0,0,0],"split_type":[0,0,0,0,0],"sum_hessian":[3.8472238E0,1.0091091E0,2.8381147E0,1.1923568E0,1.6457579E0],"tree_param":{"num_deleted":"0","num_feature":"10","num_nodes":"5","size_leaf_vector":"1"}},{"base_weights":[-9.186352E-2,1.5619408E-1,-1.9638056E-2,-1.4421897E-2,2.6020909E-2],"categories":[],"categories_nodes":[],"categories_segments":[],"categories_sizes":[],"default_left":[0,0,0,0,0],"id":128,"left_children":[1,3,-1,-1,-1],"loss_changes":[3.8993046E-1,6.567497E-1,0E0,0E0,0E0],"parents":[2147483647,0,0,1,1],"right_children":[2,4,-1,-1,-1],"split_conditions":[3.6352808E0,2.1545794E0,-1.9638056E-2,-1.4421897E-2,2.6020909E-2],"split_indices":[7,7,0,0,0],"split_type":[0,0,0,0,0],"sum_hessian":[3.4022486E0,2.1284652E0,1.2737837E0,1.0521333E0,1.0763317E0],"tree_param":{"num_deleted":"0","num_feature":"10","num_nodes":"5","size_leaf_vector":"1"}},{"base_weights":[1.3244423E-1,-1.2764159E-2,3.246233E-1,2.6769046E-2,-2.0285333E-3],"categories":[],"categories_nodes":[],"categories_segments":[],"categories_sizes":[],"default_left":[0,0,0,0,0],"id":129,"left_children":[1,-1,3,-1,-1],"loss_changes":[4.3834516E-1,0E0,3.011027E-1,0E0,0E0],"parents":[2147483647,0,0,2,2],"right_children":[2,-1,4,-1,-1],"split_conditions":[5.9750032E0,-1.2764159E-2,5.225883E0,2.6769046E-2,-2.0285333E-3],"split_indices":[2,0,4,0,0],"split_type":[0,0,0,0,0],"sum_hessian":[3.7706292E0,1.140756E0,2.629873E0,1.3720369E0,1.2578362E0],"tree_param":{"num_deleted":"0","num_feature":"10","num_nodes":"5","size_leaf_vector":"1"}},{"base_weights":[-5.752253E-2,-2.7798548E-2,2.549926E-1,3.039614E-2,-8.250815E-3],"categories":[],"categories_nodes":[],"categories_segments":[],"categories_sizes":[],"default_left":[0,0,0,0,0],"id":130,"left_children":[1,-1,3,-1,-1],"loss_changes":[8.237165E-1,0E0,6.008067E-1,0E0,0E0],"parents":[2147483647,0,0,2,2],"right_children":[2,-1,4,-1,-1],"split_conditions":[5.9750032E0,-2.7798548E-2,7.006047E0,3.039614E-2,-8.250815E-3],"split_indices":[2,0,2,0,0],"split_type":[0,0,0,0,0],"sum_hessian":[3.3778412E0,1.0014884E0,2.3763528E0,1.048175E0,1.3281777E0],"tree_param":{"num_deleted":"0","num_feature":"10","num_nodes":"5","size_leaf_vector":"1"}},{"base_weights":[5.375493E-2,-1.7623385E-2,2.542147E-1,-2.633338E-3,2.4922736E-2],"categories":[],"categories_nodes":[],"categories_segments":[],"categories_sizes":[],"default_left":[0,0,0,0,0],"id":131,"left_children":[1,-1,3,-1,-1],"loss_changes":[4.7959694E-1,0E0,3.1015497E-1,0E0,0E0],"parents":[2147483647,0,0,2,2],"right_children":[2,-1,4,-1,-1],"split_conditions":[3.038436E1,-1.7623385E-2,5.4372516E0,-2.633338E-3,2.4922736E-2],"split_indices":[3,0,4,0,0],"split_type":[0,0,0,0,0],"sum_hessian":[3.789246E0,1.0014853E0,2.787761E0,1.5830557E0,1.2047051E0],"tree_param":{"num_deleted":"0","num_feature":"10","num_nodes":"5","size_leaf_vector":"1"}},{"base_weights":[5.763298E-2,-1.1626691E-1,1.6555443E-2,7.0011565E-3,-1.5933434E-2],"categories":[],"categories_nodes":[],"categories_segments":[],"categories_sizes":[],"default_left":[0,0,0,0,0],"id":132,"left_children":[1,3,-1,-1,-1],"loss_changes":[2.5353733E-1,2.2639513E-1,0E0,0E0,0E0],"parents":[2147483647,0,0,1,1],"right_children":[2,4,-1,-1,-1],"split_conditions":[3.0346625E0,6.124328E0,1.6555443E-2,7.0011565E-3,-1.5933434E-2],"split_indices":[0,2,0,0,0],"split_type":[0,0,0,0,0],"sum_hessian":[3.5216978E0,2.5041776E0,1.0175201E0,1.2409827E0,1.2631949E0],"tree_param":{"num_deleted":"0","num_feature":"10","num_nodes":"5","size_leaf_vector":"1"}},{"base_weights":[1.8932569E-1,-9.399871E-3,2.2502825E-2],"categories":[],"categories_nodes":[],"categories_segments":[],"categories_sizes":[],"default_left":[0,0,0],"id":133,"left_children":[1,-1,-1],"loss_changes":[5.0609916E-1,0E0,0E0],"parents":[2147483647,0,0],"right_children":[2,-1,-1],"split_conditions":[1.5712833E0,-9.399871E-3,2.2502825E-2],"split_indices":[0,0,0],"split_type":[0,0,0],"sum_hessian":[3.2843127E0,1.4560758E0,1.8282369E0],"tree_param":{"num_deleted":"0","num_feature":"10","num_nodes":"3","size_leaf_vector":"1"}},{"base_weights":[-8.070779E-2,7.950082E-3,-1.6230613E-2],"categories":[],"categories_nodes":[],"categories_segments":[],"categories_sizes":[],"default_left":[0,0,0],"id":134,"left_children":[1,-1,-1],"loss_changes":[3.2330245E-1,0E0,0E0],"parents":[2147483647,0,0],"right_children":[2,-1,-1],"split_conditions":[5.225883E0,7.950082E-3,-1.6230613E-2],"split_indices":[4,0,0],"split_type":[0,0,0],"sum_hessian":[3.6469338E0,2.0148435E0,1.6320904E0],"tree_param":{"num_deleted":"0","num_feature":"10","num_nodes":"3","size_leaf_vector":"1"}},{"base_weights":[1.549506E-1,-8.900843E-3,3.3790612E-1,2.9107062E-2,-2.8775767E-3],"categories":[],"categories_nodes":[],"categories_segments":[],"categories_sizes":[],"default_left":[0,0,0,0,0],"id":135,"left_children":[1,-1,3,-1,-1],"loss_changes":[3.6014873E-1,0E0,3.7379697E-1,0E0,0E0],"parents":[2147483647,0,0,2,2],"right_children":[2,-1,4,-1,-1],"split_conditions":[5.9750032E0,-8.900843E-3,5.225883E0,2.9107062E-2,-2.8775767E-3],"split_indices":[2,0,4,0,0],"split_type":[0,0,0,0,0],"sum_hessian":[3.9245641E0,1.401293E0,2.523271E0,1.2680513E0,1.2552197E0],"tree_param":{"num_deleted":"0","num_feature":"10","num_nodes":"5","size_leaf_vector":"1"}},{"base_weights":[3.5722103E-2,-1.9842958E-2,2.7812836E-1,2.8098425E-2,-2.7698292E-3],"categories":[],"categories_nodes":[],"categories_segments":[],"categories_sizes":[],"default_left":[0,0,0,0,0],"id":136,"left_children":[1,-1,3,-1,-1],"loss_changes":[6.0776705E-1,0E0,3.7456995E-1,0E0,0E0],"parents":[2147483647,0,0,2,2],"right_children":[2,-1,4,-1,-1],"split_conditions":[5.9750032E0,-1.9842958E-2,7.006047E0,2.8098425E-2,-2.7698292E-3],"split_indices":[2,0,2,0,0],"split_type":[0,0,0,0,0],"sum_hessian":[3.7433472E0,1.1155137E0,2.6278334E0,1.0496292E0,1.5782043E0],"tree_param":{"num_deleted":"0","num_feature":"10","num_nodes":"5","size_leaf_vector":"1"}},{"base_weights":[1.0071662E-1,-1.0055515E-2,3.1374532E-1,3.5532252E-3,2.0072913E-2],"categories":[],"categories_nodes":[],"categories_segments":[],"categories_sizes":[],"default_left":[0,0,0,0,0],"id":137,"left_children":[1,-1,3,-1,-1],"loss_changes":[3.5113132E-1,0E0,3.5686225E-2,0E0,0E0],"parents":[2147483647,0,0,2,2],"right_children":[2,-1,4,-1,-1],"split_conditions":[1.5712833E0,-1.0055515E-2,2.1369044E2,3.5532252E-3,2.0072913E-2],"split_indices":[0,0,5,0,0],"split_type":[0,0,0,0,0],"sum_hessian":[3.4796855E0,1.4629174E0,2.0167682E0,1.015982E0,1.0007861E0],"tree_param":{"num_deleted":"0","num_feature":"10","num_nodes":"5","size_leaf_vector":"1"}},{"base_weights":[3.264384E-2,-2.014423E-2,2.830155E-1,2.547125E-2,-4.858137E-3],"categories":[],"categories_nodes":[],"categories_segments":[],"categories_sizes":[],"default_left":[0,0,0,0,0],"id":138,"left_children":[1,-1,3,-1,-1],"loss_changes":[6.2872666E-1,0E0,3.5804096E-1,0E0,0E0],"parents":[2147483647,0,0,2,2],"right_children":[2,-1,4,-1,-1],"split_conditions":[5.9750032E0,-2.014423E-2,8.483783E0,2.547125E-2,-4.858137E-3],"split_indices":[2,0,2,0,0],"split_type":[0,0,0,0,0],"sum_hessian":[3.7201521E0,1.1355994E0,2.5845528E0,1.406794E0,1.1777588E0],"tree_param":{"num_deleted":"0","num_feature":"10","num_nodes":"5","size_leaf_vector":"1"}},{"base_weights":[-1.0196728E-1,-1.6323831E-2,6.4633223E-3],"categories":[],"categories_nodes":[],"categories_segments":[],"categories_sizes":[],"default_left":[0,0,0],"id":139,"left_children":[1,-1,-1],"loss_changes":[2.7202708E-1,0E0,0E0],"parents":[2147483647,0,0],"right_children":[2,-1,-1],"split_conditions":[2.1985292E2,-1.6323831E-2,6.4633223E-3],"split_indices":[5,0,0],"split_type":[0,0,0],"sum_hessian":[3.4270146E0,1.5298059E0,1.8972086E0],"tree_param":{"num_deleted":"0","num_feature":"10","num_nodes":"3","size_leaf_vector":"1"}},{"base_weights":[9.3099914E-2,-1.0765669E-2,2.7619326E-1,4.6108016E-3,1.6746458E-2],"categories":[],"categories_nodes":[],"categories_segments":[],"categories_sizes":[],"default_left":[0,0,0,0,0],"id":140,"left_children":[1,-1,3,-1,-1],"loss_changes":[3.1085575E-1,0E0,4.034221E-3,0E0,0E0],"parents":[2147483647,0,0,2,2],"right_children":[2,-1,4,-1,-1],"split_conditions":[4.3649993E0,-1.0765669E-2,2.2489853E0,4.6108016E-3,1.6746458E-2],"split_indices":[4,0,0,0,0],"split_type":[0,0,0,0,0],"sum_hessian":[3.4518263E0,1.2203019E0,2.2315245E0,1.161958E0,1.0695666E0],"tree_param":{"num_deleted":"0","num_feature":"10","num_nodes":"5","size_leaf_vector":"1"}},{"base_weights":[1.8021655E-1,-6.2925215E-3,1.8409688E-2],"categories":[],"categories_nodes":[],"categories_segments":[],"categories_sizes":[],"default_left":[0,0,0],"id":141,"left_children":[1,-1,-1],"loss_changes":[2.8773397E-1,0E0,0E0],"parents":[2147483647,0,0],"right_children":[2,-1,-1],