{"learner":{"attributes":{"scikit_learn":"{\"_estimator_type\": \"classifier\"}"},"feature_names":["AMH","AFC","FSH","Age","P","Weight","DBP","WBC","ALT","RBC","Duration","LH","Initial.FSH","POIorDOR_Yes","Protocol_Long","Protocol_Short","Recombinant_Yes","Use.LH_Yes"],"feature_types":["float","float","float","float","float","float","float","float","float","float","float","float","float","float","float","float","float","float"],"gradient_booster":{"model":{"cats":{"enc":[],"feature_segments":[],"sorted_idx":[]},"gbtree_model_param":{"num_parallel_tree":"1","num_trees":"200"},"iteration_indptr":[0,1,2,3,4,5,6,7,8,9,10,11,12,13,14,15,16,17,18,19,20,21,22,23,24,25,26,27,28,29,30,31,32,33,34,35,36,37,38,39,40,41,42,43,44,45,46,47,48,49,50,51,52,53,54,55,56,57,58,59,60,61,62,63,64,65,66,67,68,69,70,71,72,73,74,75,76,77,78,79,80,81,82,83,84,85,86,87,88,89,90,91,92,93,94,95,96,97,98,99,100,101,102,103,104,105,106,107,108,109,110,111,112,113,114,115,116,117,118,119,120,121,122,123,124,125,126,127,128,129,130,131,132,133,134,135,136,137,138,139,140,141,142,143,144,145,146,147,148,149,150,151,152,153,154,155,156,157,158,159,160,161,162,163,164,165,166,167,168,169,170,171,172,173,174,175,176,177,178,179,180,181,182,183,184,185,186,187,188,189,190,191,192,193,194,195,196,197,198,199,200],"tree_info":[0,0,0,0,0,0,0,0,0,0,0,0,0,0,0,0,0,0,0,0,0,0,0,0,0,0,0,0,0,0,0,0,0,0,0,0,0,0,0,0,0,0,0,0,0,0,0,0,0,0,0,0,0,0,0,0,0,0,0,0,0,0,0,0,0,0,0,0,0,0,0,0,0,0,0,0,0,0,0,0,0,0,0,0,0,0,0,0,0,0,0,0,0,0,0,0,0,0,0,0,0,0,0,0,0,0,0,0,0,0,0,0,0,0,0,0,0,0,0,0,0,0,0,0,0,0,0,0,0,0,0,0,0,0,0,0,0,0,0,0,0,0,0,0,0,0,0,0,0,0,0,0,0,0,0,0,0,0,0,0,0,0,0,0,0,0,0,0,0,0,0,0,0,0,0,0,0,0,0,0,0,0,0,0,0,0,0,0,0,0,0,0,0,0,0,0,0,0,0,0],"trees":[{"base_weights":[-3.2835733E-2,5.2854657E-2,-5.9117085E-1,-4.551475E-2,1.7177913E-2],"categories":[],"categories_nodes":[],"categories_segments":[],"categories_sizes":[],"default_left":[0,0,0,0,0],"id":0,"left_children":[1,-1,3,-1,-1],"loss_changes":[4.927239E0,0E0,1.8985709E0,0E0,0E0],"parents":[2147483647,0,0,2,2],"right_children":[2,-1,4,-1,-1],"split_conditions":[8E0,5.2854657E-2,4.6316824E0,-4.551475E-2,1.7177913E-2],"split_indices":[1,0,9,0,0],"split_type":[0,0,0,0,0],"sum_hessian":[6.069835E0,1.7535079E0,4.316327E0,3.2372453E0,1.0790818E0],"tree_param":{"num_deleted":"0","num_feature":"18","num_nodes":"5","size_leaf_vector":"1"}},{"base_weights":[-2.9556464E-2,-4.5145378E-1,4.958452E-2,2.7533649E-2,-4.5366786E-2],"categories":[],"categories_nodes":[],"categories_segments":[],"categories_sizes":[],"default_left":[0,0,0,0,0],"id":1,"left_children":[1,3,-1,-1,-1],"loss_changes":[3.4862113E0,3.0934987E0,0E0,0E0,0E0],"parents":[2147483647,0,0,1,1],"right_children":[2,4,-1,-1,-1],"split_conditions":[4.6614957E0,8E0,4.958452E-2,2.7533649E-2,-4.5366786E-2],"split_indices":[9,1,0,0,0],"split_type":[0,0,0,0,0],"sum_hessian":[6.052174E0,4.6776733E0,1.374501E0,1.3975744E0,3.280099E0],"tree_param":{"num_deleted":"0","num_feature":"18","num_nodes":"5","size_leaf_vector":"1"}},{"base_weights":[-1.04504265E-1,9.7753793E-1,-7.693007E-1,8.444577E-2,-8.798677E-3,-4.4932E-2,-7.2257444E-3],"categories":[],"categories_nodes":[],"categories_segments":[],"categories_sizes":[],"default_left":[0,0,0,0,0,0,0],"id":2,"left_children":[1,3,5,-1,-1,-1,-1],"loss_changes":[6.178956E0,3.0146093E0,2.9299164E-1,0E0,0E0,0E0,0E0],"parents":[2147483647,0,0,1,1,2,2],"right_children":[2,4,6,-1,-1,-1,-1],"split_conditions":[7.3012566E1,8E0,8.757054E0,8.444577E-2,-8.798677E-3,-4.4932E-2,-7.2257444E-3],"split_indices":[6,1,2,0,0,0,0],"split_type":[0,0,0,0,0,0,0],"sum_hessian":[6.544349E0,2.3115578E0,4.2327914E0,1.1426979E0,1.1688597E0,3.1436877E0,1.0891036E0],"tree_param":{"num_deleted":"0","num_feature":"18","num_nodes":"7","size_leaf_vector":"1"}},{"base_weights":[1.6963682E-1,1.1525804E0,-5.02615E-1,6.847521E-2,1.842427E-2,-4.282882E-2,1.9214297E-2],"categories":[],"categories_nodes":[],"categories_segments":[],"categories_sizes":[],"default_left":[0,0,0,0,0,0,0],"id":3,"left_children":[1,3,5,-1,-1,-1,-1],"loss_changes":[5.040633E0,1.3411045E-2,1.8064477E0,0E0,0E0,0E0,0E0],"parents":[2147483647,0,0,1,1,2,2],"right_children":[2,4,6,-1,-1,-1,-1],"split_conditions":[8E0,8.483783E0,6.66817E1,6.847521E-2,1.842427E-2,-4.282882E-2,1.9214297E-2],"split_indices":[1,2,5,0,0,0,0],"split_type":[0,0,0,0,0,0,0],"sum_hessian":[5.751553E0,2.0457785E0,3.7057743E0,1.0176386E0,1.0281401E0,2.6731243E0,1.0326501E0],"tree_param":{"num_deleted":"0","num_feature":"18","num_nodes":"7","size_leaf_vector":"1"}},{"base_weights":[-1.23325005E-1,-5.739616E-1,4.30626E-2,-4.3743134E-2,8.784399E-3],"categories":[],"categories_nodes":[],"categories_segments":[],"categories_sizes":[],"default_left":[0,0,0,0,0],"id":4,"left_children":[1,3,-1,-1,-1],"loss_changes":[3.492398E0,1.3347019E0,0E0,0E0,0E0],"parents":[2147483647,0,0,1,1],"right_children":[2,4,-1,-1,-1],"split_conditions":[6.697671E1,1.8063835E2,4.30626E-2,-4.3743134E-2,8.784399E-3],"split_indices":[5,12,0,0,0],"split_type":[0,0,0,0,0],"sum_hessian":[5.757188E0,4.2356133E0,1.5215743E0,2.9032516E0,1.3323619E0],"tree_param":{"num_deleted":"0","num_feature":"18","num_nodes":"5","size_leaf_vector":"1"}},{"base_weights":[-1.4075719E-1,4.2793225E-2,-7.2669643E-1,-4.3302044E-2,-6.2153535E-3],"categories":[],"categories_nodes":[],"categories_segments":[],"categories_sizes":[],"default_left":[0,0,0,0,0],"id":5,"left_children":[1,-1,3,-1,-1],"loss_changes":[4.6311555E0,0E0,3.0066156E-1,0E0,0E0],"parents":[2147483647,0,0,2,2],"right_children":[2,-1,4,-1,-1],"split_conditions":[7.3012566E1,4.2793225E-2,8.6267265E1,-4.3302044E-2,-6.2153535E-3],"split_indices":[6,0,6,0,0],"split_type":[0,0,0,0,0],"sum_hessian":[5.8655457E0,2.0011415E0,3.8644042E0,2.782972E0,1.0814321E0],"tree_param":{"num_deleted":"0","num_feature":"18","num_nodes":"5","size_leaf_vector":"1"}},{"base_weights":[-3.4127504E-2,4.4183064E-2,-5.5302775E-1,-4.388238E-2,1.806469E-2],"categories":[],"categories_nodes":[],"categories_segments":[],"categories_sizes":[],"default_left":[0,0,0,0,0],"id":6,"left_children":[1,-1,3,-1,-1],"loss_changes":[3.8696744E0,0E0,1.8457242E0,0E0,0E0],"parents":[2147483647,0,0,2,2],"right_children":[2,-1,4,-1,-1],"split_conditions":[8E0,4.4183064E-2,4.6433535E0,-4.388238E-2,1.806469E-2],"split_indices":[1,0,9,0,0],"split_type":[0,0,0,0,0],"sum_hessian":[6.099319E0,1.949049E0,4.15027E0,3.0924428E0,1.0578274E0],"tree_param":{"num_deleted":"0","num_feature":"18","num_nodes":"5","size_leaf_vector":"1"}},{"base_weights":[1.8979603E-1,-6.3940465E-1,1.0585312E0,-3.943299E-2,-4.902304E-3,7.867742E-2,7.11825E-3],"categories":[],"categories_nodes":[],"categories_segments":[],"categories_sizes":[],"default_left":[0,0,0,0,0,0,0],"id":7,"left_children":[1,3,5,-1,-1,-1,-1],"loss_changes":[5.464826E0,2.4782932E-1,1.4852514E0,0E0,0E0,0E0,0E0],"parents":[2147483647,0,0,1,1,2,2],"right_children":[2,4,6,-1,-1,-1,-1],"split_conditions":[4.322653E0,6.811068E0,9E0,-3.943299E-2,-4.902304E-3,7.867742E-2,7.11825E-3],"split_indices":[9,7,1,0,0,0,0],"split_type":[0,0,0,0,0,0,0],"sum_hessian":[5.6467104E0,3.024158E0,2.6225524E0,2.012489E0,1.0116688E0,1.2194884E0,1.403064E0],"tree_param":{"num_deleted":"0","num_feature":"18","num_nodes":"7","size_leaf_vector":"1"}},{"base_weights":[1.7819408E-1,9.300681E-1,-6.038417E-1,-5.490311E-3,6.6985115E-2,-5.0483737E-3,-3.7346624E-2],"categories":[],"categories_nodes":[],"categories_segments":[],"categories_sizes":[],"default_left":[0,0,0,0,0,0,0],"id":8,"left_children":[1,3,5,-1,-1,-1,-1],"loss_changes":[4.5054603E0,1.7714345E0,2.0478666E-1,0E0,0E0,0E0,0E0],"parents":[2147483647,0,0,1,1,2,2],"right_children":[2,4,6,-1,-1,-1,-1],"split_conditions":[9E0,3.230545E-1,7.4447945E1,-5.490311E-3,6.6985115E-2,-5.0483737E-3,-3.7346624E-2],"split_indices":[1,4,6,0,0,0,0],"split_type":[0,0,0,0,0,0,0],"sum_hessian":[5.7073083E0,2.81326E0,2.8940482E0,1.0018815E0,1.8113786E0,1.0188937E0,1.8751544E0],"tree_param":{"num_deleted":"0","num_feature":"18","num_nodes":"7","size_leaf_vector":"1"}},{"base_weights":[-1.17297366E-1,3.2810796E-2,-5.290003E-1,1.6415025E-3,-4.1029945E-2],"categories":[],"categories_nodes":[],"categories_segments":[],"categories_sizes":[],"default_left":[0,0,0,0,0],"id":9,"left_children":[1,-1,3,-1,-1],"loss_changes":[2.4760673E0,0E0,8.3242345E-1,0E0,0E0],"parents":[2147483647,0,0,2,2],"right_children":[2,-1,4,-1,-1],"split_conditions":[7.233564E1,3.2810796E-2,5.483286E0,1.6415025E-3,-4.1029945E-2],"split_indices":[6,0,7,0,0],"split_type":[0,0,0,0,0],"sum_hessian":[5.6851234E0,1.7685118E0,3.9166114E0,1.6414337E0,2.2751777E0],"tree_param":{"num_deleted":"0","num_feature":"18","num_nodes":"5","size_leaf_vector":"1"}},{"base_weights":[-7.3845186E-3,5.1128125E-1,-5.915135E-1,5.1833834E-2,-1.4711859E-2,-3.694619E-2,-5.0137485E-3],"categories":[],"categories_nodes":[],"categories_segments":[],"categories_sizes":[],"default_left":[0,0,0,0,0,0,0],"id":10,"left_children":[1,3,5,-1,-1,-1,-1],"loss_changes":[2.396249E0,2.0812716E0,1.9484961E-1,0E0,0E0,0E0,0E0],"parents":[2147483647,0,0,1,1,2,2],"right_children":[2,4,6,-1,-1,-1,-1],"split_conditions":[1.4756532E0,5.6054454E0,3.7082145E0,5.1833834E-2,-1.4711859E-2,-3.694619E-2,-5.0137485E-3],"split_indices":[10,7,10,0,0,0,0],"split_type":[0,0,0,0,0,0,0],"sum_hessian":[5.9110312E0,3.197016E0,2.7140152E0,1.7612687E0,1.4357471E0,1.6997508E0,1.0142645E0],"tree_param":{"num_deleted":"0","num_feature":"18","num_nodes":"7","size_leaf_vector":"1"}},{"base_weights":[1.8578729E-1,9.6099615E-1,-3.5094696E-1,-5.7814396E-3,7.440032E-2,-4.112057E-2,1.9537725E-2],"categories":[],"categories_nodes":[],"categories_segments":[],"categories_sizes":[],"default_left":[0,0,0,0,0,0,0],"id":11,"left_children":[1,3,5,-1,-1,-1,-1],"loss_changes":[3.406125E0,2.0359297E0,2.101494E0,0E0,0E0,0E0,0E0],"parents":[2147483647,0,0,1,1,2,2],"right_children":[2,4,6,-1,-1,-1,-1],"split_conditions":[7.3012566E1,3.1308187E1,4.37503E0,-5.7814396E-3,7.440032E-2,-4.112057E-2,1.9537725E-2],"split_indices":[6,3,9,0,0,0,0],"split_type":[0,0,0,0,0,0,0],"sum_hessian":[6.3756437E0,2.2849805E0,4.0906634E0,1.0074546E0,1.277526E0,2.4344082E0,1.6562551E0],"tree_param":{"num_deleted":"0","num_feature":"18","num_nodes":"7","size_leaf_vector":"1"}},{"base_weights":[2.2571431E-3,4.3281678E-2,-5.1478934E-1,-4.2611204E-2,1.904355E-2],"categories":[],"categories_nodes":[],"categories_segments":[],"categories_sizes":[],"default_left":[0,0,0,0,0],"id":12,"left_children":[1,-1,3,-1,-1],"loss_changes":[3.499241E0,0E0,1.8071313E0,0E0,0E0],"parents":[2147483647,0,0,2,2],"right_children":[2,-1,4,-1,-1],"split_conditions":[8E0,4.3281678E-2,4.6236258E0,-4.2611204E-2,1.904355E-2],"split_indices":[1,0,9,0,0],"split_type":[0,0,0,0,0],"sum_hessian":[5.8404636E0,1.9350623E0,3.9054012E0,2.8719194E0,1.033482E0],"tree_param":{"num_deleted":"0","num_feature":"18","num_nodes":"5","size_leaf_vector":"1"}},{"base_weights":[-3.1851392E-2,-4.4116592E-1,4.7196608E-2,2.3367142E-2,-4.35689E-2],"categories":[],"categories_nodes":[],"categories_segments":[],"categories_sizes":[],"default_left":[0,0,0,0,0],"id":13,"left_children":[1,3,-1,-1,-1],"loss_changes":[3.2178988E0,2.6049387E0,0E0,0E0,0E0],"parents":[2147483647,0,0,1,1],"right_children":[2,4,-1,-1,-1],"split_conditions":[4.6614957E0,8E0,4.7196608E-2,2.3367142E-2,-4.35689E-2],"split_indices":[9,1,0,0,0],"split_type":[0,0,0,0,0],"sum_hessian":[6.0141497E0,4.6228685E0,1.3912814E0,1.4578716E0,3.1649969E0],"tree_param":{"num_deleted":"0","num_feature":"18","num_nodes":"5","size_leaf_vector":"1"}},{"base_weights":[-1.4549775E-1,4.9708554E-1,-4.065813E-2,-1.2751497E-2,5.3396344E-2],"categories":[],"categories_nodes":[],"categories_segments":[],"categories_sizes":[],"default_left":[0,0,0,0,0],"id":14,"left_children":[1,3,-1,-1,-1],"loss_changes":[2.9328277E0,1.8282444E0,0E0,0E0,0E0],"parents":[2147483647,0,0,1,1],"right_children":[2,4,-1,-1,-1],"split_conditions":[5.483286E0,4.32431E0,-4.065813E-2,-1.2751497E-2,5.3396344E-2],"split_indices":[7,9,0,0,0],"split_type":[0,0,0,0,0],"sum_hessian":[4.893794E0,2.6239254E0,2.2698684E0,1.3709112E0,1.2530142E0],"tree_param":{"num_deleted":"0","num_feature":"18","num_nodes":"5","size_leaf_vector":"1"}},{"base_weights":[-7.373128E-2,-4.1317582E-2,6.249513E-1,-1.67784E-2,6.9017015E-2],"categories":[],"categories_nodes":[],"categories_segments":[],"categories_sizes":[],"default_left":[0,0,0,0,0],"id":15,"left_children":[1,-1,3,-1,-1],"loss_changes":[3.8743434E0,0E0,3.2790732E0,0E0,0E0],"parents":[2147483647,0,0,2,2],"right_children":[2,-1,4,-1,-1],"split_conditions":[4.32431E0,-4.1317582E-2,2.9556057E1,-1.67784E-2,6.9017015E-2],"split_indices":[9,0,3,0,0],"split_type":[0,0,0,0,0],"sum_hessian":[5.3857765E0,2.5048382E0,2.880938E0,1.5129304E0,1.3680077E0],"tree_param":{"num_deleted":"0","num_feature":"18","num_nodes":"5","size_leaf_vector":"1"}},{"base_weights":[8.519956E-2,5.826905E-2,-6.650789E-1,-4.283055E-3,-4.054543E-2],"categories":[],"categories_nodes":[],"categories_segments":[],"categories_sizes":[],"default_left":[0,0,0,0,0],"id":16,"left_children":[1,-1,3,-1,-1],"loss_changes":[5.93388E0,0E0,3.0173087E-1,0E0,0E0],"parents":[2147483647,0,0,2,2],"right_children":[2,-1,4,-1,-1],"split_conditions":[8E0,5.826905E-2,9.7987354E-1,-4.283055E-3,-4.054543E-2],"split_indices":[1,0,10,0,0],"split_type":[0,0,0,0,0],"sum_hessian":[5.365468E0,1.9724511E0,3.393017E0,1.0014424E0,2.3915749E0],"tree_param":{"num_deleted":"0","num_feature":"18","num_nodes":"5","size_leaf_vector":"1"}},{"base_weights":[-1.9625643E-1,-4.9406967E-1,3.5780024E-2,1.5519991E-2,-7.356218E-1,-4.358217E-2,-5.7612513E-3],"categories":[],"categories_nodes":[],"categories_segments":[],"categories_sizes":[],"default_left":[0,0,0,0,0,0,0],"id":17,"left_children":[1,3,-1,-1,5,-1,-1],"loss_changes":[2.2900722E0,1.3878441E0,0E0,0E0,3.1186342E-1,0E0,0E0],"parents":[2147483647,0,0,1,1,4,4],"right_children":[2,4,-1,-1,6,-1,-1],"split_conditions":[7.078015E1,3.5444868E0,3.5780024E-2,1.5519991E-2,9.133103E0,-4.358217E-2,-5.7612513E-3],"split_indices":[5,11,0,0,2,0,0],"split_type":[0,0,0,0,0,0,0],"sum_hessian":[6.1309986E0,4.966958E0,1.1640408E0,1.0811744E0,3.8857834E0,2.8548765E0,1.0309072E0],"tree_param":{"num_deleted":"0","num_feature":"18","num_nodes":"7","size_leaf_vector":"1"}},{"base_weights":[1.7871153E-1,-3.4237802E-1,5.4083653E-2,9.871127E-3,-3.817817E-2],"categories":[],"categories_nodes":[],"categories_segments":[],"categories_sizes":[],"default_left":[0,0,0,0,0],"id":18,"left_children":[1,3,-1,-1,-1],"loss_changes":[3.4944265E0,1.2806139E0,0E0,0E0,0E0],"parents":[2147483647,0,0,1,1],"right_children":[2,4,-1,-1,-1],"split_conditions":[5.6367016E-1,9E0,5.4083653E-2,9.871127E-3,-3.817817E-2],"split_indices":[4,1,0,0,0],"split_type":[0,0,0,0,0],"sum_hessian":[5.6395907E0,3.9696028E0,1.6699882E0,1.9726629E0,1.9969398E0],"tree_param":{"num_deleted":"0","num_feature":"18","num_nodes":"5","size_leaf_vector":"1"}},{"base_weights":[-1.1231401E-1,-3.9733388E-2,3.6986795E-1,-1.3303754E-2,3.6677614E-2],"categories":[],"categories_nodes":[],"categories_segments":[],"categories_sizes":[],"default_left":[0,0,0,0,0],"id":19,"left_children":[1,-1,3,-1,-1],"loss_changes":[2.4569936E0,0E0,1.2439479E0,0E0,0E0],"parents":[2147483647,0,0,2,2],"right_children":[2,-1,4,-1,-1],"split_conditions":[5.35455E1,-3.9733388E-2,4.322653E0,-1.3303754E-2,3.6677614E-2],"split_indices":[5,0,9,0,0],"split_type":[0,0,0,0,0],"sum_hessian":[5.5743127E0,2.0397377E0,3.534575E0,1.3835943E0,2.1509805E0],"tree_param":{"num_deleted":"0","num_feature":"18","num_nodes":"5","size_leaf_vector":"1"}},{"base_weights":[1.9077913E-1,-3.8441813E-1,1.0786523E0,1.5089932E-2,-6.4705235E-1,6.61748E-2,1.5973784E-2,-6.167237E-3,-3.904537E-2],"categories":[],"categories_nodes":[],"categories_segments":[],"categories_sizes":[],"default_left":[0,0,0,0,0,0,0,0,0],"id":20,"left_children":[1,3,5,-1,7,-1,-1,-1,-1],"loss_changes":[4.099086E0,1.1171942E0,1.5322757E-1,0E0,1.853131E-1,0E0,0E0,0E0,0E0],"parents":[2147483647,0,0,1,1,2,2,4,4],"right_children":[2,4,6,-1,8,-1,-1,-1,-1],"split_conditions":[3.359771E1,3.432192E0,5.6054454E0,1.5089932E-2,2.7159061E1,6.61748E-2,1.5973784E-2,-6.167237E-3,-3.904537E-2],"split_indices":[3,11,7,0,3,0,0,0,0],"split_type":[0,0,0,0,0,0,0,0,0],"sum_hessian":[6.214444E0,4.1153812E0,2.0990627E0,1.0978285E0,3.0175529E0,1.0251186E0,1.073944E0,1.0054013E0,2.0121517E0],"tree_param":{"num_deleted":"0","num_feature":"18","num_nodes":"9","size_leaf_vector":"1"}},{"base_weights":[1.1569221E-1,7.142409E-1,-5.761147E-1,-1.1002731E-2,5.828168E-2,-3.591819E-2,-4.7903876E-3],"categories":[],"categories_nodes":[],"categories_segments":[],"categories_sizes":[],"default_left":[0,0,0,0,0,0,0],"id":21,"left_children":[1,3,5,-1,-1,-1,-1],"loss_changes":[3.2637558E0,2.002272E0,1.8729937E-1,0E0,0E0,0E0,0E0],"parents":[2147483647,0,0,1,1,2,2],"right_children":[2,4,6,-1,-1,-1,-1],"split_conditions":[9E0,2.8485022E1,5.476138E-1,-1.1002731E-2,5.828168E-2,-3.591819E-2,-4.7903876E-3],"split_indices":[1,3,4,0,0,0,0],"split_type":[0,0,0,0,0,0,0],"sum_hessian":[5.888211E0,3.1394997E0,2.7487113E0,1.1896509E0,1.9498487E0,1.7382662E0,1.010445E0],"tree_param":{"num_deleted":"0","num_feature":"18","num_nodes":"7","size_leaf_vector":"1"}},{"base_weights":[2.7104664E-1,7.959717E-1,-4.7354966E-1,-6.3522197E-3,5.8687687E-2,-5.4679695E-3,-3.0082116E-2],"categories":[],"categories_nodes":[],"categories_segments":[],"categories_sizes":[],"default_left":[0,0,0,0,0,0,0],"id":22,"left_children":[1,3,5,-1,-1,-1,-1],"loss_changes":[2.7778113E0,1.5354593E0,8.1938386E-2,0E0,0E0,0E0,0E0],"parents":[2147483647,0,0,1,1,2,2],"right_children":[2,4,6,-1,-1,-1,-1],"split_conditions":[9.38E0,4.1531544E0,2.2601056E0,-6.3522197E-3,5.8687687E-2,-5.4679695E-3,-3.0082116E-2],"split_indices":[1,9,10,0,0,0,0],"split_type":[0,0,0,0,0,0,0],"sum_hessian":[5.1425977E0,2.9757543E0,2.1668432E0,1.0569849E0,1.9187694E0,1.046164E0,1.1206791E0],"tree_param":{"num_deleted":"0","num_feature":"18","num_nodes":"7","size_leaf_vector":"1"}},{"base_weights":[2.643652E-1,-2.8674275E-1,9.609341E-1,1.0946563E-2,-3.6648303E-2,6.542029E-2,1.0558838E-2],"categories":[],"categories_nodes":[],"categories_segments":[],"categories_sizes":[],"default_left":[0,0,0,0,0,0,0],"id":23,"left_children":[1,3,5,-1,-1,-1,-1],"loss_changes":[2.8782806E0,1.1883671E0,5.6376624E-1,0E0,0E0,0E0,0E0],"parents":[2147483647,0,0,1,1,2,2],"right_children":[2,4,6,-1,-1,-1,-1],"split_conditions":[3.359771E1,5.4372516E0,5.6054454E0,1.0946563E-2,-3.6648303E-2,6.542029E-2,1.0558838E-2],"split_indices":[3,11,7,0,0,0,0],"split_type":[0,0,0,0,0,0,0],"sum_hessian":[5.780005E0,3.555406E0,2.224599E0,1.9054545E0,1.6499516E0,1.0109657E0,1.2136332E0],"tree_param":{"num_deleted":"0","num_feature":"18","num_nodes":"7","size_leaf_vector":"1"}},{"base_weights":[-1.06920704E-1,-5.5569106E-1,4.4479E-2,-4.344369E-2,1.2698332E-2],"categories":[],"categories_nodes":[],"categories_segments":[],"categories_sizes":[],"default_left":[0,0,0,0,0],"id":24,"left_children":[1,3,-1,-1,-1],"loss_changes":[3.3908043E0,1.5091285E0,0E0,0E0,0E0],"parents":[2147483647,0,0,1,1],"right_children":[2,4,-1,-1,-1],"split_conditions":[5.902453E-1,9.786103E0,4.4479E-2,-4.344369E-2,1.2698332E-2],"split_indices":[4,2,0,0,0],"split_type":[0,0,0,0,0],"sum_hessian":[5.476907E0,4.0812764E0,1.3956301E0,2.8901887E0,1.191088E0],"tree_param":{"num_deleted":"0","num_feature":"18","num_nodes":"5","size_leaf_vector":"1"}},{"base_weights":[-1.211224E-1,-5.645256E-1,4.2433448E-2,-4.3347713E-2,1.5744144E-2],"categories":[],"categories_nodes":[],"categories_segments":[],"categories_sizes":[],"default_left":[0,0,0,0,0],"id":25,"left_children":[1,3,-1,-1,-1],"loss_changes":[3.3040864E0,1.6317347E0,0E0,0E0,0E0],"parents":[2147483647,0,0,1,1],"right_children":[2,4,-1,-1,-1],"split_conditions":[4.6614957E0,7.1444696E-1,4.2433448E-2,-4.3347713E-2,1.5744144E-2],"split_indices":[9,4,0,0,0],"split_type":[0,0,0,0,0],"sum_hessian":[5.569616E0,4.1088686E0,1.4607471E0,3.0679595E0,1.0409092E0],"tree_param":{"num_deleted":"0","num_feature":"18","num_nodes":"5","size_leaf_vector":"1"}},{"base_weights":[-1.7064738E-1,-4.3995848E-1,2.740164E-2,1.5925098E-2,-6.993068E-1,-5.1531526E-3,-4.24554E-2],"categories":[],"categories_nodes":[],"categories_segments":[],"categories_sizes":[],"default_left":[0,0,0,0,0,0,0],"id":26,"left_children":[1,3,-1,-1,5,-1,-1],"loss_changes":[1.5657494E0,1.31112E0,0E0,0E0,3.087151E-1,0E0,0E0],"parents":[2147483647,0,0,1,1,4,4],"right_children":[2,4,-1,-1,6,-1,-1],"split_conditions":[1E0,4.0358953E0,2.740164E-2,1.5925098E-2,3.7998822E-1,-5.1531526E-3,-4.24554E-2],"split_indices":[13,9,0,0,4,0,0],"split_type":[0,0,0,0,0,0,0],"sum_hessian":[5.843957E0,4.5330944E0,1.3108627E0,1.0969611E0,3.4361331E0,1.0288942E0,2.407239E0],"tree_param":{"num_deleted":"0","num_feature":"18","num_nodes":"7","size_leaf_vector":"1"}},{"base_weights":[-7.6737003E-3,8.155849E-1,-6.5013707E-1,1.0172366E-2,5.2782293E-2,-4.971461E-3,-3.944119E-2],"categories":[],"categories_nodes":[],"categories_segments":[],"categories_sizes":[],"default_left":[0,0,0,0,0,0,0],"id":27,"left_children":[1,3,5,-1,-1,-1,-1],"loss_changes":[4.055437E0,2.7971792E-1,2.4998271E-1,0E0,0E0,0E0,0E0],"parents":[2147483647,0,0,1,1,2,2],"right_children":[2,4,6,-1,-1,-1,-1],"split_conditions":[8E0,2.2489853E0,5.1020665E0,1.0172366E-2,5.2782293E-2,-4.971461E-3,-3.944119E-2],"split_indices":[1,0,7,0,0,0,0],"split_type":[0,0,0,0,0,0,0],"sum_hessian":[5.6649747E0,2.3649895E0,3.299985E0,1.1866364E0,1.1783532E0,1.0092626E0,2.2907226E0],"tree_param":{"num_deleted":"0","num_feature":"18","num_nodes":"7","size_leaf_vector":"1"}},{"base_weights":[1.9139105E-1,-3.6331856E-1,6.5850663E-1,-3.5528205E-2,9.875844E-3,-1.0384595E-2,5.3402454E-2],"categories":[],"categories_nodes":[],"categories_segments":[],"categories_sizes":[],"default_left":[0,0,0,0,0,0,0],"id":28,"left_children":[1,3,5,-1,-1,-1,-1],"loss_changes":[2.0794458E0,8.9810985E-1,1.7156236E0,0E0,0E0,0E0,0E0],"parents":[2147483647,0,0,1,1,2,2],"right_children":[2,4,6,-1,-1,-1,-1],"split_conditions":[4.32431E0,1.9910725E1,2.9005383E1,-3.5528205E-2,9.875844E-3,-1.0384595E-2,5.3402454E-2],"split_indices":[9,8,3,0,0,0,0],"split_type":[0,0,0,0,0,0,0],"sum_hessian":[6.1019E0,2.890993E0,3.210907E0,1.6206075E0,1.2703855E0,1.188998E0,2.021909E0],"tree_param":{"num_deleted":"0","num_feature":"18","num_nodes":"7","size_leaf_vector":"1"}},{"base_weights":[2.1920057E-1,-3.30675E-2,5.4915345E-1,9.0658337E-1,-1.4064166E-2,7.7829175E-3,5.8063764E-2],"categories":[],"categories_nodes":[],"categories_segments":[],"categories_sizes":[],"default_left":[0,0,0,0,0,0,0],"id":29,"left_children":[1,-1,3,5,-1,-1,-1],"loss_changes":[2.3739774E0,0E0,1.9115065E0,6.1070776E-1,0E0,0E0,0E0],"parents":[2147483647,0,0,2,2,3,3],"right_children":[2,-1,4,6,-1,-1,-1],"split_conditions":[3.17437E-1,-3.30675E-2,9.38E0,4.9939754E1,-1.4064166E-2,7.7829175E-3,5.8063764E-2],"split_indices":[4,0,1,5,0,0,0],"split_type":[0,0,0,0,0,0,0],"sum_hessian":[5.920883E0,1.3401163E0,4.5807667E0,3.1383073E0,1.4424597E0,1.202895E0,1.9354122E0],"tree_param":{"num_deleted":"0","num_feature":"18","num_nodes":"7","size_leaf_vector":"1"}},{"base_weights":[2.3532895E-2,-4.6610603E-1,3.619137E-2,-4.0582728E-2,1.695991E-2],"categories":[],"categories_nodes":[],"categories_segments":[],"categories_sizes":[],"default_left":[0,0,0,0,0],"id":30,"left_children":[1,3,-1,-1,-1],"loss_changes":[2.5286384E0,1.4911418E0,0E0,0E0,0E0],"parents":[2147483647,0,0,1,1],"right_children":[2,4,-1,-1,-1],"split_conditions":[5.6367016E-1,5.814431E0,3.619137E-2,-4.0582728E-2,1.695991E-2],"split_indices":[4,11,0,0,0],"split_type":[0,0,0,0,0],"sum_hessian":[5.3905296E0,3.3692193E0,2.0213103E0,2.3520787E0,1.0171406E0],"tree_param":{"num_deleted":"0","num_feature":"18","num_nodes":"5","size_leaf_vector":"1"}},{"base_weights":[9.781722E-2,5.335921E-1,-3.587733E-2,-5.6018536E-3,4.6685863E-2],"categories":[],"categories_nodes":[],"categories_segments":[],"categories_sizes":[],"default_left":[0,0,0,0,0],"id":31,"left_children":[1,3,-1,-1,-1],"loss_changes":[2.7928355E0,1.3946494E0,0E0,0E0,0E0],"parents":[2147483647,0,0,1,1],"right_children":[2,4,-1,-1,-1],"split_conditions":[9.38E0,3.2741707E1,-3.587733E-2,-5.6018536E-3,4.6685863E-2],"split_indices":[1,3,0,0,0],"split_type":[0,0,0,0,0],"sum_hessian":[5.7825956E0,3.9937143E0,1.7888811E0,1.8035531E0,2.1901612E0],"tree_param":{"num_deleted":"0","num_feature":"18","num_nodes":"5","size_leaf_vector":"1"}},{"base_weights":[1.736852E-2,-4.6385947E-1,6.5899456E-1,-8.8348344E-4,-3.6522392E-2,-5.0797015E-3,5.3492423E-2],"categories":[],"categories_nodes":[],"categories_segments":[],"categories_sizes":[],"default_left":[0,0,0,0,0,0,0],"id":32,"left_children":[1,3,5,-1,-1,-1,-1],"loss_changes":[2.2942193E0,4.946478E-1,1.1002958E0,0E0,0E0,0E0,0E0],"parents":[2147483647,0,0,1,1,2,2],"right_children":[2,4,6,-1,-1,-1,-1],"split_conditions":[3.3511826E1,1E0,4.2205925E0,-8.8348344E-4,-3.6522392E-2,-5.0797015E-3,5.3492423E-2],"split_indices":[3,16,9,0,0,0,0],"split_type":[0,0,0,0,0,0,0],"sum_hessian":[5.4402256E0,3.2669938E0,2.1732318E0,1.6207013E0,1.6462923E0,1.0262053E0,1.1470267E0],"tree_param":{"num_deleted":"0","num_feature":"18","num_nodes":"7","size_leaf_vector":"1"}},{"base_weights":[2.1460149E-1,-2.389183E-1,3.9889913E-2,1.0186369E-2,-3.4170914E-2],"categories":[],"categories_nodes":[],"categories_segments":[],"categories_sizes":[],"default_left":[0,0,0,0,0],"id":33,"left_children":[1,3,-1,-1,-1],"loss_changes":[1.8249686E0,9.745853E-1,0E0,0E0,0E0],"parents":[2147483647,0,0,1,1],"right_children":[2,4,-1,-1,-1],"split_conditions":[3.359771E1,1E0,3.9889913E-2,1.0186369E-2,-3.4170914E-2],"split_indices":[3,16,0,0,0],"split_type":[0,0,0,0,0],"sum_hessian":[5.1792583E0,3.2456367E0,1.9336218E0,1.8976116E0,1.348025E0],"tree_param":{"num_deleted":"0","num_feature":"18","num_nodes":"5","size_leaf_vector":"1"}},{"base_weights":[-6.7039214E-2,-4.8152912E-1,2.9405674E-2,-4.0589582E-2,1.4893772E-2],"categories":[],"categories_nodes":[],"categories_segments":[],"categories_sizes":[],"default_left":[0,0,0,0,0],"id":34,"left_children":[1,3,-1,-1,-1],"loss_changes":[1.953913E0,1.3533442E0,0E0,0E0,0E0],"parents":[2147483647,0,0,1,1],"right_children":[2,4,-1,-1,-1],"split_conditions":[4.4140587E0,3.5559414E1,2.9405674E-2,-4.0589582E-2,1.4893772E-2],"split_indices":[9,3,0,0,0],"split_type":[0,0,0,0,0],"sum_hessian":[5.152434E0,3.3181684E0,1.8342651E0,2.3014188E0,1.0167497E0],"tree_param":{"num_deleted":"0","num_feature":"18","num_nodes":"5","size_leaf_vector":"1"}},{"base_weights":[6.799916E-2,-4.2052418E-1,5.880128E-1,-3.8390607E-2,1.4816632E-2,5.558713E-2,-1.1661984E-2],"categories":[],"categories_nodes":[],"categories_segments":[],"categories_sizes":[],"default_left":[0,0,0,0,0,0,0],"id":35,"left_children":[1,3,5,-1,-1,-1,-1],"loss_changes":[2.0002582E0,1.258452E0,1.8763026E0,0E0,0E0,0E0,0E0],"parents":[2147483647,0,0,1,1,2,2],"right_children":[2,4,6,-1,-1,-1,-1],"split_conditions":[3.359771E1,4.6316824E0,8E0,-3.8390607E-2,1.4816632E-2,5.558713E-2,-1.1661984E-2],"split_indices":[3,9,1,0,0,0,0],"split_type":[0,0,0,0,0,0,0],"sum_hessian":[5.90046E0,3.1409943E0,2.7594655E0,2.0680344E0,1.07296E0,1.468962E0,1.2905035E0],"tree_param":{"num_deleted":"0","num_feature":"18","num_nodes":"7","size_leaf_vector":"1"}},{"base_weights":[-5.227989E-2,-4.1175908E-1,3.3042476E-2,1.4395093E-2,-4.0582936E-2],"categories":[],"categories_nodes":[],"categories_segments":[],"categories_sizes":[],"default_left":[0,0,0,0,0],"id":36,"left_children":[1,3,-1,-1,-1],"loss_changes":[2.015544E0,1.6711748E0,0E0,0E0,0E0],"parents":[2147483647,0,0,1,1],"right_children":[2,4,-1,-1,-1],"split_conditions":[6.697671E1,7E0,3.3042476E-2,1.4395093E-2,-4.0582936E-2],"split_indices":[5,1,0,0,0],"split_type":[0,0,0,0,0],"sum_hessian":[5.80085E0,4.137695E0,1.6631552E0,1.6066968E0,2.530998E0],"tree_param":{"num_deleted":"0","num_feature":"18","num_nodes":"5","size_leaf_vector":"1"}},{"base_weights":[-3.981226E-2,-3.788049E-2,3.5560063E-1,-1.9485779E-1,4.137766E-2,-2.8997153E-2,1.3550589E-2],"categories":[],"categories_nodes":[],"categories_segments":[],"categories_sizes":[],"default_left":[0,0,0,0,0,0,0],"id":37,"left_children":[1,-1,3,5,-1,-1,-1],"loss_changes":[2.188235E0,0E0,1.4705397E0,7.197344E-1,0E0,0E0,0E0],"parents":[2147483647,0,0,2,2,3,3],"right_children":[2,-1,4,6,-1,-1,-1],"split_conditions":[5.35455E1,-3.788049E-2,4.4140587E0,1.8924612E0,4.137766E-2,-2.8997153E-2,1.3550589E-2],"split_indices":[5,0,9,0,0,0,0],"split_type":[0,0,0,0,0,0,0],"sum_hessian":[5.7605705E0,1.7207947E0,4.0397754E0,2.1358116E0,1.903964E0,1.0352324E0,1.1005791E0],"tree_param":{"num_deleted":"0","num_feature":"18","num_nodes":"7","size_leaf_vector":"1"}},{"base_weights":[-1.8111436E-1,-5.379368E-1,2.4697222E-2,-4.148015E-2,8.107255E-3],"categories":[],"categories_nodes":[],"categories_segments":[],"categories_sizes":[],"default_left":[0,0,0,0,0],"id":38,"left_children":[1,3,-1,-1,-1],"loss_changes":[1.8724984E0,1.1233277E0,0E0,0E0,0E0],"parents":[2147483647,0,0,1,1],"right_children":[2,4,-1,-1,-1],"split_conditions":[3.5669872E1,4.6614957E0,2.4697222E-2,-4.148015E-2,8.107255E-3],"split_indices":[3,9,0,0,0],"split_type":[0,0,0,0,0],"sum_hessian":[5.670596E0,3.8426008E0,1.8279954E0,2.5819204E0,1.2606804E0],"tree_param":{"num_deleted":"0","num_feature":"18","num_nodes":"5","size_leaf_vector":"1"}},{"base_weights":[1.513224E-1,-4.674014E-1,5.6204224E-1,-3.0679775E-2,-3.9863996E-3,-1.71738E-2,6.2148403E-2,3.0225093E-2,-3.1634416E-2],"categories":[],"categories_nodes":[],"categories_segments":[],"categories_sizes":[],"default_left":[0,0,0,0,0,0,0,0,0],"id":39,"left_children":[1,3,5,-1,-1,7,-1,-1,-1],"loss_changes":[1.9008015E0,1.2778193E-1,1.7284528E0,0E0,0E0,1.6548548E0,0E0,0E0,0E0],"parents":[2147483647,0,0,1,1,2,2,5,5],"right_children":[2,4,6,-1,-1,8,-1,-1,-1],"split_conditions":[3.227352E1,8.614937E0,6.628757E1,-3.0679775E-2,-3.9863996E-3,5.273874E0,6.2148403E-2,3.0225093E-2,-3.1634416E-2],"split_indices":[3,2,5,0,0,7,0,0,0],"split_type":[0,0,0,0,0,0,0,0,0],"sum_hessian":[5.446121E0,2.117793E0,3.328328E0,1.1146772E0,1.0031159E0,2.3252115E0,1.0031164E0,1.1657175E0,1.159494E0],"tree_param":{"num_deleted":"0","num_feature":"18","num_nodes":"9","size_leaf_vector":"1"}},{"base_weights":[1.1904568E-1,7.065414E-1,-4.1070595E-1,4.212681E-3,5.2557725E-2,-3.81543E-2,1.441927E-2],"categories":[],"categories_nodes":[],"categories_segments":[],"categories_sizes":[],"default_left":[0,0,0,0,0,0,0],"id":40,"left_children":[1,3,5,-1,-1,-1,-1],"loss_changes":[2.3010795E0,6.4725935E-1,1.2128282E0,0E0,0E0,0E0,0E0],"parents":[2147483647,0,0,1,1,2,2],"right_children":[2,4,6,-1,-1,-1,-1],"split_conditions":[7.3012566E1,7.1444696E-1,8.633159E1,4.212681E-3,5.2557725E-2,-3.81543E-2,1.441927E-2],"split_indices":[6,4,6,0,0,0,0],"split_type":[0,0,0,0,0,0,0],"sum_hessian":[5.461199E0,2.4312336E0,3.0299654E0,1.3100635E0,1.1211702E0,1.9536697E0,1.0762956E0],"tree_param":{"num_deleted":"0","num_feature":"18","num_nodes":"7","size_leaf_vector":"1"}},{"base_weights":[2.0750502E-1,6.88058E-1,-2.250039E-1,4.324212E-3,5.077487E-2,1.43598635E-2,-3.4717925E-2],"categories":[],"categories_nodes":[],"categories_segments":[],"categories_sizes":[],"default_left":[0,0,0,0,0,0,0],"id":41,"left_children":[1,3,5,-1,-1,-1,-1],"loss_changes":[1.5579422E0,5.906211E-1,1.2347469E0,0E0,0E0,0E0,0E0],"parents":[2147483647,0,0,1,1,2,2],"right_children":[2,4,6,-1,-1,-1,-1],"split_conditions":[7.3012566E1,7.1444696E-1,5.6054454E0,4.324212E-3,5.077487E-2,1.43598635E-2,-3.4717925E-2],"split_indices":[6,4,7,0,0,0,0],"split_type":[0,0,0,0,0,0,0],"sum_hessian":[5.7508807E0,2.444257E0,3.3066235E0,1.3070531E0,1.137204E0,1.766722E0,1.5399015E0],"tree_param":{"num_deleted":"0","num_feature":"18","num_nodes":"7","size_leaf_vector":"1"}},{"base_weights":[2.5374452E-3,-5.60672E-1,5.565773E-1,-4.960136E-3,-3.5535853E-2,4.12184E-3,4.0346216E-2],"categories":[],"categories_nodes":[],"categories_segments":[],"categories_sizes":[],"default_left":[0,0,0,0,0,0,0],"id":42,"left_children":[1,3,5,-1,-1,-1,-1],"loss_changes":[2.312042E0,1.8406367E-1,3.7656438E-1,0E0,0E0,0E0,0E0],"parents":[2147483647,0,0,1,1,2,2],"right_children":[2,4,6,-1,-1,-1,-1],"split_conditions":[3.359771E1,5.9564606E1,4.2205925E0,-4.960136E-3,-3.5535853E-2,4.12184E-3,4.0346216E-2],"split_indices":[3,5,9,0,0,0,0],"split_type":[0,0,0,0,0,0,0],"sum_hessian":[5.4093747E0,2.676553E0,2.7328217E0,1.064327E0,1.6122261E0,1.4036646E0,1.3291571E0],"tree_param":{"num_deleted":"0","num_feature":"18","num_nodes":"7","size_leaf_vector":"1"}},{"base_weights":[-1.3311763E-1,-6.338777E-1,3.728346E-2,-3.8524143E-2,-5.7370462E-3],"categories":[],"categories_nodes":[],"categories_segments":[],"categories_sizes":[],"default_left":[0,0,0,0,0],"id":43,"left_children":[1,3,-1,-1,-1],"loss_changes":[2.9350858E0,2.0270741E-1,0E0,0E0,0E0],"parents":[2147483647,0,0,1,1],"right_children":[2,4,-1,-1,-1],"split_conditions":[6.697671E1,4.6433535E0,3.728346E-2,-3.8524143E-2,-5.7370462E-3],"split_indices":[5,9,0,0,0],"split_type":[0,0,0,0,0],"sum_hessian":[4.595635E0,3.1049995E0,1.4906353E0,2.074861E0,1.0301386E0],"tree_param":{"num_deleted":"0","num_feature":"18","num_nodes":"5","size_leaf_vector":"1"}},{"base_weights":[1.7699283E-2,3.1032726E-2,-5.357764E-1,-6.3402415E-3,-3.301934E-2],"categories":[],"categories_nodes":[],"categories_segments":[],"categories_sizes":[],"default_left":[0,0,0,0,0],"id":44,"left_children":[1,-1,3,-1,-1],"loss_changes":[2.1461864E0,0E0,8.801657E-2,0E0,0E0],"parents":[2147483647,0,0,2,2],"right_children":[2,-1,4,-1,-1],"split_conditions":[7.3012566E1,3.1032726E-2,1.5046034E1,-6.3402415E-3,-3.301934E-2],"split_indices":[6,0,8,0,0],"split_type":[0,0,0,0,0],"sum_hessian":[4.434642E0,2.0643582E0,2.3702838E0,1.0247297E0,1.3455541E0],"tree_param":{"num_deleted":"0","num_feature":"18","num_nodes":"5","size_leaf_vector":"1"}},{"base_weights":[-1.04979165E-1,3.0497486E-2,-3.9705357E-1,1.1893412E-2,-4.119678E-2],"categories":[],"categories_nodes":[],"categories_segments":[],"categories_sizes":[],"default_left":[0,0,0,0,0],"id":45,"left_children":[1,-1,3,-1,-1],"loss_changes":[1.5438002E0,0E0,1.5596207E0,0E0,0E0],"parents":[2147483647,0,0,2,2],"right_children":[2,-1,4,-1,-1],"split_conditions":[6.713387E1,3.0497486E-2,1.1556184E0,1.1893412E-2,-4.119678E-2],"split_indices":[6,0,0,0,0],"split_type":[0,0,0,0,0],"sum_hessian":[5.2334294E0,1.2022557E0,4.0311737E0,1.7986838E0,2.2324898E0],"tree_param":{"num_deleted":"0","num_feature":"18","num_nodes":"5","size_leaf_vector":"1"}},{"base_weights":[2.122792E-1,-2.7992073E-2,4.4812563E-1,8.6834955E-1,-3.9741363E-2,5.40131E-2,1.1053997E-2,2.7578667E-2,-3.148764E-2],"categories":[],"categories_nodes":[],"categories_segments":[],"categories_sizes":[],"default_left":[0,0,0,0,0,0,0,0,0],"id":46,"left_children":[1,-1,3,5,7,-1,-1,-1,-1],"loss_changes":[1.4650235E0,0E0,1.1954497E0,1.8447185E-1,1.5952048E0,0E0,0E0,0E0,0E0],"parents":[2147483647,0,0,2,2,3,3,4,4],"right_children":[2,-1,4,6,8,-1,-1,-1,-1],"split_conditions":[3.17437E-1,-2.7992073E-2,8E0,7.8331485E0,1.4860114E0,5.40131E-2,1.1053997E-2,2.7578667E-2,-3.148764E-2],"split_indices":[4,0,1,2,0,0,0,0,0],"split_type":[0,0,0,0,0,0,0,0,0],"sum_hessian":[5.667389E0,1.0046344E0,4.6627545E0,2.0860481E0,2.5767062E0,1.0675775E0,1.0184708E0,1.3194697E0,1.2572364E0],"tree_param":{"num_deleted":"0","num_feature":"18","num_nodes":"9","size_leaf_vector":"1"}},{"base_weights":[-1.5114649E-1,4.5433292E-1,-6.166007E-1,-1.0257601E-2,4.448226E-2,-5.7721767E-3,-3.7341487E-2],"categories":[],"categories_nodes":[],"categories_segments":[],"categories_sizes":[],"default_left":[0,0,0,0,0,0,0],"id":47,"left_children":[1,3,5,-1,-1,-1,-1],"loss_changes":[2.048909E0,1.1308978E0,1.7305756E-1,0E0,0E0,0E0,0E0],"parents":[2147483647,0,0,1,1,2,2],"right_children":[2,4,6,-1,-1,-1,-1],"split_conditions":[8E0,3.4581352E1,1.15613106E2,-1.0257601E-2,4.448226E-2,-5.7721767E-3,-3.7341487E-2],"split_indices":[1,3,12,0,0,0,0],"split_type":[0,0,0,0,0,0,0],"sum_hessian":[5.276164E0,2.303536E0,2.9726284E0,1.1261609E0,1.1773751E0,1.0022315E0,1.9703969E0],"tree_param":{"num_deleted":"0","num_feature":"18","num_nodes":"7","size_leaf_vector":"1"}},{"base_weights":[-2.0190023E-1,3.8665342E-1,-3.8796127E-2,-1.1487558E-2,3.9111633E-2],"categories":[],"categories_nodes":[],"categories_segments":[],"categories_sizes":[],"default_left":[0,0,0,0,0],"id":48,"left_children":[1,3,-1,-1,-1],"loss_changes":[2.2534418E0,1.0385883E0,0E0,0E0,0E0],"parents":[2147483647,0,0,1,1],"right_children":[2,4,-1,-1,-1],"split_conditions":[7.3012566E1,3.1308187E1,-3.8796127E-2,-1.1487558E-2,3.9111633E-2],"split_indices":[6,3,0,0,0],"split_type":[0,0,0,0,0],"sum_hessian":[4.7820616E0,2.5223117E0,2.25975E0,1.1498231E0,1.3724887E0],"tree_param":{"num_deleted":"0","num_feature":"18","num_nodes":"5","size_leaf_vector":"1"}},{"base_weights":[2.5788376E-1,-2.8482169E-2,5.263405E-1,8.6726296E-1,-1.3568595E-2,7.610669E-3,5.4261178E-2],"categories":[],"categories_nodes":[],"categories_segments":[],"categories_sizes":[],"default_left":[0,0,0,0,0,0,0],"id":49,"left_children":[1,-1,3,5,-1,-1,-1],"loss_changes":[1.7286402E0,0E0,1.6973867E0,4.5895123E-1,0E0,0E0,0E0],"parents":[2147483647,0,0,2,2,3,3],"right_children":[2,-1,4,6,-1,-1,-1],"split_conditions":[3.17437E-1,-2.8482169E-2,9.38E0,5.3124527E1,-1.3568595E-2,7.610669E-3,5.4261178E-2],"split_indices":[4,0,1,5,0,0,0],"split_type":[0,0,0,0,0,0,0],"sum_hessian":[5.4316006E0,1.0556388E0,4.375962E0,3.004658E0,1.3713038E0,1.0986708E0,1.9059873E0],"tree_param":{"num_deleted":"0","num_feature":"18","num_nodes":"7","size_leaf_vector":"1"}},{"base_weights":[3.1665918E-1,-2.3853637E-1,6.9256854E-1,-3.0416062E-2,1.2170968E-2,5.394245E-2,2.0652283E-3],"categories":[],"categories_nodes":[],"categories_segments":[],"categories_sizes":[],"default_left":[0,0,0,0,0,0,0],"id":50,"left_children":[1,3,5,-1,-1,-1,-1],"loss_changes":[1.4420474E0,7.2083914E-1,9.376197E-1,0E0,0E0,0E0,0E0],"parents":[2147483647,0,0,1,1,2,2],"right_children":[2,4,6,-1,-1,-1,-1],"split_conditions":[4.32431E0,1.8768503E1,9E0,-3.0416062E-2,1.2170968E-2,5.394245E-2,2.0652283E-3],"split_indices":[9,8,1,0,0,0,0],"split_type":[0,0,0,0,0,0,0],"sum_hessian":[5.1179924E0,2.2137938E0,2.9041984E0,1.1043092E0,1.1094844E0,1.4108456E0,1.4933529E0],"tree_param":{"num_deleted":"0","num_feature":"18","num_nodes":"7","size_leaf_vector":"1"}},{"base_weights":[2.737602E-1,6.4594305E-1,-1.836102E-2,4.5959423E-3,5.3840674E-2],"categories":[],"categories_nodes":[],"categories_segments":[],"categories_sizes":[],"default_left":[0,0,0,0,0],"id":51,"left_children":[1,3,-1,-1,-1],"loss_changes":[1.5807471E0,8.3807504E-1,0E0,0E0,0E0],"parents":[2147483647,0,0,1,1],"right_children":[2,4,-1,-1,-1],"split_conditions":[9E0,1.7069461E2,-1.836102E-2,4.5959423E-3,5.3840674E-2],"split_indices":[1,12,0,0,0],"split_type":[0,0,0,0,0],"sum_hessian":[4.631843E0,2.9254503E0,1.706393E0,1.8106295E0,1.1148208E0],"tree_param":{"num_deleted":"0","num_feature":"18","num_nodes":"5","size_leaf_vector":"1"}},{"base_weights":[1.046783E-1,-2.9527172E-2,3.681703E-1,-8.971755E-3,7.58561E-1,1.10741975E-2,4.7177818E-2],"categories":[],"categories_nodes":[],"categories_segments":[],"categories_sizes":[],"default_left":[0,0,0,0,0,0,0],"id":52,"left_children":[1,-1,3,-1,5,-1,-1],"loss_changes":[1.3930684E0,0E0,1.2627153E0,0E0,1.1570442E-1,0E0,0E0],"parents":[2147483647,0,0,2,2,4,4],"right_children":[2,-1,4,-1,6,-1,-1],"split_conditions":[9.963338E-1,-2.9527172E-2,3.1955662E1,-8.971755E-3,4.2205925E0,1.10741975E-2,4.7177818E-2],"split_indices":[0,0,3,0,9,0,0],"split_type":[0,0,0,0,0,0,0],"sum_hessian":[5.417804E0,1.1478884E0,4.269915E0,2.0020242E0,2.2678912E0,1.143969E0,1.1239221E0],"tree_param":{"num_deleted":"0","num_feature":"18","num_nodes":"7","size_leaf_vector":"1"}},{"base_weights":[1.7155121E-1,-2.5909024E-1,3.8344495E-2,-3.6611956E-2,2.1649523E-2],"categories":[],"categories_nodes":[],"categories_segments":[],"categories_sizes":[],"default_left":[0,0,0,0,0],"id":53,"left_children":[1,3,-1,-1,-1],"loss_changes":[1.7389513E0,1.7033621E0,0E0,0E0,0E0],"parents":[2147483647,0,0,1,1],"right_children":[2,4,-1,-1,-1],"split_conditions":[5.6367016E-1,4.4140587E0,3.8344495E-2,-3.6611956E-2,2.1649523E-2],"split_indices":[4,9,0,0,0],"split_type":[0,0,0,0,0],"sum_hessian":[5.0077724E0,3.2335606E0,1.7742119E0,1.886089E0,1.3474717E0],"tree_param":{"num_deleted":"0","num_feature":"18","num_nodes":"5","size_leaf_vector":"1"}},{"base_weights":[2.1603344E-1,-2.8331479E-2,4.6944767E-1,-6.671473E-3,7.531189E-1,3.7773799E-3,5.5509914E-2],"categories":[],"categories_nodes":[],"categories_segments":[],"categories_sizes":[],"default_left":[0,0,0,0,0,0,0],"id":54,"left_children":[1,-1,3,-1,5,-1,-1],"loss_changes":[1.5363984E0,0E0,1.0215031E0,0E0,8.3861256E-1,0E0,0E0],"parents":[2147483647,0,0,2,2,4,4],"right_children":[2,-1,4,-1,6,-1,-1],"split_conditions":[3.149115E-1,-2.8331479E-2,5.3124527E1,-6.671473E-3,4.4140587E0,3.7773799E-3,5.5509914E-2],"split_indices":[4,0,5,0,9,0,0],"split_type":[0,0,0,0,0,0,0],"sum_hessian":[5.4052076E0,1.0197513E0,4.3854566E0,1.5726942E0,2.8127623E0,1.3888808E0,1.4238813E0],"tree_param":{"num_deleted":"0","num_feature":"18","num_nodes":"7","size_leaf_vector":"1"}},{"base_weights":[6.716718E-2,3.7427E-1,-2.1478364E-2,-9.06657E-3,6.076998E-1,6.081548E-3,4.182166E-2],"categories":[],"categories_nodes":[],"categories_segments":[],"categories_sizes":[],"default_left":[0,0,0,0,0,0,0],"id":55,"left_children":[1,3,-1,-1,5,-1,-1],"loss_changes":[1.1371945E0,6.924877E-1,0E0,0E0,2.7530885E-1,0E0,0E0],"parents":[2147483647,0,0,1,1,4,4],"right_children":[2,4,-1,-1,6,-1,-1],"split_conditions":[9E0,2.9556057E1,-2.1478364E-2,-9.06657E-3,4.1774273E0,6.081548E-3,4.182166E-2],"split_indices":[1,3,0,0,9,0,0],"split_type":[0,0,0,0,0,0,0],"sum_hessian":[5.400718E0,3.4897454E0,1.9109732E0,1.098447E0,2.3912983E0,1.2553599E0,1.1359384E0],"tree_param":{"num_deleted":"0","num_feature":"18","num_nodes":"7","size_leaf_vector":"1"}},{"base_weights":[-2.2160925E-2,2.8574273E-2,-2.7065286E-1,1.6357946E-1,-3.634833E-2,-1.7869273E-2,3.2263663E-2],"categories":[],"categories_nodes":[],"categories_segments":[],"categories_sizes":[],"default_left":[0,0,0,0,0,0,0],"id":56,"left_children":[1,-1,3,5,-1,-1,-1],"loss_changes":[1.090534E0,0E0,1.1395183E0,1.0977657E0,0E0,0E0,0E0],"parents":[2147483647,0,0,2,2,3,3],"right_children":[2,-1,4,6,-1,-1,-1],"split_conditions":[6.713387E1,2.8574273E-2,5.6054454E0,5.1020665E0,-3.634833E-2,-1.7869273E-2,3.2263663E-2],"split_indices":[6,0,7,7,0,0,0],"split_type":[0,0,0,0,0,0,0],"sum_hessian":[5.3441105E0,1.1933608E0,4.1507497E0,2.4555478E0,1.6952018E0,1.3036644E0,1.1518835E0],"tree_param":{"num_deleted":"0","num_feature":"18","num_nodes":"7","size_leaf_vector":"1"}},{"base_weights":[2.9664472E-1,-9.036761E-3,6.2396824E-1,4.509146E-2,4.702554E-3],"categories":[],"categories_nodes":[],"categories_segments":[],"categories_sizes":[],"default_left":[0,0,0,0,0],"id":57,"left_children":[1,-1,3,-1,-1],"loss_changes":[9.7066087E-1,0E0,4.2782342E-1,0E0,0E0],"parents":[2147483647,0,0,2,2],"right_children":[2,-1,4,-1,-1],"split_conditions":[4.32431E0,-9.036761E-3,4.4168396E0,4.509146E-2,4.702554E-3],"split_indices":[9,0,11,0,0],"split_type":[0,0,0,0,0],"sum_hessian":[4.4902115E0,2.0086162E0,2.4815955E0,1.1675584E0,1.3140371E0],"tree_param":{"num_deleted":"0","num_feature":"18","num_nodes":"5","size_leaf_vector":"1"}},{"base_weights":[1.0028199E-1,4.7575E-1,-4.4973582E-1,-7.452383E-3,7.3075265E-1,-6.0540102E-3,-2.770703E-2,1.1355771E-2,4.3699276E-2],"categories":[],"categories_nodes":[],"categories_segments":[],"categories_sizes":[],"default_left":[0,0,0,0,0,0,0,0,0],"id":58,"left_children":[1,3,5,-1,7,-1,-1,-1,-1],"loss_changes":[1.494688E0,7.7355605E-1,3.6875248E-2,0E0,2.7431488E-2,0E0,0E0,0E0,0E0],"parents":[2147483647,0,0,1,1,2,2,4,4],"right_children":[2,4,6,-1,8,-1,-1,-1,-1],"split_conditions":[9E0,2.9556057E1,1.1323099E0,-7.452383E-3,3.4891045E1,-6.0540102E-3,-2.770703E-2,1.1355771E-2,4.3699276E-2],"split_indices":[1,3,0,0,3,0,0,0,0],"split_type":[0,0,0,0,0,0,0,0,0],"sum_hessian":[5.2016406E0,3.1715915E0,2.0300493E0,1.0396895E0,2.131902E0,1.0100939E0,1.0199554E0,1.0445786E0,1.0873234E0],"tree_param":{"num_deleted":"0","num_feature":"18","num_nodes":"9","size_leaf_vector":"1"}},{"base_weights":[1.5083012E-1,-2.8781889E-2,4.2647538E-1,3.5961535E-2,-4.610412E-3],"categories":[],"categories_nodes":[],"categories_segments":[],"categories_sizes":[],"default_left":[0,0,0,0,0],"id":59,"left_children":[1,-1,3,-1,-1],"loss_changes":[1.4577467E0,0E0,8.199402E-1,0E0,0E0],"parents":[2147483647,0,0,2,2],"right_children":[2,-1,4,-1,-1],"split_conditions":[3.3035177E-1,-2.8781889E-2,5.6054454E0,3.5961535E-2,-4.610412E-3],"split_indices":[4,0,7,0,0],"split_type":[0,0,0,0,0],"sum_hessian":[5.053767E0,1.0907497E0,3.9630177E0,2.286069E0,1.6769488E0],"tree_param":{"num_deleted":"0","num_feature":"18","num_nodes":"5","size_leaf_vector":"1"}},{"base_weights":[8.708719E-2,-2.7326062E-1,3.3232693E-2,-3.76026E-2,2.2462297E-2],"categories":[],"categories_nodes":[],"categories_segments":[],"categories_sizes":[],"default_left":[0,0,0,0,0],"id":60,"left_children":[1,3,-1,-1,-1],"loss_changes":[1.3639954E0,1.7931992E0,0E0,0E0,0E0],"parents":[2147483647,0,0,1,1],"right_children":[2,4,-1,-1,-1],"split_conditions":[6.697671E1,1.8467035E2,3.3232693E-2,-3.76026E-2,2.2462297E-2],"split_indices":[5,12,0,0,0],"split_type":[0,0,0,0,0],"sum_hessian":[4.681069E0,3.2070465E0,1.4740223E0,1.9042461E0,1.3028005E0],"tree_param":{"num_deleted":"0","num_feature":"18","num_nodes":"5","size_leaf_vector":"1"}},{"base_weights":[9.679212E-3,-3.1774107E-2,3.4763005E-1,3.7452348E-2,-5.8310977E-3],"categories":[],"categories_nodes":[],"categories_segments":[],"categories_sizes":[],"default_left":[0,0,0,0,0],"id":61,"left_children":[1,-1,3,-1,-1],"loss_changes":[1.3899418E0,0E0,8.635367E-1,0E0,0E0],"parents":[2147483647,0,0,2,2],"right_children":[2,-1,4,-1,-1],"split_conditions":[5.35455E1,-3.1774107E-2,1.5161179E1,3.7452348E-2,-5.8310977E-3],"split_indices":[5,0,8,0,0],"split_type":[0,0,0,0,0],"sum_hessian":[4.361712E0,1.196723E0,3.1649888E0,1.3683726E0,1.7966162E0],"tree_param":{"num_deleted":"0","num_feature":"18","num_nodes":"5","size_leaf_vector":"1"}},{"base_weights":[-2.5335115E-1,-6.2885714E-1,1.724389E-2,-3.6667526E-2,-8.862881E-3],"categories":[],"categories_nodes":[],"categories_segments":[],"categories_sizes":[],"default_left":[0,0,0,0,0],"id":62,"left_children":[1,3,-1,-1,-1],"loss_changes":[1.5064497E0,5.3150892E-2,0E0,0E0,0E0],"parents":[2147483647,0,0,1,1],"right_children":[2,4,-1,-1,-1],"split_conditions":[5.6367016E-1,7.9403336E1,1.724389E-2,-3.6667526E-2,-8.862881E-3],"split_indices":[4,6,0,0,0],"split_type":[0,0,0,0,0],"sum_hessian":[4.740648E0,2.8810356E0,1.8596125E0,1.8330088E0,1.0480267E0],"tree_param":{"num_deleted":"0","num_feature":"18","num_nodes":"5","size_leaf_vector":"1"}},{"base_weights":[-1.4245582E-1,2.3019938E-2,-4.5202985E-1,-2.796551E-3,-3.3420842E-2],"categories":[],"categories_nodes":[],"categories_segments":[],"categories_sizes":[],"default_left":[0,0,0,0,0],"id":63,"left_children":[1,-1,3,-1,-1],"loss_changes":[1.1772603E0,0E0,2.999398E-1,0E0,0E0],"parents":[2147483647,0,0,2,2],"right_children":[2,-1,4,-1,-1],"split_conditions":[1.289416E2,2.3019938E-2,5.5025383E1,-2.796551E-3,-3.3420842E-2],"split_indices":[12,0,5,0,0],"split_type":[0,0,0,0,0],"sum_hessian":[4.192927E0,1.2573001E0,2.935627E0,1.4817476E0,1.4538794E0],"tree_param":{"num_deleted":"0","num_feature":"18","num_nodes":"5","size_leaf_vector":"1"}},{"base_weights":[-1.2194655E-1,4.0359065E-1,-3.006777E-2,9.0861967E-4,3.1344194E-2],"categories":[],"categories_nodes":[],"categories_segments":[],"categories_sizes":[],"default_left":[0,0,0,0,0],"id":64,"left_children":[1,3,-1,-1,-1],"loss_changes":[1.6872874E0,2.7550584E-1,0E0,0E0,0E0],"parents":[2147483647,0,0,1,1],"right_children":[2,4,-1,-1,-1],"split_conditions":[5.8056023E1,5.3989615E0,-3.006777E-2,9.0861967E-4,3.1344194E-2],"split_indices":[5,11,0,0,0],"split_type":[0,0,0,0,0],"sum_hessian":[4.7336864E0,2.3336468E0,2.4000397E0,1.2527331E0,1.0809137E0],"tree_param":{"num_deleted":"0","num_feature":"18","num_nodes":"5","size_leaf_vector":"1"}},{"base_weights":[-8.2989745E-2,-3.171192E-2,2.4521342E-1,3.2418218E-2,-1.0381064E-2],"categories":[],"categories_nodes":[],"categories_segments":[],"categories_sizes":[],"default_left":[0,0,0,0,0],"id":65,"left_children":[1,-1,3,-1,-1],"loss_changes":[1.1693677E0,0E0,9.075171E-1,0E0,0E0],"parents":[2147483647,0,0,2,2],"right_children":[2,-1,4,-1,-1],"split_conditions":[4.322653E0,-3.171192E-2,1.5161179E1,3.2418218E-2,-1.0381064E-2],"split_indices":[9,0,8,0,0],"split_type":[0,0,0,0,0],"sum_hessian":[4.603776E0,1.3701019E0,3.2336743E0,1.4822565E0,1.7514178E0],"tree_param":{"num_deleted":"0","num_feature":"18","num_nodes":"5","size_leaf_vector":"1"}},{"base_weights":[3.7340287E-2,3.3839226E-1,-2.9936476E-2,-4.2967396E-3,3.1050695E-2],"categories":[],"categories_nodes":[],"categories_segments":[],"categories_sizes":[],"default_left":[0,0,0,0,0],"id":66,"left_children":[1,3,-1,-1,-1],"loss_changes":[1.3148695E0,6.0278547E-1,0E0,0E0,0E0],"parents":[2147483647,0,0,1,1],"right_children":[2,4,-1,-1,-1],"split_conditions":[9.38E0,3.3202908E1,-2.9936476E-2,-4.2967396E-3,3.1050695E-2],"split_indices":[1,3,0,0,0],"split_type":[0,0,0,0,0],"sum_hessian":[4.8084683E0,3.5813904E0,1.227078E0,1.709976E0,1.8714145E0],"tree_param":{"num_deleted":"0","num_feature":"18","num_nodes":"5","size_leaf_vector":"1"}},{"base_weights":[3.2904867E-2,4.634762E-1,-3.7788755E-1,4.0737696E-2,-2.5191994E-3,-3.5259914E-2,1.2065215E-2],"categories":[],"categories_nodes":[],"categories_segments":[],"categories_sizes":[],"default_left":[0,0,0,0,0,0,0],"id":67,"left_children":[1,3,5,-1,-1,-1,-1],"loss_changes":[1.2988878E0,6.820546E-1,9.407522E-1,0E0,0E0,0E0,0E0],"parents":[2147483647,0,0,1,1,2,2],"right_children":[2,4,6,-1,-1,-1,-1],"split_conditions":[8E0,7.8331485E0,6.66817E1,4.0737696E-2,-2.5191994E-3,-3.5259914E-2,1.2065215E-2],"split_indices":[1,2,5,0,0,0,0],"split_type":[0,0,0,0,0,0,0],"sum_hessian":[5.353318E0,2.5511186E0,2.8021996E0,1.1674725E0,1.3836461E0,1.7423013E0,1.0598984E0],"tree_param":{"num_deleted":"0","num_feature":"18","num_nodes":"7","size_leaf_vector":"1"}},{"base_weights":[1.7977962E-2,3.9581314E-1,-2.4092587E-2,-4.6181055E-3,4.037174E-2],"categories":[],"categories_nodes":[],"categories_segments":[],"categories_sizes":[],"default_left":[0,0,0,0,0],"id":68,"left_children":[1,3,-1,-1,-1],"loss_changes":[1.2838893E0,8.473109E-1,0E0,0E0,0E0],"parents":[2147483647,0,0,1,1],"right_children":[2,4,-1,-1,-1],"split_conditions":[7.6116196E1,7.182184E1,-2.4092587E-2,-4.6181055E-3,4.037174E-2],"split_indices":[6,6,0,0,0],"split_type":[0,0,0,0,0],"sum_hessian":[4.788443E0,2.845531E0,1.942912E0,1.6565312E0,1.1889997E0],"tree_param":{"num_deleted":"0","num_feature":"18","num_nodes":"5","size_leaf_vector":"1"}},{"base_weights":[1.19938575E-1,-1.6512662E-1,2.8983954E-2,2.6527677E-2,-3.6299687E-2],"categories":[],"categories_nodes":[],"categories_segments":[],"categories_sizes":[],"default_left":[0,0,0,0,0],"id":69,"left_children":[1,3,-1,-1,-1],"loss_changes":[9.0475714E-1,2.1756504E0,0E0,0E0,0E0],"parents":[2147483647,0,0,1,1],"right_children":[2,4,-1,-1,-1],"split_conditions":[4.6614957E0,7E0,2.8983954E-2,2.6527677E-2,-3.6299687E-2],"split_indices":[9,1,0,0,0],"split_type":[0,0,0,0,0],"sum_hessian":[5.173213E0,3.5887876E0,1.5844256E0,1.6260003E0,1.9627872E0],"tree_param":{"num_deleted":"0","num_feature":"18","num_nodes":"5","size_leaf_vector":"1"}},{"base_weights":[1.3113093E-1,4.0871602E-1,-1.8638257E-2,6.5745986E-1,-8.689518E-3,6.133668E-3,4.5046728E-2],"categories":[],"categories_nodes":[],"categories_segments":[],"categories_sizes":[],"default_left":[0,0,0,0,0,0,0],"id":70,"left_children":[1,3,-1,5,-1,-1,-1],"loss_changes":[9.8458135E-1,7.392532E-1,0E0,3.1027508E-1,0E0,0E0,0E0],"parents":[2147483647,0,0,1,1,3,3],"right_children":[2,4,-1,6,-1,-1,-1],"split_conditions":[7.6116196E1,9E0,-1.8638257E-2,7.182184E1,-8.689518E-3,6.133668E-3,4.5046728E-2],"split_indices":[6,1,0,6,0,0,0],"split_type":[0,0,0,0,0,0,0],"sum_hessian":[4.949827E0,3.313424E0,1.6364032E0,2.2317436E0,1.0816807E0,1.1686581E0,1.0630854E0],"tree_param":{"num_deleted":"0","num_feature":"18","num_nodes":"7","size_leaf_vector":"1"}},{"base_weights":[9.541343E-2,3.5824653E-2,-1.6305117E-1,3.1140488E-1,-3.6218446E-2,-1.2503231E-2,3.7520424E-2],"categories":[],"categories_nodes":[],"categories_segments":[],"categories_sizes":[],"default_left":[0,0,0,0,0,0,0],"id":71,"left_children":[1,-1,3,5,-1,-1,-1],"loss_changes":[1.1083227E0,0E0,1.6040713E0,1.0514482E0,0E0,0E0,0E0],"parents":[2147483647,0,0,2,2,3,3],"right_children":[2,-1,4,6,-1,-1,-1],"split_conditions":[6.719564E1,3.5824653E-2,5.6054454E0,3.359771E1,-3.6218446E-2,-1.2503231E-2,3.7520424E-2],"split_indices":[6,0,7,3,0,0,0],"split_type":[0,0,0,0,0,0,0],"sum_hessian":[5.1765137E0,1.000424E0,4.1760893E0,2.504433E0,1.6716566E0,1.2877847E0,1.2166482E0],"tree_param":{"num_deleted":"0","num_feature":"18","num_nodes":"7","size_leaf_vector":"1"}},{"base_weights":[9.6402265E-2,4.6790627E-1,-2.3488875E-1,4.1784093E-2,-8.358469E-3,-3.399185E-2,1.1387907E-2],"categories":[],"categories_nodes":[],"categories_segments":[],"categories_sizes":[],"default_left":[0,0,0,0,0,0,0],"id":72,"left_children":[1,3,5,-1,-1,-1,-1],"loss_changes":[8.655879E-1,8.937761E-1,9.600199E-1,0E0,0E0,0E0,0E0],"parents":[2147483647,0,0,1,1,2,2],"right_children":[2,4,6,-1,-1,-1,-1],"split_conditions":[4.4168396E0,7.547151E-1,1.300883E0,4.1784093E-2,-8.358469E-3,-3.399185E-2,1.1387907E-2],"split_indices":[11,10,10,0,0,0,0],"split_type":[0,0,0,0,0,0,0],"sum_hessian":[5.1399655E0,2.2285433E0,2.9114223E0,1.2112339E0,1.0173094E0,1.2447954E0,1.6666268E0],"tree_param":{"num_deleted":"0","num_feature":"18","num_nodes":"7","size_leaf_vector":"1"}},{"base_weights":[3.2943058E-1,-1.5027727E-2,6.548302E-1,4.577456E-2,4.698595E-3],"categories":[],"categories_nodes":[],"categories_segments":[],"categories_sizes":[],"default_left":[0,0,0,0,0],"id":73,"left_children":[1,-1,3,-1,-1],"loss_changes":[1.2421167E0,0E0,4.5152092E-1,0E0,0E0],"parents":[2147483647,0,0,2,2],"right_children":[2,-1,4,-1,-1],"split_conditions":[4.32431E0,-1.5027727E-2,9E0,4.577456E-2,4.698595E-3],"split_indices":[9,0,1,0,0],"split_type":[0,0,0,0,0],"sum_hessian":[4.0991225E0,1.4221476E0,2.676975E0,1.3959148E0,1.2810602E0],"tree_param":{"num_deleted":"0","num_feature":"18","num_nodes":"5","size_leaf_vector":"1"}},{"base_weights":[-3.0811796E-2,3.3277895E-2,-3.2134157E-1,1.7347613E-2,-3.314747E-2],"categories":[],"categories_nodes":[],"categories_segments":[],"categories_sizes":[],"default_left":[0,0,0,0,0],"id":74,"left_children":[1,-1,3,-1,-1],"loss_changes":[1.3859054E0,0E0,1.3171659E0,0E0,0E0],"parents":[2147483647,0,0,2,2],"right_children":[2,-1,4,-1,-1],"split_conditions":[6.713387E1,3.3277895E-2,1.293074E1,1.7347613E-2,-3.314747E-2],"split_indices":[6,0,8,0,0],"split_type":[0,0,0,0,0],"sum_hessian":[4.793082E0,1.0310118E0,3.7620707E0,1.2672602E0,2.4948103E0],"tree_param":{"num_deleted":"0","num_feature":"18","num_nodes":"5","size_leaf_vector":"1"}},{"base_weights":[-2.3491351E-2,-4.4317743E-1,3.1717848E-2,6.900476E-3,-3.68375E-2],"categories":[],"categories_nodes":[],"categories_segments":[],"categories_sizes":[],"default_left":[0,0,0,0,0],"id":75,"left_children":[1,3,-1,-1,-1],"loss_changes":[1.7060807E0,7.397437E-1,0E0,0E0,0E0],"parents":[2147483647,0,0,1,1],"right_children":[2,4,-1,-1,-1],"split_conditions":[6.697671E1,1.1556184E0,3.1717848E-2,6.900476E-3,-3.68375E-2],"split_indices":[5,0,0,0,0],"split_type":[0,0,0,0,0],"sum_hessian":[4.161176E0,2.7396746E0,1.4215015E0,1.0972801E0,1.6423944E0],"tree_param":{"num_deleted":"0","num_feature":"18","num_nodes":"5","size_leaf_vector":"1"}},{"base_weights":[1.19776666E-1,-1.7885469E-2,4.1228855E-1,-7.136814E-3,4.619791E-2],"categories":[],"categories_nodes":[],"categories_segments":[],"categories_sizes":[],"default_left":[0,0,0,0,0],"id":76,"left_children":[1,-1,3,-1,-1],"loss_changes":[8.817503E-1,0E0,1.1896294E0,0E0,0E0],"parents":[2147483647,0,0,2,2],"right_children":[2,-1,4,-1,-1],"split_conditions":[3.1955662E1,-1.7885469E-2,6.628757E1,-7.136814E-3,4.619791E-2],"split_indices":[3,0,5,0,0],"split_type":[0,0,0,0,0],"sum_hessian":[4.257171E0,1.5325699E0,2.7246013E0,1.6527967E0,1.0718045E0],"tree_param":{"num_deleted":"0","num_feature":"18","num_nodes":"5","size_leaf_vector":"1"}},{"base_weights":[2.3922819E-1,5.613672E-1,-2.4846154E-1,1.8697841E-3,4.1547958E-2,1.0480741E-2,-2.8697852E-2],"categories":[],"categories_nodes":[],"categories_segments":[],"categories_sizes":[],"default_left":[0,0,0,0,0,0,0],"id":77,"left_children":[1,3,5,-1,-1,-1,-1],"loss_changes":[1.071583E0,5.169759E-1,5.7555926E-1,0E0,0E0,0E0,0E0],"parents":[2147483647,0,0,1,1,2,2],"right_children":[2,4,6,-1,-1,-1,-1],"split_conditions":[7.6116196E1,4.32431E0,1.1656976E0,1.8697841E-3,4.1547958E-2,1.0480741E-2,-2.8697852E-2],"split_indices":[6,9,0,0,0,0,0],"split_type":[0,0,0,0,0,0,0],"sum_hessian":[4.9330473E0,2.8797681E0,2.0532792E0,1.3651711E0,1.514597E0,1.0008193E0,1.05246E0],"tree_param":{"num_deleted":"0","num_feature":"18","num_nodes":"7","size_leaf_vector":"1"}},{"base_weights":[2.0172691E-1,5.631536E-1,-2.9677972E-2,2.2169205E-3,4.0464398E-2],"categories":[],"categories_nodes":[],"categories_segments":[],"categories_sizes":[],"default_left":[0,0,0,0,0],"id":78,"left_children":[1,3,-1,-1,-1],"loss_changes":[1.9095894E0,5.108266E-1,0E0,0E0,0E0],"parents":[2147483647,0,0,1,1],"right_children":[2,4,-1,-1,-1],"split_conditions":[9.38E0,3.3202908E1,-2.9677972E-2,2.2169205E-3,4.0464398E-2],"split_indices":[1,3,0,0,0],"split_type":[0,0,0,0,0],"sum_hessian":[4.4805756E0,3.2812576E0,1.1993182E0,1.4355232E0,1.8457345E0],"tree_param":{"num_deleted":"0","num_feature":"18","num_nodes":"5","size_leaf_vector":"1"}},{"base_weights":[-2.0999674E-2,-3.6013132E-1,2.8697414E-2,-3.5761196E-2,7.865789E-3],"categories":[],"categories_nodes":[],"categories_segments":[],"categories_sizes":[],"default_left":[0,0,0,0,0],"id":79,"left_children":[1,3,-1,-1,-1],"loss_changes":[1.3283224E0,8.760004E-1,0E0,0E0,0E0],"parents":[2147483647,0,0,1,1],"right_children":[2,4,-1,-1,-1],"split_conditions":[7.1444696E-1,3.359771E1,2.8697414E-2,-3.5761196E-2,7.865789E-3],"split_indices":[4,3,0,0,0],"split_type":[0,0,0,0,0],"sum_hessian":[4.55905E0,3.1552067E0,1.4038434E0,1.644482E0,1.5107247E0],"tree_param":{"num_deleted":"0","num_feature":"18","num_nodes":"5","size_leaf_vector":"1"}},{"base_weights":[5.7629127E-2,5.0726736E-1,-2.6500065E-2,-4.1857036E-3,3.880274E-2],"categories":[],"categories_nodes":[],"categories_segments":[],"categories_sizes":[],"default_left":[0,0,0,0,0],"id":80,"left_children":[1,3,-1,-1,-1],"loss_changes":[1.6698464E0,6.2329227E-1,0E0,0E0,0E0],"parents":[2147483647,0,0,1,1],"right_children":[2,4,-1,-1,-1],"split_conditions":[5.6054454E0,3.1955662E1,-2.6500065E-2,-4.1857036E-3,3.880274E-2],"split_indices":[7,3,0,0,0],"split_type":[0,0,0,0,0],"sum_hessian":[4.3023553E0,2.5148335E0,1.7875217E0,1.0014657E0,1.5133678E0],"tree_param":{"num_deleted":"0","num_feature":"18","num_nodes":"5","size_leaf_vector":"1"}},{"base_weights":[-6.3094474E-2,2.4516921E-2,-3.0763716E-1,-2.9400466E-2,1.5177327E-2],"categories":[],"categories_nodes":[],"categories_segments":[],"categories_sizes":[],"default_left":[0,0,0,0,0],"id":81,"left_children":[1,-1,3,-1,-1],"loss_changes":[8.8046134E-1,0E0,9.244866E-1,0E0,0E0],"parents":[2147483647,0,0,2,2],"right_children":[2,-1,4,-1,-1],"split_conditions":[3.2445843E0,2.4516921E-2,9.713568E0,-2.9400466E-2,1.5177327E-2],"split_indices":[11,0,2,0,0],"split_type":[0,0,0,0,0],"sum_hessian":[4.3910594E0,1.037633E0,3.3534265E0,2.3248506E0,1.028576E0],"tree_param":{"num_deleted":"0","num_feature":"18","num_nodes":"5","size_leaf_vector":"1"}},{"base_weights":[1.1913722E-1,-1.4870691E-1,2.6537716E-2,2.376212E-2,-3.4661364E-2],"categories":[],"categories_nodes":[],"categories_segments":[],"categories_sizes":[],"default_left":[0,0,0,0,0],"id":82,"left_children":[1,3,-1,-1,-1],"loss_changes":[7.266273E-1,1.8040252E0,0E0,0E0,0E0],"parents":[2147483647,0,0,1,1],"right_children":[2,4,-1,-1,-1],"split_conditions":[4.6433535E0,7E0,2.6537716E-2,2.376212E-2,-3.4661364E-2],"split_indices":[9,1,0,0,0],"split_type":[0,0,0,0,0],"sum_hessian":[4.8748755E0,3.3401349E0,1.5347403E0,1.6158308E0,1.7243041E0],"tree_param":{"num_deleted":"0","num_feature":"18","num_nodes":"5","size_leaf_vector":"1"}},{"base_weights":[-5.362299E-2,-4.623629E-1,3.6805874E-1,-4.8075453E-3,-3.0096868E-2,1.3856128E-3,2.676624E-2],"categories":[],"categories_nodes":[],"categories_segments":[],"categories_sizes":[],"default_left":[0,0,0,0,0,0,0],"id":83,"left_children":[1,3,5,-1,-1,-1,-1],"loss_changes":[1.0544004E0,9.793204E-2,1.606116E-1,0E0,0E0,0E0,0E0],"parents":[2147483647,0,0,1,1,2,2],"right_children":[2,4,6,-1,-1,-1,-1],"split_conditions":[3.359771E1,4.2315993E-1,5.6787544E1,-4.8075453E-3,-3.0096868E-2,1.3856128E-3,2.676624E-2],"split_indices":[3,4,5,0,0,0,0],"split_type":[0,0,0,0,0,0,0],"sum_hessian":[4.130153E0,2.0482717E0,2.0818815E0,1.0312886E0,1.0169829E0,1.0701202E0,1.0117612E0],"tree_param":{"num_deleted":"0","num_feature":"18","num_nodes":"7","size_leaf_vector":"1"}},{"base_weights":[1.4426108E-2,-2.1117276E-2,2.54905E-1,3.0884314E-2,-6.4613074E-2,1.1594064E-2,-1.596563E-2],"categories":[],"categories_nodes":[],"categories_segments":[],"categories_sizes":[],"default_left":[0,0,0,0,0,0,0],"id":84,"left_children":[1,-1,3,-1,5,-1,-1],"loss_changes":[6.846516E-1,0E0,5.2285993E-1,0E0,3.0970037E-1,0E0,0E0],"parents":[2147483647,0,0,2,2,4,4],"right_children":[2,-1,4,-1,6,-1,-1],"split_conditions":[5.35455E1,-2.1117276E-2,6.027522E1,3.0884314E-2,1.0762652E0,1.1594064E-2,-1.596563E-2],"split_indices":[5,0,5,0,10,0,0],"split_type":[0,0,0,0,0,0,0],"sum_hessian":[4.49338E0,1.3269777E0,3.1664023E0,1.0458086E0,2.1205938E0,1.0212965E0,1.0992973E0],"tree_param":{"num_deleted":"0","num_feature":"18","num_nodes":"7","size_leaf_vector":"1"}},{"base_weights":[-1.7918491E-1,1.4933941E-2,-5.4779994E-1,-3.364483E-2,-6.9540082E-3],"categories":[],"categories_nodes":[],"categories_segments":[],"categories_sizes":[],"default_left":[0,0,0,0,0],"id":85,"left_children":[1,-1,3,-1,-1],"loss_changes":[1.0754163E0,0E0,7.3865056E-2,0E0,0E0],"parents":[2147483647,0,0,2,2],"right_children":[2,-1,4,-1,-1],"split_conditions":[1.5161179E1,1.4933941E-2,1.8768503E1,-3.364483E-2,-6.9540082E-3],"split_indices":[8,0,8,0,0],"split_type":[0,0,0,0,0],"sum_hessian":[4.1763372E0,1.9012845E0,2.2750528E0,1.2470247E0,1.028028E0],"tree_param":{"num_deleted":"0","num_feature":"18","num_nodes":"5","size_leaf_vector":"1"}},{"base_weights":[-1.0358504E-1,2.4966218E-1,-3.1171013E-2,2.7948245E-2,-1.0783191E-2],"categories":[],"categories_nodes":[],"categories_segments":[],"categories_sizes":[],"default_left":[0,0,0,0,0],"id":86,"left_children":[1,3,-1,-1,-1],"loss_changes":[1.0639392E0,6.471897E-1,0E0,0E0,0E0],"parents":[2147483647,0,0,1,1],"right_children":[2,4,-1,-1,-1],"split_conditions":[1.4756532E0,5.483286E0,-3.1171013E-2,2.7948245E-2,-1.0783191E-2],"split_indices":[10,7,0,0,0],"split_type":[0,0,0,0,0],"sum_hessian":[3.946322E0,2.6590962E0,1.2872258E0,1.4764591E0,1.182637E0],"tree_param":{"num_deleted":"0","num_feature":"18","num_nodes":"5","size_leaf_vector":"1"}},{"base_weights":[1.9677599E-1,4.0349445E-1,-1.35072945E-2,3.4939766E-2,-2.3166558E-3],"categories":[],"categories_nodes":[],"categories_segments":[],"categories_sizes":[],"default_left":[0,0,0,0,0],"id":87,"left_children":[1,3,-1,-1,-1],"loss_changes":[6.377154E-1,5.8998716E-1,0E0,0E0,0E0],"parents":[2147483647,0,0,1,1],"right_children":[2,4,-1,-1,-1],"split_conditions":[9.38E0,7.8331485E0,-1.35072945E-2,3.4939766E-2,-2.3166558E-3],"split_indices":[1,2,0,0,0],"split_type":[0,0,0,0,0],"sum_hessian":[4.4776783E0,3.1977797E0,1.2798985E0,1.5963446E0,1.6014352E0],"tree_param":{"num_deleted":"0","num_feature":"18","num_nodes":"5","size_leaf_vector":"1"}},{"base_weights":[7.4108034E-2,-2.6773745E-1,3.696187E-1,-3.0572146E-2,1.2220359E-2,3.1730168E-2,-2.1151647E-3],"categories":[],"categories_nodes":[],"categories_segments":[],"categories_sizes":[],"default_left":[0,0,0,0,0,0,0],"id":88,"left_children":[1,3,5,-1,-1,-1,-1],"loss_changes":[6.8808395E-1,7.2748643E-1,4.141163E-1,0E0,0E0,0E0,0E0],"parents":[2147483647,0,0,1,1,2,2],"right_children":[2,4,6,-1,-1,-1,-1],"split_conditions":[3.359771E1,1.6810976E2,5.6054454E0,-3.0572146E-2,1.2220359E-2,3.1730168E-2,-2.1151647E-3],"split_indices":[3,12,7,0,0,0,0],"split_type":[0,0,0,0,0,0,0],"sum_hessian":[4.8318067E0,2.2838466E0,2.54796E0,1.2506413E0,1.0332054E0,1.2215563E0,1.3264039E0],"tree_param":{"num_deleted":"0","num_feature":"18","num_nodes":"7","size_leaf_vector":"1"}},{"base_weights":[1.0923528E-1,-1.5341818E-2,2.995244E-1,3.4089472E-2,-1.0481078E-2],"categories":[],"categories_nodes":[],"categories_segments":[],"categories_sizes":[],"default_left":[0,0,0,0,0],"id":89,"left_children":[1,-1,3,-1,-1],"loss_changes":[5.885687E-1,0E0,1.0791748E0,0E0,0E0],"parents":[2147483647,0,0,2,2],"right_children":[2,-1,4,-1,-1],"split_conditions":[2.9914328E1,-1.5341818E-2,7.3012566E1,3.4089472E-2,-1.0481078E-2],"split_indices":[3,0,6,0,0],"split_type":[0,0,0,0,0],"sum_hessian":[5.2730746E0,1.462597E0,3.8104775E0,1.9827509E0,1.8277266E0],"tree_param":{"num_deleted":"0","num_feature":"18","num_nodes":"5","size_leaf_vector":"1"}},{"base_weights":[-7.114575E-2,-2.2229671E-2,3.031338E-1,2.5332859E-2,-1.3658835E-3],"categories":[],"categories_nodes":[],"categories_segments":[],"categories_sizes":[],"default_left":[0,0,0,0,0],"id":90,"left_children":[1,-1,3,-1,-1],"loss_changes":[8.595084E-1,0E0,2.2799572E-1,0E0,0E0],"parents":[2147483647,0,0,2,2],"right_children":[2,-1,4,-1,-1],"split_conditions":[3.359771E1,-2.2229671E-2,1.3789899E2,2.5332859E-2,-1.3658835E-3],"split_indices":[3,0,12,0,0],"split_type":[0,0,0,0,0],"sum_hessian":[4.18507E0,2.0008261E0,2.1842437E0,1.0217351E0,1.1625086E0],"tree_param":{"num_deleted":"0","num_feature":"18","num_nodes":"5","size_leaf_vector":"1"}},{"base_weights":[1.0320175E-1,4.006487E-1,-1.9515837E-2,-2.2977958E-3,3.108625E-2],"categories":[],"categories_nodes":[],"categories_segments":[],"categories_sizes":[],"default_left":[0,0,0,0,0],"id":91,"left_children":[1,3,-1,-1,-1],"loss_changes":[9.8254746E-1,4.240039E-1,0E0,0E0,0E0],"parents":[2147483647,0,0,1,1],"right_children":[2,4,-1,-1,-1],"split_conditions":[9E0,1.300883E0,-1.9515837E-2,-2.2977958E-3,3.108625E-2],"split_indices":[1,10,0,0,0],"split_type":[0,0,0,0,0],"sum_hessian":[4.6280146E0,3.005037E0,1.6229774E0,1.2572812E0,1.7477558E0],"tree_param":{"num_deleted":"0","num_feature":"18","num_nodes":"5","size_leaf_vector":"1"}},{"base_weights":[2.6178607E-3,-3.9303485E-1,2.623109E-2,-3.1713754E-2,3.9802142E-3],"categories":[],"categories_nodes":[],"categories_segments":[],"categories_sizes":[],"default_left":[0,0,0,0,0],"id":92,"left_children":[1,3,-1,-1,-1],"loss_changes":[1.2064834E0,4.298063E-1,0E0,0E0,0E0],"parents":[2147483647,0,0,1,1],"right_children":[2,4,-1,-1,-1],"split_conditions":[1.8063835E2,4.5660095E0,2.623109E-2,-3.1713754E-2,3.9802142E-3],"split_indices":[12,9,0,0,0],"split_type":[0,0,0,0,0],"sum_hessian":[3.843256E0,2.3267567E0,1.5164993E0,1.3140602E0,1.0126966E0],"tree_param":{"num_deleted":"0","num_feature":"18","num_nodes":"5","size_leaf_vector":"1"}},{"base_weights":[1.4414854E-1,3.0096969E-2,-7.255964E-2,2.0374643E-2,-4.2911348E-1,-3.2610025E-2,1.7602394E-3],"categories":[],"categories_nodes":[],"categories_segments":[],"categories_sizes":[],"default_left":[0,0,0,0,0,0,0],"id":93,"left_children":[1,-1,3,-1,5,-1,-1],"loss_changes":[6.420753E-1,0E0,1.0283375E0,0E0,3.6978465E-1,0E0,0E0],"parents":[2147483647,0,0,2,2,4,4],"right_children":[2,-1,4,-1,6,-1,-1],"split_conditions":[6.713387E1,3.0096969E-2,1.5161179E1,2.0374643E-2,6.063178E-1,-3.2610025E-2,1.7602394E-3],"split_indices":[6,0,8,0,4,0,0],"split_type":[0,0,0,0,0,0,0],"sum_hessian":[5.031819E0,1.0455244E0,3.9862943E0,1.638034E0,2.3482604E0,1.3128471E0,1.0354133E0],"tree_param":{"num_deleted":"0","num_feature":"18","num_nodes":"7","size_leaf_vector":"1"}},{"base_weights":[-1.6465772E-2,2.5058666E-2,-2.4267111E-2],"categories":[],"categories_nodes":[],"categories_segments":[],"categories_sizes":[],"default_left":[0,0,0],"id":94,"left_children":[1,-1,-1],"loss_changes":[1.4272878E0,0E0,0E0],"parents":[2147483647,0,0],"right_children":[2,-1,-1],"split_conditions":[8E0,2.5058666E-2,-2.4267111E-2],"split_indices":[1,0,0],"split_type":[0,0,0],"sum_hessian":[3.8784685E0,1.810641E0,2.0678275E0],"tree_param":{"num_deleted":"0","num_feature":"18","num_nodes":"3","size_leaf_vector":"1"}},{"base_weights":[1.3646822E-1,5.651831E-1,-3.2069284E-1,3.530072E-3,3.9069984E-2,-2.9992023E-2,7.2455998E-3],"categories":[],"categories_nodes":[],"categories_segments":[],"categories_sizes":[],"default_left":[0,0,0,0,0,0,0],"id":95,"left_children":[1,3,5,-1,-1,-1,-1],"loss_changes":[1.2221556E0,2.7663094E-1,5.0390255E-1,0E0,0E0,0E0,0E0],"parents":[2147483647,0,0,1,1,2,2],"right_children":[2,4,6,-1,-1,-1,-1],"split_conditions":[7.3012566E1,5.902453E-1,8.376819E1,3.530072E-3,3.9069984E-2,-2.9992023E-2,7.2455998E-3],"split_indices":[6,4,6,0,0,0,0],"split_type":[0,0,0,0,0,0,0],"sum_hessian":[4.310965E0,2.1027586E0,2.2082064E0,1.0431502E0,1.0596086E0,1.200286E0,1.0079204E0],"tree_param":{"num_deleted":"0","num_feature":"18","num_nodes":"7","size_leaf_vector":"1"}},{"base_weights":[1.0049725E-1,-2.1436548E-2,4.306844E-1,5.196645E-5,3.4104932E-2],"categories":[],"categories_nodes":[],"categories_segments":[],"categories_sizes":[],"default_left":[0,0,0,0,0],"id":96,"left_children":[1,-1,3,-1,-1],"loss_changes":[1.1392007E0,0E0,4.165371E-1,0E0,0E0],"parents":[2147483647,0,0,2,2],"right_children":[2,-1,4,-1,-1],"split_conditions":[4.32431E0,-2.1436548E-2,3.162339E1,5.196645E-5,3.4104932E-2],"split_indices":[9,0,3,0,0],"split_type":[0,0,0,0,0],"sum_hessian":[4.4625683E0,1.5998536E0,2.8627145E0,1.4274539E0,1.4352608E0],"tree_param":{"num_deleted":"0","num_feature":"18","num_nodes":"5","size_leaf_vector":"1"}},{"base_weights":[1.1809667E-1,-1.3224298E-1,2.355243E-2,1.2108594E-2,-2.9762411E-2],"categories":[],"categories_nodes":[],"categories_segments":[],"categories_sizes":[],"default_left":[0,0,0,0,0],"id":97,"left_children":[1,3,-1,-1,-1],"loss_changes":[5.4917324E-1,8.3836997E-1,0E0,0E0,0E0],"parents":[2147483647,0,0,1,1],"right_children":[2,4,-1,-1,-1],"split_conditions":[6.697671E1,1E0,2.355243E-2,1.2108594E-2,-2.9762411E-2],"split_indices":[5,16,0,0,0],"split_type":[0,0,0,0,0],"sum_hessian":[4.5103226E0,3.004577E0,1.5057455E0,1.9249218E0,1.0796552E0],"tree_param":{"num_deleted":"0","num_feature":"18","num_nodes":"5","size_leaf_vector":"1"}},{"base_weights":[-6.4310133E-3,-3.0936573E-2,3.0744737E-1,3.323195E-2,-7.9855E-3],"categories":[],"categories_nodes":[],"categories_segments":[],"categories_sizes":[],"default_left":[0,0,0,0,0],"id":98,"left_children":[1,-1,3,-1,-1],"loss_changes":[1.2185321E0,0E0,8.07865E-1,0E0,0E0],"parents":[2147483647,0,0,2,2],"right_children":[2,-1,4,-1,-1],"split_conditions":[3.0278557E1,-3.0936573E-2,7.3012566E1,3.323195E-2,-7.9855E-3],"split_indices":[3,0,6,0,0],"split_type":[0,0,0,0,0],"sum_hessian":[4.3505187E0,1.1452225E0,3.2052963E0,1.576876E0,1.6284202E0],"tree_param":{"num_deleted":"0","num_feature":"18","num_nodes":"5","size_leaf_vector":"1"}},{"base_weights":[1.6685449E-1,-2.06112E-2,5.220038E-1,4.1476738E-2,-2.7293223E-3],"categories":[],"categories_nodes":[],"categories_segments":[],"categories_sizes":[],"default_left":[0,0,0,0,0],"id":99,"left_children":[1,-1,3,-1,-1],"loss_changes":[1.2732301E0,0E0,6.889769E-1,0E0,0E0],"parents":[2147483647,0,0,2,2],"right_children":[2,-1,4,-1,-1],"split_conditions":[4.32431E0,-2.06112E-2,5.6054454E0,4.1476738E-2,-2.7293223E-3],"split_indices":[9,0,7,0,0],"split_type":[0,0,0,0,0],"sum_hessian":[4.1446605E0,1.5145116E0,2.630149E0,1.4291863E0,1.2009627E0],"tree_param":{"num_deleted":"0","num_feature":"18","num_nodes":"5","size_leaf_vector":"1"}},{"base_weights":[-2.2549608E-1,2.3777156E-1,-3.531745E-2,-1.419795E-2,3.366633E-2],"categories":[],"categories_nodes":[],"categories_segments":[],"categories_sizes":[],"default_left":[0,0,0,0,0],"id":100,"left_children":[1,3,-1,-1,-1],"loss_changes":[1.2514588E0,9.241502E-1,0E0,0E0,0E0],"parents":[2147483647,0,0,1,1],"right_children":[2,4,-1,-1,-1],"split_conditions":[5.6054454E0,3.359771E1,-3.531745E-2,-1.419795E-2,3.366633E-2],"split_indices":[7,3,0,0,0],"split_type":[0,0,0,0,0],"sum_hessian":[3.8639417E0,2.2254245E0,1.6385171E0,1.1709055E0,1.054519E0],"tree_param":{"num_deleted":"0","num_feature":"18","num_nodes":"5","size_leaf_vector":"1"}},{"base_weights":[1.221874E-1,5.2335167E-1,-2.0162307E-2,5.0291675E-3,3.5638038E-2],"categories":[],"categories_nodes":[],"categories_segments":[],"categories_sizes":[],"default_left":[0,0,0,0,0],"id":101,"left_children":[1,3,-1,-1,-1],"loss_changes":[1.2350743E0,1.8375582E-1,0E0,0E0,0E0],"parents":[2147483647,0,0,1,1],"right_children":[2,4,-1,-1,-1],"split_conditions":[9E0,1.7709187E0,-2.0162307E-2,5.0291675E-3,3.5638038E-2],"split_indices":[1,0,0,0,0],"split_type":[0,0,0,0,0],"sum_hessian":[3.8581915E0,2.1900601E0,1.6681312E0,1.151316E0,1.0387441E0],"tree_param":{"num_deleted":"0","num_feature":"18","num_nodes":"5","size_leaf_vector":"1"}},{"base_weights":[7.912221E-2,2.1143796E-2,-2.6018295E-1,-2.08071E-2,2.3313072E-3],"categories":[],"categories_nodes":[],"categories_segments":[],"categories_sizes":[],"default_left":[0,0,0,0,0],"id":102,"left_children":[1,-1,3,-1,-1],"loss_changes":[7.312213E-1,0E0,1.772769E-1,0E0,0E0],"parents":[2147483647,0,0,2,2],"right_children":[2,-1,4,-1,-1],"split_conditions":[4.4168396E0,2.1143796E-2,1.7780205E2,-2.08071E-2,2.3313072E-3],"split_indices":[11,0,12,0,0],"split_type":[0,0,0,0,0],"sum_hessian":[4.325875E0,2.026503E0,2.2993717E0,1.2881942E0,1.0111774E0],"tree_param":{"num_deleted":"0","num_feature":"18","num_nodes":"5","size_leaf_vector":"1"}},{"base_weights":[1.03618786E-1,-1.7254469E-1,2.6430566E-2,1.423575E-2,-3.1098211E-2],"categories":[],"categories_nodes":[],"categories_segments":[],"categories_sizes":[],"default_left":[0,0,0,0,0],"id":103,"left_children":[1,3,-1,-1,-1],"loss_changes":[7.3178786E-1,1.0118526E0,0E0,0E0,0E0],"parents":[2147483647,0,0,1,1],"right_children":[2,4,-1,-1,-1],"split_conditions":[4.6614957E0,8E0,2.6430566E-2,1.423575E-2,-3.1098211E-2],"split_indices":[9,1,0,0,0],"split_type":[0,0,0,0,0],"sum_hessian":[4.4578934E0,3.0621133E0,1.39578E0,1.6994742E0,1.3626391E0],"tree_param":{"num_deleted":"0","num_feature":"18","num_nodes":"5","size_leaf_vector":"1"}},{"base_weights":[2.9059693E-1,-7.401588E-3,5.4254085E-1,3.7210308E-2,1.4274938E-3],"categories":[],"categories_nodes":[],"categories_segments":[],"categories_sizes":[],"default_left":[0,0,0,0,0],"id":104,"left_children":[1,-1,3,-1,-1],"loss_changes":[6.530721E-1,0E0,3.4220076E-1,0E0,0E0],"parents":[2147483647,0,0,2,2],"right_children":[2,-1,4,-1,-1],"split_conditions":[4.32431E0,-7.401588E-3,5.6054454E0,3.7210308E-2,1.4274938E-3],"split_indices":[9,0,7,0,0],"split_type":[0,0,0,0,0],"sum_hessian":[4.182877E0,1.6765255E0,2.5063517E0,1.4784011E0,1.0279506E0],"tree_param":{"num_deleted":"0","num_feature":"18","num_nodes":"5","size_leaf_vector":"1"}},{"base_weights":[1.0065814E-1,3.8723418E-1,-1.8387165E-2,2.922512E-2,-1.5104957E-3],"categories":[],"categories_nodes":[],"categories_segments":[],"categories_sizes":[],"default_left":[0,0,0,0,0],"id":105,"left_children":[1,3,-1,-1,-1],"loss_changes":[7.877059E-1,3.0337864E-1,0E0,0E0,0E0],"parents":[2147483647,0,0,1,1],"right_children":[2,4,-1,-1,-1],"split_conditions":[7.6116196E1,5.4372516E0,-1.8387165E-2,2.922512E-2,-1.5104957E-3],"split_indices":[6,11,0,0,0],"split_type":[0,0,0,0,0],"sum_hessian":[3.807349E0,2.4696565E0,1.3376925E0,1.4053487E0,1.0643078E0],"tree_param":{"num_deleted":"0","num_feature":"18","num_nodes":"5","size_leaf_vector":"1"}},{"base_weights":[9.960971E-3,2.5681723E-2,-2.4736437E-1,5.2669216E-3,-2.9919742E-2],"categories":[],"categories_nodes":[],"categories_segments":[],"categories_sizes":[],"default_left":[0,0,0,0,0],"id":106,"left_children":[1,-1,3,-1,-1],"loss_changes":[7.9252106E-1,0E0,5.673383E-1,0E0,0E0],"parents":[2147483647,0,0,2,2],"right_children":[2,-1,4,-1,-1],"split_conditions":[6.713387E1,2.5681723E-2,5.6054454E0,5.2669216E-3,-2.9919742E-2],"split_indices":[6,0,7,0,0],"split_type":[0,0,0,0,0],"sum_hessian":[4.134455E0,1.061225E0,3.0732303E0,1.8820902E0,1.19114E0],"tree_param":{"num_deleted":"0","num_feature":"18","num_nodes":"5","size_leaf_vector":"1"}},{"base_weights":[1.4786266E-1,-1.7365975E-2,3.753187E-1,2.7741177E-2,-1.2199151E-3],"categories":[],"categories_nodes":[],"categories_segments":[],"categories_sizes":[],"default_left":[0,0,0,0,0],"id":107,"left_children":[1,-1,3,-1,-1],"loss_changes":[7.23092E-1,0E0,3.0676723E-1,0E0,0E0],"parents":[2147483647,0,0,2,2],"right_children":[2,-1,4,-1,-1],"split_conditions":[5.35455E1,-1.7365975E-2,7.6116196E1,2.7741177E-2,-1.2199151E-3],"split_indices":[5,0,6,0,0],"split_type":[0,0,0,0,0],"sum_hessian":[4.2625856E0,1.1758131E0,3.0867727E0,1.8623765E0,1.2243962E0],"tree_param":{"num_deleted":"0","num_feature":"18","num_nodes":"5","size_leaf_vector":"1"}},{"base_weights":[-6.518726E-2,-2.082394E-2,2.2590078E-1,2.6913485E-2,-1.3410344E-2],"categories":[],"categories_nodes":[],"categories_segments":[],"categories_sizes":[],"default_left":[0,0,0,0,0],"id":108,"left_children":[1,-1,3,-1,-1],"loss_changes":[6.527113E-1,0E0,7.055359E-1,0E0,0E0],"parents":[2147483647,0,0,2,2],"right_children":[2,-1,4,-1,-1],"split_conditions":[3.227352E1,-2.082394E-2,7.3012566E1,2.6913485E-2,-1.3410344E-2],"split_indices":[3,0,6,0,0],"split_type":[0,0,0,0,0],"sum_hessian":[4.4629965E0,1.827166E0,2.6358306E0,1.5601469E0,1.0756837E0],"tree_param":{"num_deleted":"0","num_feature":"18","num_nodes":"5","size_leaf_vector":"1"}},{"base_weights":[5.0093696E-2,3.7523985E-1,-1.9780364E-2,3.7234206E-2,-5.234039E-3],"categories":[],"categories_nodes":[],"categories_segments":[],"categories_sizes":[],"default_left":[0,0,0,0,0],"id":109,"left_children":[1,3,-1,-1,-1],"loss_changes":[8.6740845E-1,6.775489E-1,0E0,0E0,0E0],"parents":[2147483647,0,0,1,1],"right_children":[2,4,-1,-1,-1],"split_conditions":[9E0,5.483286E0,-1.9780364E-2,3.7234206E-2,-5.234039E-3],"split_indices":[1,7,0,0,0],"split_type":[0,0,0,0,0],"sum_hessian":[3.9611583E0,2.3817344E0,1.5794238E0,1.0340432E0,1.3476912E0],"tree_param":{"num_deleted":"0","num_feature":"18","num_nodes":"5","size_leaf_vector":"1"}},{"base_weights":[-4.1897632E-2,-2.3594292E-2,3.243545E-1,2.4303326E-2,-1.5765043E-4],"categories":[],"categories_nodes":[],"categories_segments":[],"categories_sizes":[],"default_left":[0,0,0,0,0],"id":110,"left_children":[1,-1,3,-1,-1],"loss_changes":[9.532888E-1,0E0,1.7824975E-1,0E0,0E0],"parents":[2147483647,0,0,2,2],"right_children":[2,-1,4,-1,-1],"split_conditions":[3.359771E1,-2.3594292E-2,1.6004013E2,2.4303326E-2,-1.5765043E-4],"split_indices":[3,0,12,0,0],"split_type":[0,0,0,0,0],"sum_hessian":[4.081342E0,1.7446573E0,2.3366847E0,1.2401851E0,1.0964997E0],"tree_param":{"num_deleted":"0","num_feature":"18","num_nodes":"5","size_leaf_vector":"1"}},{"base_weights":[5.4242227E-2,4.1968775E-1,-2.1697087E-2,-2.4118158E-3,3.324084E-2],"categories":[],"categories_nodes":[],"categories_segments":[],"categories_sizes":[],"default_left":[0,0,0,0,0],"id":111,"left_children":[1,3,-1,-1,-1],"loss_changes":[1.0730252E0,4.179511E-1,0E0,0E0,0E0],"parents":[2147483647,0,0,1,1],"right_children":[2,4,-1,-1,-1],"split_conditions":[5.6054454E0,4.3986053E0,-2.1697087E-2,-2.4118158E-3,3.324084E-2],"split_indices":[7,9,0,0,0],"split_type":[0,0,0,0,0],"sum_hessian":[3.9937336E0,2.3642259E0,1.6295078E0,1.0888854E0,1.2753403E0],"tree_param":{"num_deleted":"0","num_feature":"18","num_nodes":"5","size_leaf_vector":"1"}},{"base_weights":[-1.3837619E-2,-1.9249273E-2,2.7993816E-1,2.1410752E-2,-2.46806E-5],"categories":[],"categories_nodes":[],"categories_segments":[],"categories_sizes":[],"default_left":[0,0,0,0,0],"id":112,"left_children":[1,-1,3,-1,-1],"loss_changes":[5.980861E-1,0E0,1.2865949E-1,0E0,0E0],"parents":[2147483647,0,0,2,2],"right_children":[2,-1,4,-1,-1],"split_conditions":[4.32431E0,-1.9249273E-2,5.8056023E1,2.1410752E-2,-2.46806E-5],"split_indices":[9,0,5,0,0],"split_type":[0,0,0,0,0],"sum_hessian":[3.4968805E0,1.4078144E0,2.089066E0,1.0218065E0,1.0672597E0],"tree_param":{"num_deleted":"0","num_feature":"18","num_nodes":"5","size_leaf_vector":"1"}},{"base_weights":[2.8999704E-1,5.1713234E-1,-1.18610775E-2,3.5952132E-2,6.027618E-3],"categories":[],"categories_nodes":[],"categories_segments":[],"categories_sizes":[],"default_left":[0,0,0,0,0],"id":113,"left_children":[1,3,-1,-1,-1],"loss_changes":[6.8205976E-1,1.9991952E-1,0E0,0E0,0E0],"parents":[2147483647,0,0,1,1],"right_children":[2,4,-1,-1,-1],"split_conditions":[7.6116196E1,1.3272702E0,-1.18610775E-2,3.5952132E-2,6.027618E-3],"split_indices":[6,10,0,0,0],"split_type":[0,0,0,0,0],"sum_hessian":[3.6712756E0,2.5792286E0,1.0920471E0,1.1702907E0,1.4089378E0],"tree_param":{"num_deleted":"0","num_feature":"18","num_nodes":"5","size_leaf_vector":"1"}},{"base_weights":[1.6210787E-1,-1.6225386E-2,4.4408116E-1,3.776379E-2,1.6359721E-3],"categories":[],"categories_nodes":[],"categories_segments":[],"categories_sizes":[],"default_left":[0,0,0,0,0],"id":114,"left_children":[1,-1,3,-1,-1],"loss_changes":[8.348464E-1,0E0,4.3734366E-1,0E0,0E0],"parents":[2147483647,0,0,2,2],"right_children":[2,-1,4,-1,-1],"split_conditions":[4.32431E0,-1.6225386E-2,5.9564606E1,3.776379E-2,1.6359721E-3],"split_indices":[9,0,5,0,0],"split_type":[0,0,0,0,0],"sum_hessian":[4.0340753E0,1.424646E0,2.6094294E0,1.0096171E0,1.5998123E0],"tree_param":{"num_deleted":"0","num_feature":"18","num_nodes":"5","size_leaf_vector":"1"}},{"base_weights":[-8.218435E-2,3.0813164E-1,-2.4374587E-2,2.8107388E-2,-3.670151E-3],"categories":[],"categories_nodes":[],"categories_segments":[],"categories_sizes":[],"default_left":[0,0,0,0,0],"id":115,"left_children":[1,3,-1,-1,-1],"loss_changes":[9.7216576E-1,3.5716403E-1,0E0,0E0,0E0],"parents":[2147483647,0,0,1,1],"right_children":[2,4,-1,-1,-1],"split_conditions":[8E0,7.8331485E0,-2.4374587E-2,2.8107388E-2,-3.670151E-3],"split_indices":[1,2,0,0,0],"split_type":[0,0,0,0,0],"sum_hessian":[4.1957316E0,2.2595325E0,1.9361993E0,1.0722618E0,1.1872705E0],"tree_param":{"num_deleted":"0","num_feature":"18","num_nodes":"5","size_leaf_vector":"1"}},{"base_weights":[-6.743539E-2,-3.9898607E-1,1.9815218E-2,-3.2260608E-2,4.291866E-3],"categories":[],"categories_nodes":[],"categories_segments":[],"categories_sizes":[],"default_left":[0,0,0,0,0],"id":116,"left_children":[1,3,-1,-1,-1],"loss_changes":[9.019552E-1,4.5162863E-1,0E0,0E0,0E0],"parents":[2147483647,0,0,1,1],"right_children":[2,4,-1,-1,-1],"split_conditions":[6.697671E1,2.1545794E0,1.9815218E-2,-3.2260608E-2,4.291866E-3],"split_indices":[5,10,0,0,0],"split_type":[0,0,0,0,0],"sum_hessian":[3.8378508E0,2.3193007E0,1.5185503E0,1.3187377E0,1.0005629E0],"tree_param":{"num_deleted":"0","num_feature":"18","num_nodes":"5","size_leaf_vector":"1"}},{"base_weights":[1.0160076E-1,2.35382E-2,-1.3351894E-2],"categories":[],"categories_nodes":[],"categories_segments":[],"categories_sizes":[],"default_left":[0,0,0],"id":117,"left_children":[1,-1,-1],"loss_changes":[7.622837E-1,0E0,0E0],"parents":[2147483647,0,0],"right_children":[2,-1,-1],"split_conditions":[8E0,2.35382E-2,-1.3351894E-2],"split_indices":[1,0,0],"split_type":[0,0,0],"sum_hessian":[3.6776552E0,1.6991017E0,1.9785535E0],"tree_param":{"num_deleted":"0","num_feature":"18","num_nodes":"3","size_leaf_vector":"1"}},{"base_weights":[1.602539E-1,-1.5406524E-1,3.125469E-2,1.4054932E-2,-2.9525524E-2],"categories":[],"categories_nodes":[],"categories_segments":[],"categories_sizes":[],"default_left":[0,0,0,0,0],"id":118,"left_children":[1,3,-1,-1,-1],"loss_changes":[8.346824E-1,8.9097905E-1,0E0,0E0,0E0],"parents":[2147483647,0,0,1,1],"right_children":[2,4,-1,-1,-1],"split_conditions":[4.6614957E0,8E0,3.125469E-2,1.4054932E-2,-2.9525524E-2],"split_indices":[9,1,0,0,0],"split_type":[0,0,0,0,0],"sum_hessian":[4.0536375E0,2.817226E0,1.2364116E0,1.5889134E0,1.2283124E0],"tree_param":{"num_deleted":"0","num_feature":"18","num_nodes":"5","size_leaf_vector":"1"}},{"base_weights":[9.778946E-2,4.0992656E-1,-1.9146247E-2,9.2311745E-4,3.2005448E-2],"categories":[],"categories_nodes":[],"categories_segments":[],"categories_sizes":[],"default_left":[0,0,0,0,0],"id":119,"left_children":[1,3,-1,-1,-1],"loss_changes":[8.4703577E-1,2.8295803E-1,0E0,0E0,0E0],"parents":[2147483647,0,0,1,1],"right_children":[2,4,-1,-1,-1],"split_conditions":[7.6116196E1,7.116589E1,-1.9146247E-2,9.2311745E-4,3.2005448E-2],"split_indices":[6,6,0,0,0],"split_type":[0,0,0,0,0],"sum_hessian":[3.5989354E0,2.2713559E0,1.3275796E0,1.241012E0,1.0303439E0],"tree_param":{"num_deleted":"0","num_feature":"18","num_nodes":"5","size_leaf_vector":"1"}},{"base_weights":[-8.038137E-4,-2.048373E-2,2.5383455E-1,2.9284656E-2,-1.0348895E-2],"categories":[],"categories_nodes":[],"categories_segments":[],"categories_sizes":[],"default_left":[0,0,0,0,0],"id":120,"left_children":[1,-1,3,-1,-1],"loss_changes":[6.006167E-1,0E0,6.651542E-1,0E0,0E0],"parents":[2147483647,0,0,2,2],"right_children":[2,-1,4,-1,-1],"split_conditions":[5.3709637E1,-2.048373E-2,4.4168396E0,2.9284656E-2,-1.0348895E-2],"split_indices":[5,0,11,0,0],"split_type":[0,0,0,0,0],"sum_hessian":[3.7700236E0,1.2131804E0,2.5568433E0,1.3288544E0,1.2279887E0],"tree_param":{"num_deleted":"0","num_feature":"18","num_nodes":"5","size_leaf_vector":"1"}},{"base_weights":[6.8934895E-2,-2.505131E-1,3.51493E-1,8.908468E-3,-2.7765349E-2,2.9398654E-2,-1.6388082E-3],"categories":[],"categories_nodes":[],"categories_segments":[],"categories_sizes":[],"default_left":[0,0,0,0,0,0,0],"id":121,"left_children":[1,3,5,-1,-1,-1,-1],"loss_changes":[5.5649275E-1,4.9349564E-1,3.0733648E-1,0E0,0E0,0E0,0E0],"parents":[2147483647,0,0,1,1,2,2],"right_children":[2,4,6,-1,-1,-1,-1],"split_conditions":[3.359771E1,5.8056023E1,5.6054454E0,8.908468E-3,-2.7765349E-2,2.9398654E-2,-1.6388082E-3],"split_indices":[3,5,7,0,0,0,0],"split_type":[0,0,0,0,0,0,0],"sum_hessian":[4.189736E0,2.0197284E0,2.1700077E0,1.0119282E0,1.0078002E0,1.0151652E0,1.1548424E0],"tree_param":{"num_deleted":"0","num_feature":"18","num_nodes":"7","size_leaf_vector":"1"}},{"base_weights":[-3.5196736E-2,-2.5092167E-1,1.5458085E-2,1.1713892E-2,-3.2878168E-2],"categories":[],"categories_nodes":[],"categories_segments":[],"categories_sizes":[],"default_left":[0,0,0,0,0],"id":122,"left_children":[1,3,-1,-1,-1],"loss_changes":[4.6014684E-1,8.876911E-1,0E0,0E0,0E0],"parents":[2147483647,0,0,1,1],"right_children":[2,4,-1,-1,-1],"split_conditions":[7.1444696E-1,3.5451272E-1,1.5458085E-2,1.1713892E-2,-3.2878168E-2],"split_indices":[4,4,0,0,0],"split_type":[0,0,0,0,0],"sum_hessian":[4.149932E0,2.7183466E0,1.4315853E0,1.4327178E0,1.2856289E0],"tree_param":{"num_deleted":"0","num_feature":"18","num_nodes":"5","size_leaf_vector":"1"}},{"base_weights":[1.5804945E-1,-1.3175319E-2,3.7360895E-1,2.7976705E-2,-3.4718425E-3],"categories":[],"categories_nodes":[],"categories_segments":[],"categories_sizes":[],"default_left":[0,0,0,0,0],"id":123,"left_children":[1,-1,3,-1,-1],"loss_changes":[5.829428E-1,0E0,3.635177E-1,0E0,0E0],"parents":[2147483647,0,0,2,2],"right_children":[2,-1,4,-1,-1],"split_conditions":[5.35455E1,-1.3175319E-2,5.4372516E0,2.7976705E-2,-3.4718425E-3],"split_indices":[5,0,11,0,0],"split_type":[0,0,0,0,0],"sum_hessian":[4.3317103E0,1.3903202E0,2.94139E0,1.8867044E0,1.0546856E0],"tree_param":{"num_deleted":"0","num_feature":"18","num_nodes":"5","size_leaf_vector":"1"}},{"base_weights":[-1.2469801E-2,-2.2656599E-2,2.1283476E-2],"categories":[],"categories_nodes":[],"categories_segments":[],"categories_sizes":[],"default_left":[0,0,0],"id":124,"left_children":[1,-1,-1],"loss_changes":[1.1460798E0,0E0,0E0],"parents":[2147483647,0,0],"right_children":[2,-1,-1],"split_conditions":[3.359771E1,-2.2656599E-2,2.1283476E-2],"split_indices":[3,0,0],"split_type":[0,0,0],"sum_hessian":[3.9370096E0,1.9457932E0,1.9912164E0],"tree_param":{"num_deleted":"0","num_feature":"18","num_nodes":"3","size_leaf_vector":"1"}},{"base_weights":[9.268746E-2,-1.8638764E-2,3.6832884E-1,3.218518E-2,-5.5610895E-4],"categories":[],"categories_nodes":[],"categories_segments":[],"categories_sizes":[],"default_left":[0,0,0,0,0],"id":125,"left_children":[1,-1,3,-1,-1],"loss_changes":[7.7286613E-1,0E0,3.8481638E-1,0E0,0E0],"parents":[2147483647,0,0,2,2],"right_children":[2,-1,4,-1,-1],"split_conditions":[4.32431E0,-1.8638764E-2,1.5161179E1,3.218518E-2,-5.5610895E-4],"split_indices":[9,0,8,0,0],"split_type":[0,0,0,0,0],"sum_hessian":[3.9536896E0,1.3394428E0,2.6142466E0,1.1113279E0,1.5029187E0],"tree_param":{"num_deleted":"0","num_feature":"18","num_nodes":"5","size_leaf_vector":"1"}},{"base_weights":[2.0609711E-1,-1.5821675E-2,4.4888172E-1,1.3163954E-3,3.3888813E-2],"categories":[],"categories_nodes":[],"categories_segments":[],"categories_sizes":[],"default_left":[0,0,0,0,0],"id":126,"left_children":[1,-1,3,-1,-1],"loss_changes":[7.551697E-1,0E0,3.4130543E-1,0E0,0E0],"parents":[2147483647,0,0,2,2],"right_children":[2,-1,4,-1,-1],"split_conditions":[5.35455E1,-1.5821675E-2,3.227352E1,1.3163954E-3,3.3888813E-2],"split_indices":[5,0,3,0,0],"split_type":[0,0,0,0,0],"sum_hessian":[3.83302E0,1.1197338E0,2.7132862E0,1.3451238E0,1.3681623E0],"tree_param":{"num_deleted":"0","num_feature":"18","num_nodes":"5","size_leaf_vector":"1"}},{"base_weights":[-5.5765808E-2,2.5810242E-1,-2.8617129E-2,-1.0966133E-2,2.7557423E-2],"categories":[],"categories_nodes":[],"categories_segments":[],"categories_sizes":[],"default_left":[0,0,0,0,0],"id":127,"left_children":[1,3,-1,-1,-1],"loss_changes":[9.2259204E-1,6.332251E-1,0E0,0E0,0E0],"parents":[2147483647,0,0,1,1],"right_children":[2,4,-1,-1,-1],"split_conditions":[7.6116196E1,1.6418528E1,-2.8617129E-2,-1.0966133E-2,2.7557423E-2],"split_indices":[6,8,0,0,0],"split_type":[0,0,0,0,0],"sum_hessian":[3.7791007E0,2.6620305E0,1.1170701E0,1.1081804E0,1.5538502E0],"tree_param":{"num_deleted":"0","num_feature":"18","num_nodes":"5","size_leaf_vector":"1"}},{"base_weights":[1.1087619E-2,-2.0155145E-2,2.9995853E-1,2.3123894E-2,-8.971506E-4],"categories":[],"categories_nodes":[],"categories_segments":[],"categories_sizes":[],"default_left":[0,0,0,0,0],"id":128,"left_children":[1,-1,3,-1,-1],"loss_changes":[7.077126E-1,0E0,1.871965E-1,0E0,0E0],"parents":[2147483647,0,0,2,2],"right_children":[2,-1,4,-1,-1],"split_conditions":[4.322653E0,-2.0155145E-2,7.6116196E1,2.3123894E-2,-8.971506E-4],"split_indices":[9,0,6,0,0],"split_type":[0,0,0,0,0],"sum_hessian":[3.9043896E0,1.4417411E0,2.4626486E0,1.3286338E0,1.1340147E0],"tree_param":{"num_deleted":"0","num_feature":"18","num_nodes":"5","size_leaf_vector":"1"}},{"base_weights":[1.8755382E-2,3.02654E-1,-1.8750425E-2,-6.4705475E-3,2.9825643E-2],"categories":[],"categories_nodes":[],"categories_segments":[],"categories_sizes":[],"default_left":[0,0,0,0,0],"id":129,"left_children":[1,3,-1,-1,-1],"loss_changes":[6.507658E-1,5.0202656E-1,0E0,0E0,0E0],"parents":[2147483647,0,0,1,1],"right_children":[2,4,-1,-1,-1],"split_conditions":[9E0,1.300883E0,-1.8750425E-2,-6.4705475E-3,2.9825643E-2],"split_indices":[1,10,0,0,0],"split_type":[0,0,0,0,0],"sum_hessian":[3.8060892E0,2.346021E0,1.4600683E0,1.176221E0,1.1697998E0],"tree_param":{"num_deleted":"0","num_feature":"18","num_nodes":"5","size_leaf_vector":"1"}},{"base_weights":[1.5490938E-3,-2.8843492E-1,1.5848545E-2,8.32433E-3,-2.914841E-2],"categories":[],"categories_nodes":[],"categories_segments":[],"categories_sizes":[],"default_left":[0,0,0,0,0],"id":130,"left_children":[1,3,-1,-1,-1],"loss_changes":[5.4591024E-1,5.140811E-1,0E0,0E0,0E0],"parents":[2147483647,0,0,1,1],"right_children":[2,4,-1,-1,-1],"split_conditions":[3.359771E1,5.9564606E1,1.5848545E-2,8.32433E-3,-2.914841E-2],"split_indices":[3,5,0,0,0],"split_type":[0,0,0,0,0],"sum_hessian":[3.9688234E0,2.1123688E0,1.8564546E0,1.0010071E0,1.1113617E0],"tree_param":{"num_deleted":"0","num_feature":"18","num_nodes":"5","size_leaf_vector":"1"}},{"base_weights":[-5.1214255E-2,2.5235298E-1,-2.2407383E-2,3.270981E-2,-1.2730526E-2],"categories":[],"categories_nodes":[],"categories_segments":[],"categories_sizes":[],"default_left":[0,0,0,0,0],"id":131,"left_children":[1,3,-1,-1,-1],"loss_changes":[6.6398036E-1,8.2465273E-1,0E0,0E0,0E0],"parents":[2147483647,0,0,1,1],"right_children":[2,4,-1,-1,-1],"split_conditions":[1.4756532E0,5.483286E0,-2.2407383E-2,3.270981E-2,-1.2730526E-2],"split_indices":[10,7,0,0,0],"split_type":[0,0,0,0,0],"sum_hessian":[3.5718458E0,2.2303553E0,1.3414904E0,1.0821619E0,1.1481935E0],"tree_param":{"num_deleted":"0","num_feature":"18","num_nodes":"5","size_leaf_vector":"1"}},{"base_weights":[1.1017422E-1,3.45496E-1,-1.5558116E-2,-2.1267764E-3,2.5995431E-2],"categories":[],"categories_nodes":[],"categories_segments":[],"categories_sizes":[],"default_left":[0,0,0,0,0],"id":132,"left_children":[1,3,-1,-1,-1],"loss_changes":[5.881865E-1,2.6470765E-1,0E0,0E0,0E0],"parents":[2147483647,0,0,1,1],"right_children":[2,4,-1,-1,-1],"split_conditions":[9E0,1.4487268E0,-1.5558116E-2,-2.1267764E-3,2.5995431E-2],"split_indices":[1,0,0,0,0],"split_type":[0,0,0,0,0],"sum_hessian":[3.8480365E0,2.584539E0,1.2634976E0,1.0359309E0,1.548608E0],"tree_param":{"num_deleted":"0","num_feature":"18","num_nodes":"5","size_leaf_vector":"1"}},{"base_weights":[-8.090408E-2,-2.9811153E-2,2.0874688E-1,2.756143E-2,-1.617748E-2],"categories":[],"categories_nodes":[],"categories_segments":[],"categories_sizes":[],"default_left":[0,0,0,0,0],"id":133,"left_children":[1,-1,3,-1,-1],"loss_changes":[8.4983987E-1,0E0,8.805319E-1,0E0,0E0],"parents":[2147483647,0,0,2,2],"right_children":[2,-1,4,-1,-1],"split_conditions":[2.9556057E1,-2.9811153E-2,7.3012566E1,2.756143E-2,-1.617748E-2],"split_indices":[3,0,6,0,0],"split_type":[0,0,0,0,0],"sum_hessian":[3.8597574E0,1.0080007E0,2.8517568E0,1.7136319E0,1.1381248E0],"tree_param":{"num_deleted":"0","num_feature":"18","num_nodes":"5","size_leaf_vector":"1"}},{"base_weights":[-8.660724E-2,1.600837E-2,-3.9382046E-1,-3.139574E-2,1.8001766E-3],"categories":[],"categories_nodes":[],"categories_segments":[],"categories_sizes":[],"default_left":[0,0,0,0,0],"id":134,"left_children":[1,-1,3,-1,-1],"loss_changes":[7.0742744E-1,0E0,3.3440077E-1,0E0,0E0],"parents":[2147483647,0,0,2,2],"right_children":[2,-1,4,-1,-1],"split_conditions":[1.5161179E1,1.600837E-2,1.4636983E0,-3.139574E-2,1.8001766E-3],"split_indices":[8,0,10,0,0],"split_type":[0,0,0,0,0],"sum_hessian":[3.6519566E0,1.553213E0,2.0987434E0,1.0603708E0,1.0383728E0],"tree_param":{"num_deleted":"0","num_feature":"18","num_nodes":"5","size_leaf_vector":"1"}},{"base_weights":[1.6187978E-1,-1.2457851E-1,2.1324074E-2,-1.6404217E-2,8.218161E-3],"categories":[],"categories_nodes":[],"categories_segments":[],"categories_sizes":[],"default_left":[0,0,0,0,0],"id":135,"left_children":[1,3,-1,-1,-1],"loss_changes":[4.449752E-1,2.4539539E-1,0E0,0E0,0E0],"parents":[2147483647,0,0,1,1],"right_children":[2,4,-1,-1,-1],"split_conditions":[3.359771E1,4.6614957E0,2.1324074E-2,-1.6404217E-2,8.218161E-3],"split_indices":[3,9,0,0,0],"split_type":[0,0,0,0,0],"sum_hessian":[4.1696377E0,2.2562268E0,1.9134109E0,1.2443467E0,1.01188E0],"tree_param":{"num_deleted":"0","num_feature":"18","num_nodes":"5","size_leaf_vector":"1"}},{"base_weights":[1.9211853E-2,-1.3705696E-2,1.5332915E-2],"categories":[],"categories_nodes":[],"categories_segments":[],"categories_sizes":[],"default_left":[0,0,0],"id":136,"left_children":[1,-1,-1],"loss_changes":[4.9041158E-1,0E0,0E0],"parents":[2147483647,0,0],"right_children":[2,-1,-1],"split_conditions":[1.6803347E1,-1.3705696E-2,1.5332915E-2],"split_indices":[8,0,0],"split_type":[0,0,0],"sum_hessian":[3.8194284E0,1.9133381E0,1.9060904E0],"tree_param":{"num_deleted":"0","num_feature":"18","num_nodes":"3","size_leaf_vector":"1"}},{"base_weights":[-7.9325855E-2,2.5761196E-1,-2.5987715E-2,-1.4392744E-2,3.1514548E-2],"categories":[],"categories_nodes":[],"categories_segments":[],"categories_sizes":[],"default_left":[0,0,0,0,0],"id":137,"left_children":[1,3,-1,-1,-1],"loss_changes":[8.3448184E-1,8.6108816E-1,0E0,0E0,0E0],"parents":[2147483647,0,0,1,1],"right_children":[2,4,-1,-1,-1],"split_conditions":[7.8331485E0,5.6367016E-1,-2.5987715E-2,-1.4392744E-2,3.1514548E-2],"split_indices":[2,4,0,0,0],"split_type":[0,0,0,0,0],"sum_hessian":[3.7210324E0,2.3433807E0,1.3776518E0,1.0435737E0,1.299807E0],"tree_param":{"num_deleted":"0","num_feature":"18","num_nodes":"5","size_leaf_vector":"1"}},{"base_weights":[1.4312191E-1,-1.2375951E-2,3.4989455E-1,2.893371E-2,-1.4732666E-3],"categories":[],"categories_nodes":[],"categories_segments":[],"categories_sizes":[],"default_left":[0,0,0,0,0],"id":138,"left_children":[1,-1,3,-1,-1],"loss_changes":[4.7784895E-1,0E0,3.278923E-1,0E0,0E0],"parents":[2147483647,0,0,2,2],"right_children":[2,-1,4,-1,-1],"split_conditions":[5.35455E1,-1.2375951E-2,1.4860114E0,2.893371E-2,-1.4732666E-3],"split_indices":[5,0,0,0,0],"split_type":[0,0,0,0,0],"sum_hessian":[3.8436887E0,1.2621461E0,2.5815427E0,1.2826321E0,1.2989105E0],"tree_param":{"num_deleted":"0","num_feature":"18","num_nodes":"5","size_leaf_vector":"1"}},{"base_weights":[1.5640059E-1,2.0961685E-2,-1.2486395E-1,7.2296234E-3,-1.6566876E-2],"categories":[],"categories_nodes":[],"categories_segments":[],"categories_sizes":[],"default_left":[0,0,0,0,0],"id":139,"left_children":[1,-1,3,-1,-1],"loss_changes":[4.0518704E-1,0E0,2.1905082E-1,0E0,0E0],"parents":[2147483647,0,0,2,2],"right_children":[2,-1,4,-1,-1],"split_conditions":[4.4168396E0,2.0961685E-2,4.47364E-1,7.2296234E-3,-1.6566876E-2],"split_indices":[11,0,4,0,0],"split_type":[0,0,0,0,0],"sum_hessian":[3.7729018E0,1.6967806E0,2.0761213E0,1.0307089E0,1.0454124E0],"tree_param":{"num_deleted":"0","num_feature":"18","num_nodes":"5","size_leaf_vector":"1"}},{"base_weights":[3.5828803E-2,-1.8191105E-2,2.5291935E-1,2.3656273E-2,-6.1727255E-3],"categories":[],"categories_nodes":[],"categories_segments":[],"categories_sizes":[],"default_left":[0,0,0,0,0],"id":140,"left_children":[1,-1,3,-1,-1],"loss_changes":[5.069797E-1,0E0,3.6417103E-1,0E0,0E0],"parents":[2147483647,0,0,2,2],"right_children":[2,-1,4,-1,-1],"split_conditions":[5.4953037E1,-1.8191105E-2,1.3272702E0,2.3656273E-2,-6.1727255E-3],"split_indices":[5,0,10,0,0],"split_type":[0,0,0,0,0],"sum_hessian":[3.7828493E0,1.0936338E0,2.6892154E0,1.5344108E0,1.1548047E0],"tree_param":{"num_deleted":"0","num_feature":"18","num_nodes":"5","size_leaf_vector":"1"}},{"base_weights":[-1.7468292E-1,-2.481156E-2,1.5051576E-2],"categories":[],"categories_nodes":[],"categories_segments":[],"categories_sizes":[],"default_left":[0,0,0],"id":141,"left_children":[1,-1,-1],"loss_changes":[7.4836403E-1,0E0,0E0],"parents":[2147483647,0,0],"right_children":[2,-1,-1],"split_conditions":[9.786103E0,-2.481156E-2,1.5051576E-2],"split_indices":[2,0,0],"split_type":[0,0,0],"sum_hessian":[2.9158113E0,1.7140859E0,1.2017254E0],"tree_param":{"num_deleted":"0","num_feature":"18","num_nodes":"3","size_leaf_vector":"1"}},{"base_weights":[8.627587E-2,2.9497653E-1,-1.4972704E-2,-4.1266563E-3,2.3941139E-2],"categories":[],"categories_nodes":[],"categories_segments":[],"categories_sizes":[],"default_left":[0,0,0,0,0],"id":142,"left_children":[1,3,-1,-1,-1],"loss_changes":[4.807334E-1,2.9400918E-1,0E0,0E0,0E0],"parents":[2147483647,0,0,1,1],"right_children":[2,4,-1,-1,-1],"split_conditions":[9E0,1.300883E0,-1.4972704E-2,-4.1266563E-3,2.3941139E-2],"split_indices":[1,10,0,0,0],"split_type":[0,0,0,0,0],"sum_hessian":[3.8744247E0,2.6668127E0,1.207612E0,1.0538708E0,1.6129419E0],"tree_param":{"num_deleted":"0","num_feature":"18","num_nodes":"5","size_leaf_vector":"1"}},{"base_weights":[3.3684026E-2,-1.6258903E-2,2.2550324E-1,-3.4532284E-3,2.1511344E-2],"categories":[],"categories_nodes":[],